{
   "convLayer" : {
      "bias" : [
         0.2734194695949554,
         0.5465790629386902,
         0.6589785814285278,
         0.4193995594978333,
         0.327943891286850,
         0.2069133073091507,
         0.5233984589576721,
         0.5682381391525269,
         0.5037316083908081,
         0.1226553991436958,
         0.1541013270616531,
         0.4124497771263123,
         0.4459021091461182,
         0.4238801598548889,
         0.4648442566394806,
         0.5428580045700073,
         0.3102153539657593,
         0.5800694823265076,
         0.2216176241636276,
         0.5056272149085999,
         0.5051744580268860,
         0.6354464292526245,
         0.1625830382108688,
         0.6472244262695312,
         0.1473263055086136,
         0.3001200258731842,
         0.3644120991230011,
         0.5063125491142273,
         0.3171004652976990,
         0.4034344851970673,
         0.1074522212147713,
         0.2599130272865295,
         0.3078153729438782,
         0.5026158690452576,
         0.5250072479248047,
         0.3846200108528137,
         0.4288771152496338,
         0.4746485948562622,
         0.4202457070350647,
         0.09761229902505875,
         0.09198696166276932,
         0.1549564152956009,
         0.5181951522827148,
         0.3228477239608765,
         0.3990315198898315,
         0.5494011044502258,
         0.4709116816520691,
         0.1205127760767937,
         0.5932707190513611,
         0.2480941861867905,
         0.5088837742805481,
         0.4789484739303589,
         0.1282111853361130,
         0.1446875780820847,
         0.3665305674076080,
         0.3046464920043945,
         0.2506742477416992,
         0.3203044235706329,
         0.6681866645812988,
         0.2415457814931870
      ],
      "weight" : [
         -0.009056877344846725,
         0.02035915479063988,
         0.02925897762179375,
         0.005359274335205555,
         -0.002580061554908752,
         -0.01623413339257240,
         0.01548735145479441,
         0.02042117342352867,
         0.01339828409254551,
         -0.02442080527544022,
         -0.02150654792785645,
         0.004285266622900963,
         0.007624948397278786,
         0.007866373285651207,
         0.009539132006466389,
         0.05114130303263664,
         -0.005489312577992678,
         0.02373496815562248,
         -0.01218655984848738,
         0.01576830446720123,
         0.01354230754077435,
         0.02671285159885883,
         -0.01874155737459660,
         0.02916227839887142,
         -0.02218295261263847,
         -0.006905257701873779,
         0.0006968480302020907,
         0.01365979108959436,
         -0.005218594335019588,
         0.003411613637581468,
         -0.02613961882889271,
         -0.01064603403210640,
         -0.005723299458622932,
         0.01393535174429417,
         0.01566498726606369,
         0.001513310242444277,
         0.005947872530668974,
         0.01125558838248253,
         0.005559537559747696,
         -0.02714619040489197,
         -0.02770843915641308,
         -0.02114832215011120,
         0.01510340999811888,
         -0.004657071083784103,
         0.002955799223855138,
         0.01836604438722134,
         0.01050812378525734,
         -0.02485494874417782,
         0.02233734540641308,
         -0.01199017185717821,
         0.01406178344041109,
         0.01099940203130245,
         -0.02409266121685505,
         -0.02186391502618790,
         0.0005109451012685895,
         -0.005585672333836555,
         -0.01186533086001873,
         -0.004805089440196753,
         0.03008530288934708,
         -0.01277665048837662,
         0.01214684732258320,
         -0.02807207778096199,
         0.004759347066283226,
         0.001788882538676262,
         -0.01542989164590836,
         0.02302480302751064,
         -0.001171287149190903,
         0.01963554881513119,
         0.01250714994966984,
         -0.02507914230227470,
         0.01966026984155178,
         0.003456147387623787,
         0.009959446266293526,
         -0.01996487751603127,
         0.01990621350705624,
         -0.006166631355881691,
         -0.02764254622161388,
         0.01609138958156109,
         -0.008389374241232872,
         0.009597724303603172,
         -0.02335484325885773,
         -0.01264620013535023,
         0.007340939715504646,
         -0.006560847163200378,
         -0.02711692638695240,
         -0.03014556691050529,
         -0.02945371530950069,
         0.01746474392712116,
         -0.0002238433808088303,
         -0.009375216439366341,
         0.02674204669892788,
         0.01403107680380344,
         -0.01970709674060345,
         -0.004605758935213089,
         0.02823997102677822,
         -0.01939965598285198,
         -0.01968560740351677,
         -0.01918780989944935,
         0.01553797535598278,
         0.02868220768868923,
         0.02810590900480747,
         0.02711745537817478,
         -0.03019919618964195,
         -0.02138496935367584,
         0.006794190034270287,
         -0.02313798293471336,
         -0.01186382025480270,
         0.003664439544081688,
         -0.02318328805267811,
         0.006923636421561241,
         -0.02226381935179234,
         -0.01877837255597115,
         -0.009643089026212692,
         -0.005524119362235069,
         -0.02513078227639198,
         0.01325103826820850,
         0.02244518510997295,
         0.01088564284145832,
         0.02299954928457737,
         -0.02698154002428055,
         0.002395322546362877,
         -0.02025954425334930,
         0.01252554915845394,
         0.02030799724161625,
         0.0006377790123224258,
         -0.02023454383015633,
         0.008810380473732948,
         0.01043735630810261,
         -0.02076284214854240,
         -0.001377070322632790,
         -0.01374641153961420,
         -0.02283454313874245,
         -0.006100157741457224,
         -0.02240870147943497,
         0.006662094034254551,
         0.01243870053440332,
         -0.02426766231656075,
         -0.002320387633517385,
         -0.001164317363873124,
         -0.01142986491322517,
         0.02101422846317291,
         0.02949939295649529,
         -0.02229786850512028,
         0.0007679354748688638,
         0.007570044137537479,
         -0.004018662497401237,
         -0.01691346243023872,
         -0.01806315779685974,
         0.006363616790622473,
         0.01791348308324814,
         0.02945153228938580,
         0.008623069152235985,
         -0.01049742475152016,
         -0.007028195541352034,
         0.009787707589566708,
         0.03058293834328651,
         -0.01951342448592186,
         -0.02302270196378231,
         0.01729054376482964,
         0.01662944443523884,
         0.02155580930411816,
         -0.01808327808976173,
         -0.008100992068648338,
         -0.01502244267612696,
         -0.01621166616678238,
         0.02910360507667065,
         0.02497225068509579,
         -0.02925823628902435,
         -0.02873661741614342,
         0.01107631344348192,
         0.02720551006495953,
         -0.02046618796885014,
         0.01789734326303005,
         -0.005117663647979498,
         0.01405853126198053,
         -0.01981994695961475,
         -0.02938306890428066,
         0.006584928371012211,
         -0.01253279857337475,
         -0.01784244179725647,
         -0.01102154143154621,
         0.009184388443827629,
         0.02581619285047054,
         0.02455535717308521,
         0.005595830269157887,
         0.01570620946586132,
         -0.0009894893737509847,
         -0.02019461803138256,
         -0.007549433968961239,
         0.002571360208094120,
         0.0253482498228550,
         0.01587295159697533,
         0.02077214792370796,
         -0.007207661401480436,
         0.01771689392626286,
         0.02905595675110817,
         -0.02352938987314701,
         -0.004042253829538822,
         0.01044038962572813,
         -0.02964826859533787,
         0.02295196242630482,
         0.007794738281518221,
         0.01555502787232399,
         0.02828964777290821,
         0.01909880153834820,
         0.02272201701998711,
         0.01693181134760380,
         0.01816974207758904,
         0.009460408240556717,
         0.01867804117500782,
         0.008859805762767792,
         -0.001839424716308713,
         0.01155725214630365,
         -0.004221695940941572,
         0.004263198934495449,
         -0.01566587388515472,
         0.02748097665607929,
         -0.02159391902387142,
         0.02785996906459332,
         -0.01926745101809502,
         0.01535987947136164,
         0.005313208326697350,
         0.02523170225322247,
         0.01286964863538742,
         -0.008517974056303501,
         -0.01574448309838772,
         -0.02540606260299683,
         -0.01195150893181562,
         -0.01980718597769737,
         0.002417116425931454,
         0.01973030902445316,
         -0.02261427231132984,
         -0.03015014342963696,
         -0.009975429624319077,
         -0.02946686185896397,
         0.02099302411079407,
         -0.008753322064876556,
         0.02462022379040718,
         0.01269843708723783,
         0.007692554499953985,
         -0.01549286302179098,
         -0.01131031755357981,
         -0.02302968129515648,
         -0.009537421166896820,
         0.003291210625320673,
         -0.006745619699358940,
         0.003309013554826379,
         0.02301767468452454,
         -0.02749503776431084,
         0.003121335525065660,
         0.01469377242028713,
         -0.002469257218763232,
         -0.0141795277595520,
         -0.01670257374644279,
         0.03084291517734528,
         0.01637774333357811,
         -0.001493158633820713,
         0.03331021964550018,
         0.002593880519270897,
         -0.009599598124623299,
         -0.02060147002339363,
         0.0009348135790787637,
         -0.02481127530336380,
         -0.02241350151598454,
         0.008382206782698631,
         0.02913794293999672,
         0.02373945899307728,
         -0.006870584096759558,
         -0.02088934183120728,
         -0.01970701664686203,
         -0.01618939451873302,
         -0.02825118042528629,
         0.02893978729844093,
         -0.008333925157785416,
         -0.01409576274454594,
         -0.003153978148475289,
         -0.0002355468750465661,
         -0.009338174946606159,
         -0.02633187919855118,
         0.003746220609173179,
         0.01954249106347561,
         -0.008075782097876072,
         0.01217528805136681,
         -0.01878289319574833,
         -0.01132584828883410,
         -0.003772752359509468,
         0.01439798623323441,
         0.01343498006463051,
         0.007919279858469963,
         -0.02679716423153877,
         0.004071200266480446,
         0.01159348059445620,
         -0.02634157799184322,
         0.01350220851600170,
         0.01246383227407932,
         -0.01654807664453983,
         0.004770476371049881,
         0.005658905487507582,
         0.01800456643104553,
         0.01666356995701790,
         -0.01763848587870598,
         -0.01998979970812798,
         -0.02199568226933479,
         0.02549219503998756,
         0.01412043906748295,
         -0.02845728769898415,
         -0.008661026135087013,
         0.02718458510935307,
         -0.01558641623705626,
         0.02580987103283405,
         -0.02419359050691128,
         -0.02039390802383423,
         0.008528919890522957,
         0.01122549362480640,
         0.01337791327387094,
         -0.01604244485497475,
         -0.04900341853499413,
         0.02820189855992794,
         0.01896546967327595,
         -0.01984225586056709,
         0.02760706283152103,
         -0.02295439504086971,
         0.006260797847062349,
         0.02629058994352818,
         -0.01179191656410694,
         0.008563423529267311,
         -0.002128231106325984,
         -0.02254027687013149,
         0.01077642478048801,
         0.02644477412104607,
         -0.02835282497107983,
         0.02083605527877808,
         0.01780202612280846,
         -0.0005972861545160413,
         -0.02504897117614746,
         0.01104432996362448,
         -0.02700895816087723,
         0.02342303842306137,
         -0.03006799891591072,
         0.008926038630306721,
         0.004004066344350576,
         -0.02526325173676014,
         0.001044266158714890,
         -0.01291725784540176,
         0.01988422684371471,
         0.01688625663518906,
         -0.01868705265223980,
         -0.005071360617876053,
         0.01870507001876831,
         0.01333119906485081,
         -0.009711680933833122,
         0.02795861661434174,
         0.02381855249404907,
         -0.01521383225917816,
         0.005014589522033930,
         -0.02026575990021229,
         -0.01825117506086826,
         -0.008480262011289597,
         0.01717564649879932,
         0.02829185314476490,
         -0.008505895733833313,
         0.01211875863373280,
         0.01317330636084080,
         -0.02534568496048450,
         -0.004459599032998085,
         0.02514199726283550,
         0.004377452656626701,
         -0.008400166407227516,
         -0.003599688410758972,
         0.007563678547739983,
         0.01531022600829601,
         -0.02835616096854210,
         -0.002904957160353661,
         -0.02868693508207798,
         -0.02433623373508453,
         0.01668712683022022,
         0.02892899326980114,
         -0.02787973545491695,
         -0.02034519240260124,
         0.01898945309221745,
         0.01914389990270138,
         -0.009452044963836670,
         0.0003341175615787506,
         -0.002289356663823128,
         0.02425023354589939,
         0.007391957566142082,
         -0.01713694259524345,
         -0.01164431683719158,
         -0.02542879804968834,
         0.01284920237958431,
         0.01922202669084072,
         0.005035394802689552,
         0.01322701759636402,
         -0.006208008155226707,
         -0.01068625971674919,
         -0.01130058802664280,
         -0.002515336498618126,
         -0.008858181536197662,
         0.02234101854264736,
         0.01878850348293781,
         -0.02658625319600105,
         -0.01279608719050884,
         -0.01081556826829910,
         -0.02622289955615997,
         -0.02937596663832664,
         0.0006810184568166733,
         -0.006706610321998596,
         0.01771114580333233,
         -0.0003374647349119186,
         -0.02474802918732166,
         -0.007360665127635002,
         0.01338778622448444,
         -0.02504528313875198,
         -0.006533404812216759,
         0.02907242067158222,
         -0.01883872598409653,
         0.01874991320073605,
         -0.01996663957834244,
         0.01148595102131367,
         0.03059017844498158,
         0.005866659805178642,
         -0.01007943786680698,
         0.01723967306315899,
         -0.003705183044075966,
         -0.02358136512339115,
         0.01572145335376263,
         0.02874086238443851,
         -0.01862671971321106,
         -0.02579749934375286,
         -0.008007805794477463,
         -0.009730234742164612,
         -0.02713204361498356,
         -8.062637789407745e-05,
         0.01836476661264896,
         -0.01042557135224342,
         -0.007395482622087002,
         -0.02772960253059864,
         -0.02140602096915245,
         0.002143766265362501,
         -0.01074404176324606,
         0.01989535801112652,
         0.009231816977262497,
         0.02483978308737278,
         -0.007069053128361702,
         -0.01623449847102165,
         0.02804409898817539,
         -0.006146147847175598,
         -0.01693760789930820,
         0.002655486110597849,
         -0.001139800529927015,
         0.01662731356918812,
         0.02468334883451462,
         -0.006108120083808899,
         0.003623749827966094,
         0.001187957823276520,
         0.02615121379494667,
         -0.01105851586908102,
         -0.006779297254979610,
         -0.01839048787951469,
         0.005778828170150518,
         -0.003454559482634068,
         -0.02873937599360943,
         -0.005055214744061232,
         0.01481360569596291,
         -0.02247943356633186,
         -0.02715490944683552,
         -0.01744605414569378,
         -0.009663045406341553,
         -0.01619383879005909,
         -0.007756228558719158,
         -0.02645538933575153,
         -0.02430373243987560,
         -0.02641043812036514,
         -0.02242977358400822,
         0.01047880761325359,
         0.02324477210640907,
         0.02075990848243237,
         0.01795028895139694,
         -0.01960190013051033,
         0.006158537231385708,
         0.01761065237224102,
         -0.004346115514636040,
         -0.01528497505933046,
         -0.02693745680153370,
         0.02460222505033016,
         0.02172249928116798,
         0.01034201122820377,
         0.01123581361025572,
         0.02685024775564671,
         -0.002630132483318448,
         -0.02537883073091507,
         0.02502464130520821,
         -1.044199689204106e-05,
         -0.02315453067421913,
         0.01648359559476376,
         0.02942107059061527,
         0.01885298639535904,
         -0.01059770025312901,
         0.001642868272028863,
         0.01671436056494713,
         0.02756033465266228,
         -0.002088001929223537,
         -0.006132450420409441,
         0.01172166131436825,
         0.004818942397832870,
         -0.007774876430630684,
         0.01857173815369606,
         -0.02313409745693207,
         -0.01798185519874096,
         -0.01677026785910130,
         -0.005059552378952503,
         0.01933851651847363,
         -0.01166868489235640,
         -0.02119447849690914,
         0.004273450002074242,
         -0.006681483704596758,
         -0.008803354576230049,
         -0.02524576522409916,
         0.01921327412128448,
         0.03011312708258629,
         0.01243396382778883,
         -0.004896193277090788,
         -0.004047045949846506,
         -0.001270389650017023,
         -0.02116385288536549,
         0.02136721648275852,
         -0.02726234495639801,
         -0.001597870024852455,
         0.006567416712641716,
         -0.01365225110203028,
         0.001152348471805453,
         0.01514183077961206,
         -0.02466173656284809,
         -0.002646876033395529,
         0.02770664356648922,
         -0.0003642424126155674,
         -0.002385474974289536,
         0.02499456517398357,
         0.01740906201303005,
         -0.02015110664069653,
         -0.003221485763788223,
         -0.02783113345503807,
         0.02131511457264423,
         0.03005520626902580,
         0.007199620362371206,
         0.03041684068739414,
         0.001882831333205104,
         -0.004291506484150887,
         0.01285752188414335,
         0.01512987911701202,
         0.01433577667921782,
         -0.01108223758637905,
         -0.0009447179036214948,
         0.007684187497943640,
         -0.007482685148715973,
         0.01583639718592167,
         0.02538788318634033,
         -0.02362660132348537,
         -0.02154549770057201,
         0.02472785860300064,
         0.01881349459290504,
         -0.01568414084613323,
         0.01959660463035107,
         0.004779824521392584,
         0.005711123347282410,
         0.02260276488959789,
         -0.01715098135173321,
         0.01729426905512810,
         0.02333590574562550,
         -0.003203766886144876,
         -0.01119628455489874,
         0.003123512724414468,
         -0.02393778972327709,
         0.0006943806656636298,
         0.009781957603991032,
         0.02328278683125973,
         0.005455262959003448,
         0.01766566373407841,
         0.02248955145478249,
         -0.005502201151102781,
         0.0006984994979575276,
         0.004958194214850664,
         -0.01168480422347784,
         0.02504252828657627,
         0.01269717793911695,
         0.01949875429272652,
         -0.03108049742877483,
         -0.005534115247428417,
         -0.03193002939224243,
         -0.01179427281022072,
         0.006445735227316618,
         0.0001374513376504183,
         0.003116632346063852,
         -0.03144057095050812,
         -0.01912803947925568,
         -0.006894139572978020,
         -0.001197092002257705,
         0.009064143523573875,
         -0.004769314080476761,
         -0.01762122288346291,
         0.02402021735906601,
         -0.01808394119143486,
         -0.005944381467998028,
         -0.01715022139251232,
         -0.01830606721341610,
         -0.008410147391259670,
         -0.002538649830967188,
         -0.007775479927659035,
         -0.002656370634213090,
         -0.009809494949877262,
         0.002379903569817543,
         -0.02698432654142380,
         -0.03045421093702316,
         0.01260569877922535,
         -0.02591437101364136,
         0.01381618343293667,
         -0.009783391840755939,
         0.04541124776005745,
         -0.0294845737516880,
         0.02906513586640358,
         -0.007419319823384285,
         -0.01052102819085121,
         -0.007744217291474342,
         0.02344824187457561,
         0.02897175960242748,
         0.03182994946837425,
         -0.02751652151346207,
         0.01519024744629860,
         -0.02934327162802219,
         0.006621147971600294,
         -0.001860286458395422,
         -0.007768665440380573,
         0.008630643598735332,
         -0.0291819442063570,
         0.003881633514538407,
         -0.02319617010653019,
         0.02782511897385120,
         -0.001187870511785150,
         0.009370112791657448,
         -0.01223290991038084,
         -0.005069048143923283,
         0.02966761216521263,
         0.006117982789874077,
         0.0005997332045808434,
         0.01959343813359737,
         0.005815851502120495,
         0.006243641953915358,
         -0.02986204996705055,
         0.009386420249938965,
         -0.003136618062853813,
         0.01839285716414452,
         0.01105156540870667,
         0.007774943020194769,
         0.004267845302820206,
         -0.01597764529287815,
         -0.01446701306849718,
         -0.01830013841390610,
         0.01480907015502453,
         -0.0008565951138734818,
         0.005815295968204737,
         0.01968925632536411,
         0.02068169973790646,
         -0.03044230490922928,
         -0.003473350778222084,
         -0.008539406582713127,
         0.02722220681607723,
         0.0003853179514408112,
         -0.02614758722484112,
         0.02384948544204235,
         0.01590453647077084,
         -0.01949313655495644,
         -0.02205622941255569,
         0.01339831016957760,
         0.02579310722649097,
         0.02833900786936283,
         0.02794130705296993,
         0.01645552553236485,
         -0.02232297509908676,
         0.008501814678311348,
         0.01350472308695316,
         0.02216086722910404,
         0.01979596354067326,
         0.003021677955985069,
         0.01540143229067326,
         0.02383022569119930,
         -0.01745437085628510,
         0.02008857019245625,
         -0.01232167892158031,
         -0.01608657836914062,
         0.02652810700237751,
         -0.01071538403630257,
         0.01608513481914997,
         -0.02322839573025703,
         -0.007041264325380325,
         -0.001675102859735489,
         0.002338534221053123,
         -0.01670392602682114,
         0.02658100612461567,
         0.02662212587893009,
         -0.002061666920781136,
         -0.01939309947192669,
         -0.02900689840316772,
         0.003636928275227547,
         -0.01119131222367287,
         0.01161336340010166,
         0.007443258538842201,
         0.001113867387175560,
         -0.002882877364754677,
         -0.004321586340665817,
         0.002563482150435448,
         0.02707033045589924,
         -0.01295492798089981,
         -0.004585096612572670,
         0.01966060139238834,
         -0.02990127913653851,
         -0.005801387131214142,
         -0.0007078852504491806,
         0.007081354036927223,
         -0.02649188786745071,
         0.01554844342172146,
         0.01374659501016140,
         0.01915047504007816,
         0.03078715689480305,
         -0.02151964232325554,
         -0.01815730147063732,
         0.02633141912519932,
         -0.01830087974667549,
         -0.01424696296453476,
         0.01015236042439938,
         -0.02218645624816418,
         -0.02955279871821404,
         0.006910679861903191,
         0.001535695279017091,
         0.02942367829382420,
         0.009124444797635078,
         -0.01405767165124416,
         -0.02857319265604019,
         0.02562085166573524,
         -0.01812580041587353,
         0.02577728033065796,
         -0.01074517052620649,
         0.009473325684666634,
         0.02205877751111984,
         0.005027537699788809,
         -0.01058839168399572,
         0.01735647022724152,
         0.02527674660086632,
         -0.005003072787076235,
         0.007695981301367283,
         -0.01510388217866421,
         0.02102229557931423,
         -0.004092032089829445,
         0.01627142727375031,
         -0.02826347760856152,
         0.0009066310594789684,
         -0.03031105175614357,
         -0.008910273201763630,
         0.007169738877564669,
         0.01410451810806990,
         0.02625764906406403,
         0.02558092400431633,
         0.02979087457060814,
         0.002569821430370212,
         0.008502028882503510,
         0.01840906962752342,
         0.005193574354052544,
         0.002752917818725109,
         -0.005445743910968304,
         0.004792327061295509,
         0.01303369179368019,
         0.0150104733183980,
         0.01546477060765028,
         0.03079630993306637,
         -0.02514537796378136,
         -0.03066524863243103,
         -0.01155055966228247,
         -0.02700746245682240,
         0.01950231194496155,
         -0.02464401535689831,
         0.02862607315182686,
         -0.02649325318634510,
         -0.01327667851001024,
         -0.0005101418937556446,
         -0.02706648595631123,
         0.008879990316927433,
         -0.03064160421490669,
         -0.009358928538858891,
         0.02206837385892868,
         -0.02987600862979889,
         0.02580653503537178,
         -0.02748441882431507,
         0.02321105264127254,
         0.0004401547485031188,
         0.02612316049635410,
         -0.01723540201783180,
         -0.03045824542641640,
         0.02882675826549530,
         0.01224428974092007,
         -0.02407908253371716,
         -0.01853264681994915,
         0.003020224161446095,
         -0.007763039786368608,
         -0.006907481700181961,
         -0.02751374244689941,
         -0.003889043349772692,
         0.01447180286049843,
         0.009135017171502113,
         -0.007732934784144163,
         0.02584722265601158,
         -0.01718468405306339,
         0.02037053182721138,
         0.005717244930565357,
         -0.02162104099988937,
         0.009232901036739349,
         0.01765623874962330,
         0.03042639978230,
         -0.007306148763746023,
         0.004594343714416027,
         0.02780007384717464,
         -0.009521215222775936,
         0.02377710677683353,
         -0.004654104355722666,
         -0.02337390929460526,
         0.01859109103679657,
         0.02537346072494984,
         -0.02330551296472549,
         -0.01742786541581154,
         0.002350306138396263,
         -0.01830167882144451,
         -0.02148719877004623,
         0.02636424452066422,
         0.01533628813922405,
         -0.01576762087643147,
         -0.01329816132783890,
         -0.02649101056158543,
         -0.01110502704977989,
         0.01405391003936529,
         -0.006815211381763220,
         0.02220094762742519,
         -0.02201109193265438,
         -0.02089221961796284,
         0.01501030474901199,
         0.02021701261401176,
         -0.02907293103635311,
         0.002352098235860467,
         0.01573285274207592,
         0.01860813982784748,
         0.02020751684904099,
         0.02969987876713276,
         0.02013736963272095,
         -0.001258453587070107,
         -0.02371549420058727,
         0.02616846561431885,
         0.008132651448249817,
         0.003224174724891782,
         0.008302795700728893,
         -0.01348709128797054,
         0.02202882803976536,
         -0.01313166320323944,
         -0.01401578169316053,
         -0.007621706463396549,
         0.03132281079888344,
         -0.004745247308164835,
         0.001774734817445278,
         -0.03007847256958485,
         0.001203003805130720,
         0.009856881573796272,
         0.001258751377463341,
         -0.02446402050554752,
         -0.01292957644909620,
         -0.006126370746642351,
         -0.0007164157577790320,
         -0.02710478939116001,
         0.002727414714172482,
         0.001848057494498789,
         0.02662926912307739,
         -0.01612963527441025,
         0.009390265680849552,
         0.001345487777143717,
         0.02186531759798527,
         -0.02130443230271339,
         0.01575781777501106,
         -0.005095981527119875,
         0.02385285310447216,
         0.02644168585538864,
         0.004719411488622427,
         -0.01783594861626625,
         -0.007260944228619337,
         -0.005826018750667572,
         -0.01951099559664726,
         -0.02675916627049446,
         -0.02749763615429401,
         0.007926369085907936,
         -0.005558433942496777,
         -0.02316527441143990,
         0.004782579373568296,
         -0.009937994182109833,
         0.01013569068163633,
         0.02341472171247005,
         0.01439810544252396,
         -0.02453019283711910,
         -0.002210557926446199,
         0.01460354775190353,
         0.01997755654156208,
         -0.03509613499045372,
         -0.001140851294621825,
         -0.02839498594403267,
         0.01957848481833935,
         0.005480142310261726,
         0.004339546896517277,
         0.02302034199237823,
         0.007830837741494179,
         -0.006264327093958855,
         0.003587869927287102,
         0.009283194318413734,
         0.002997478470206261,
         0.02096240036189556,
         0.004688915796577930,
         -0.01298060175031424,
         0.005352565553039312,
         -0.008177958428859711,
         0.01920304447412491,
         0.009191963821649551,
         0.02971533499658108,
         0.01382803451269865,
         0.02002526819705963,
         0.01076966896653175,
         0.01267264597117901,
         0.01518716383725405,
         0.009947483427822590,
         0.02912587299942970,
         -0.02441063337028027,
         0.02718747407197952,
         -0.01823707297444344,
         -0.009816654026508331,
         0.003404410555958748,
         -0.02990102395415306,
         -0.01450364757329226,
         0.02406419254839420,
         0.02688267827033997,
         -0.01313035469502211,
         -0.01906966418027878,
         0.02343823388218880,
         -0.0248387623578310,
         -0.01861962489783764,
         0.02604811638593674,
         -0.001655022962950170,
         0.001684683025814593,
         0.004927228670567274,
         -0.01256366912275553,
         -0.006940776016563177,
         0.02923393622040749,
         -0.01211048103868961,
         0.02962320111691952,
         -0.004967036657035351,
         -0.01409847009927034,
         0.01574574224650860,
         -0.01700690016150475,
         0.01722562126815319,
         -0.009014589712023735,
         0.01878039538860321,
         -0.01546405348926783,
         -0.007178045809268951,
         0.01689462177455425,
         -0.02412149868905544,
         -0.01068221405148506,
         0.01822798512876034,
         -0.01839454844594002,
         -0.01596735417842865,
         -0.02693261206150055,
         -0.01399345137178898,
         -0.02822964638471603,
         -0.005045125260949135,
         0.02140976674854755,
         -0.01315507851541042,
         -0.01317257806658745,
         -0.02048230357468128,
         0.02403585053980350,
         -0.02656495198607445,
         -0.01241288147866726,
         0.005812657997012138,
         0.008604692295193672,
         0.0002523828297853470,
         0.02907099388539791,
         -0.0001977384090423584,
         -0.01404188200831413,
         0.02722631581127644,
         -0.03064875863492489,
         0.007946116849780083,
         0.01891432888805866,
         -0.02185064554214478,
         -0.002411115914583206,
         -0.006714899092912674,
         -0.003710934892296791,
         -0.005118364468216896,
         0.02921075932681561,
         0.02595470659434795,
         -0.007739247754216194,
         0.03070748038589954,
         0.02906507067382336,
         0.01817825622856617,
         0.01479369588196278,
         0.01071182452142239,
         -0.009500885382294655,
         0.002674886956810951,
         -0.02747202850878239,
         -0.02029773779213428,
         -0.02350786142051220,
         -0.009688714519143105,
         0.004905952140688896,
         0.001030543819069862,
         0.004948833957314491,
         -0.01659889891743660,
         -0.0001162979751825333,
         0.02482069842517376,
         -0.01614312827587128,
         0.01204148866236210,
         -0.002208493649959564,
         0.003533432260155678,
         0.006170591339468956,
         0.008454298600554466,
         -0.001760402694344521,
         0.0176441278308630,
         -0.01396076008677483,
         0.01734101586043835,
         -0.007789703086018562,
         0.01161879487335682,
         -0.01638768613338470,
         -0.0009927637875080109,
         -0.01815044879913330,
         -0.01920655742287636,
         -0.01341051049530506,
         0.007093755528330803,
         0.002938793739303946,
         0.01063010096549988,
         0.01102838199585676,
         0.01986459456384182,
         0.02947597950696945,
         -0.01139140408486128,
         0.01622427068650723,
         0.01188765652477741,
         -0.004513798747211695,
         0.02901742979884148,
         -0.01587435044348240,
         0.01778823509812355,
         -0.01566256582736969,
         -0.02812851779162884,
         0.004565224051475525,
         -0.002174210501834750,
         0.001956678228452802,
         -0.01273985765874386,
         0.005782094318419695,
         0.01101163495332003,
         0.008241602219641209,
         0.03077079914510250,
         0.02319411188364029,
         -0.01180391199886799,
         0.003114310791715980,
         0.02139994315803051,
         -0.0004090367583557963,
         0.02755548059940338,
         0.02740707248449326,
         -0.002067717490717769,
         -0.02289746329188347,
         -0.02243635058403015,
         -0.009124948643147945,
         -0.01895787380635738,
         0.01906310394406319,
         -0.005641697440296412,
         0.02855085209012032,
         0.01955175586044788,
         0.01085047330707312,
         -0.0004958913195878267,
         0.02845836430788040,
         0.02357258833944798,
         -0.01187272183597088,
         0.01499654352664948,
         0.02203191258013248,
         -0.01255082059651613,
         0.006035836879163980,
         0.02063835412263870,
         -0.02327652089297771,
         0.006580389570444822,
         -0.007138743530958891,
         0.006546435877680779,
         -0.005515210796147585,
         -0.02662200294435024,
         -0.02311111427843571,
         0.01961899548768997,
         -0.01315731368958950,
         -0.02769051492214203,
         -0.03069091215729713,
         0.007868031039834023,
         0.01330924965441227,
         -0.0001411438279319555,
         0.001335226930677891,
         -0.004069634247571230,
         0.009188347496092319,
         0.0001782410981832072,
         0.005081565119326115,
         -0.03052465990185738,
         0.02988396771252155,
         0.01553705893456936,
         -0.0100943036377430,
         0.01576562598347664,
         -0.01152861490845680,
         -0.01648824475705624,
         -0.01839279942214489,
         -0.01476083882153034,
         -0.01611972227692604,
         0.002683864673599601,
         -0.02665443159639835,
         0.005083168856799603,
         0.02084808424115181,
         -0.01750431954860687,
         -0.01938981004059315,
         -0.02626324817538261,
         -0.01069243717938662,
         0.01115849800407887,
         0.01577902957797050,
         0.01453518308699131,
         -0.003988790791481733,
         0.006693124771118164,
         0.02512592263519764,
         -0.02957540564239025,
         0.02943491935729980,
         0.02927985787391663,
         0.01571862958371639,
         -0.0008536161039955914,
         -0.02955681085586548,
         -0.02201868407428265,
         0.01975140906870365,
         -0.01381417363882065,
         -0.01612360961735249,
         0.01432769279927015,
         -0.01088443677872419,
         -0.01411001384258270,
         -0.01050154957920313,
         -0.01934556290507317,
         -0.009766938164830208,
         0.01726011559367180,
         0.02284702472388744,
         -0.02388345822691917,
         0.02745581232011318,
         -0.01697568967938423,
         -0.01275114063173532,
         0.01598651893436909,
         0.009458648040890694,
         -0.02985423803329468,
         0.02250073850154877,
         -0.01818038523197174,
         -0.01152856089174747,
         0.01317510101944208,
         -0.02149829827249050,
         -0.01769969984889030,
         0.001983374590054154,
         0.005400890484452248,
         -0.02976202033460140,
         0.004903253167867661,
         -0.003285721642896533,
         0.02128208801150322,
         -0.02177146263420582,
         0.001231651171110570,
         0.0005318688927218318,
         0.003110717283561826,
         0.003770747687667608,
         -0.003515235148370266,
         -0.02650182880461216,
         -0.02396181412041187,
         0.02562216669321060,
         0.01412288472056389,
         0.02476326934993267,
         0.006099766585975885,
         0.02766169793903828,
         0.004015809856355190,
         0.01629455201327801,
         -0.005184672772884369,
         -0.01579686254262924,
         -0.02047936804592609,
         0.006427492015063763,
         0.02168116159737110,
         -0.02881426364183426,
         0.006971462629735470,
         0.002980966819450259,
         0.01945698447525501,
         -0.007148717064410448,
         0.0006936042918823659,
         0.01212869677692652,
         -0.02302538603544235,
         0.001537646166980267,
         0.01358121447265148,
         0.02039698511362076,
         0.003066407982259989,
         0.01309309061616659,
         0.02389206364750862,
         -0.01592002063989639,
         -0.005663164891302586,
         -0.01614203117787838,
         0.0003797993704210967,
         -0.01748238131403923,
         0.01349244639277458,
         0.02463838458061218,
         -0.01546282228082418,
         0.0005315945600159466,
         0.01145762298256159,
         -0.01546884421259165,
         0.01078921277076006,
         -0.0006042650202289224,
         -0.006183412857353687,
         0.02280583046376705,
         -0.02223114110529423,
         -0.01381184905767441,
         -0.004773171618580818,
         0.01570191234350204,
         -0.02987917326390743,
         0.03067487291991711,
         -0.02051458135247231,
         -0.03018069267272949,
         0.01092208176851273,
         0.001560451113618910,
         -0.03083143197000027,
         0.009453501552343369,
         0.02115088142454624,
         -0.009682345204055309,
         -0.02489195764064789,
         -0.02133205160498619,
         -0.01609044335782528,
         0.01728640682995319,
         -0.02595753222703934,
         0.0004840199835598469,
         -0.02707400359213352,
         -0.005657959729433060,
         0.01215465832501650,
         0.01117718406021595,
         -0.01894653402268887,
         -0.008346971124410629,
         -0.02272333949804306,
         -0.01357481256127357,
         0.003385440213605762,
         0.01477673184126616,
         -0.01117562409490347,
         0.01404056604951620,
         -0.003645337419584394,
         -0.01671868562698364,
         0.02152319252490997,
         0.02886560931801796,
         0.02289633266627789,
         -0.002942249877378345,
         -0.01054354198276997,
         -0.02277276478707790,
         -0.02040450088679790,
         0.02489196509122849,
         -0.01115980464965105,
         0.01580476760864258,
         0.003432251513004303,
         -0.02307829074561596,
         0.02901125140488148,
         -0.01206181198358536,
         0.005989869125187397,
         0.02021892368793488,
         -0.02497164905071259,
         0.005190092138946056,
         -0.02699120528995991,
         0.01264613680541515,
         0.02211700193583965,
         -0.02674512565135956,
         0.01540266163647175,
         -0.01838024705648422,
         -0.004295485094189644,
         -0.002953534945845604,
         -0.01625469326972961,
         0.01661577261984348,
         0.008220413699746132,
         -0.02089122682809830,
         -0.02671918459236622,
         0.02017829008400440,
         0.01852416060864925,
         0.02710554935038090,
         -0.01151856034994125,
         0.0005125645548105240,
         -0.03062929213047028,
         0.006114391610026360,
         0.005261698737740517,
         -0.006850510835647583,
         -0.008305333554744720,
         0.02654549293220043,
         -0.01043653674423695,
         0.002680478617548943,
         0.01884411834180355,
         -0.02312781289219856,
         0.01353679783642292,
         0.01007994450628757,
         0.01299330405890942,
         -0.001114366576075554,
         -0.01949094980955124,
         0.006134198978543282,
         0.01526725478470325,
         -0.01166537776589394,
         0.02941811643540859,
         0.01615497283637524,
         -0.01237418688833714,
         -0.02536455914378166,
         -0.005421597510576248,
         0.02385759912431240,
         -0.01792041584849358,
         -0.001239765435457230,
         0.01678628288209438,
         -0.01118147000670433,
         -0.01405951566994190,
         0.007840419188141823,
         -0.01195533946156502,
         -0.01846405491232872,
         0.02566373907029629,
         -0.02204971574246883,
         -0.02104779332876205,
         -0.01791433617472649,
         -0.01037297956645489,
         0.02850983850657940,
         0.01021146215498447,
         -0.01324574649333954,
         -0.006115825846791267,
         -0.01002788916230202,
         0.03077756427228451,
         0.003149176016449928,
         0.02375997044146061,
         -0.008771495893597603,
         0.004038931801915169,
         0.01937436498701572,
         0.01922523044049740,
         -0.01339371316134930,
         0.0007946174591779709,
         -0.02675855532288551,
         0.02857100777328014,
         -0.007713589817285538,
         0.01979253813624382,
         -0.02406608499586582,
         -0.01413333695381880,
         0.01065102219581604,
         0.002457937691360712,
         0.01784151047468185,
         -0.009194212034344673,
         -0.008829376660287380,
         -0.007345486897975206,
         -0.009507016278803349,
         0.02467277273535728,
         -0.0005019906675443053,
         -0.004388677887618542,
         0.003514981130138040,
         0.03027373924851418,
         -0.001882715383544564,
         -0.02748781070113182,
         -0.01648558676242828,
         -0.01856631599366665,
         -0.01688138768076897,
         -0.008690588176250458,
         -0.004293280653655529,
         -0.02606185525655746,
         -0.01274372916668653,
         -0.01432000752538443,
         -0.02705043926835060,
         -0.02665094286203384,
         0.01499413326382637,
         -0.01426198612898588,
         -0.001148978015407920,
         -0.02290066145360470,
         -0.02506106905639172,
         0.0001923878153320402,
         -0.02683040313422680,
         0.006869425531476736,
         0.0008728706743568182,
         -0.008886579424142838,
         -0.001719951629638672,
         -0.02861005440354347,
         -0.02035473473370075,
         0.0006322836852632463,
         0.008457637391984463,
         -0.0003109782119281590,
         0.01491981465369463,
         0.007026880979537964,
         -0.02773186936974525,
         0.01210048981010914,
         0.007009350229054689,
         0.01716142334043980,
         -0.01639560237526894,
         0.01770259998738766,
         0.008767551742494106,
         -0.01015266403555870,
         -0.01784922555088997,
         -0.02289814502000809,
         0.02611652016639709,
         -0.005296854302287102,
         0.02911807224154472,
         -0.01417745742946863,
         0.02580646239221096,
         -0.01505606155842543,
         -0.02776412479579449,
         -0.02817470021545887,
         0.0002567164192441851,
         0.01254296116530895,
         -0.02227610535919666,
         0.01559787895530462,
         0.02907965704798698,
         0.02579443715512753,
         -0.01157652493566275,
         0.01877831108868122,
         -0.005196484737098217,
         0.03076933324337006,
         -0.003243947168812156,
         0.02775293588638306,
         0.01585958711802959,
         0.01004210021346807,
         0.01967043615877628,
         0.01620512455701828,
         0.0005030356114730239,
         0.01865155436098576,
         0.02581044472754002,
         0.01486449502408504,
         0.001313157961703837,
         0.01152156479656696,
         0.02425378374755383,
         0.003367420053109527,
         0.007632110267877579,
         -0.03042243234813213,
         -0.01821310445666313,
         -5.428585427580401e-05,
         -0.02387882769107819,
         0.01693166978657246,
         0.02110967226326466,
         -0.002181605203077197,
         -0.02414753101766109,
         0.02522378414869308,
         -0.03057460114359856,
         -0.02846218831837177,
         0.02863663807511330,
         -0.02488791011273861,
         -0.002746905665844679,
         0.01471400912851095,
         -0.02506284229457378,
         0.01905114389955997,
         -0.001098522800020874,
         -0.01311639603227377,
         -0.01430517900735140,
         0.005790468305349350,
         0.01812333241105080,
         0.02128138393163681,
         -0.02527954243123531,
         -0.01355992443859577,
         0.03046071156859398,
         -0.01391122676432133,
         -0.009799838066101074,
         0.01858678273856640,
         0.01932478323578835,
         0.01927977614104748,
         -0.02553402632474899,
         -0.006903589237481356,
         0.02736169658601284,
         0.01536791771650314,
         0.004684155806899071,
         -0.02820022404193878,
         -0.0002876185753848404,
         0.02129992470145226,
         0.01600458286702633,
         0.02809704467654228,
         -0.01525190751999617,
         0.01686855405569077,
         -0.007842009887099266,
         -0.01723709702491760,
         -0.01674721576273441,
         0.01722702756524086,
         -0.01064079627394676,
         -0.01040493696928024,
         -0.006684685591608286,
         0.01691634953022003,
         0.01791233755648136,
         -0.01492356415838003,
         0.01889648288488388,
         -0.03082343749701977,
         -0.01885936409235001,
         0.005588617175817490,
         -0.01479681953787804,
         0.01946476660668850,
         -0.02239162288606167,
         -0.008423929102718830,
         -0.01106739137321711,
         0.0001743786415318027,
         -0.01491566654294729,
         0.02252116240561008,
         0.02693264372646809,
         -0.01966214552521706,
         0.02317240647971630,
         -0.02916582860052586,
         0.009025324136018753,
         -0.01462672371417284,
         0.02680244296789169,
         -0.01074496563524008,
         0.02359672449529171,
         0.01864352636039257,
         0.008126756176352501,
         0.01470386143773794,
         0.02688554115593433,
         -0.02297646179795265,
         0.003182610962539911,
         0.02744212560355663,
         0.002972023328766227,
         -0.004667752422392368,
         0.004760327748954296,
         0.005369575694203377,
         0.007057646289467812,
         0.02181351371109486,
         -0.004289384000003338,
         -0.02936485037207603,
         0.02683990262448788,
         0.02724842168390751,
         -0.03047827631235123,
         -0.01483225543051958,
         0.02817252464592457,
         0.02973947115242481,
         0.0007608588784933090,
         -0.01815652474761009,
         -0.01002772059291601,
         0.03343114629387856,
         0.01800324022769928,
         0.007926234975457191,
         0.02112631686031818,
         0.008140497840940952,
         0.02508732117712498,
         -0.01759428717195988,
         -0.02461616322398186,
         -0.01784339547157288,
         -8.396990597248077e-05,
         -0.009105959907174110,
         0.03127770125865936,
         -0.02422372251749039,
         -0.01119267381727695,
         -0.01387888193130493,
         0.01333740353584290,
         -0.01363853178918362,
         0.002548334654420614,
         0.007806181441992521,
         0.007416063454002142,
         -0.01809142157435417,
         -0.003947695251554251,
         0.01329018827527761,
         0.005012392532080412,
         -0.01372488960623741,
         -0.01066877692937851,
         0.001383156632073224,
         -0.02750379219651222,
         -0.02183650620281696,
         0.006884307600557804,
         -0.02957222424447536,
         -0.01276759989559650,
         0.001861887983977795,
         0.02980810590088367,
         -0.01702840439975262,
         -0.01574488356709480,
         0.01893921010196209,
         0.01759668253362179,
         0.02714078687131405,
         -0.02392315305769444,
         0.02866371162235737,
         -0.006223138421773911,
         -0.02292434126138687,
         -0.02118949219584465,
         -0.001505555585026741,
         0.01153087429702282,
         -0.008414579555392265,
         -0.008627502247691154,
         -0.02363011427223682,
         0.01358008198440075,
         -0.01391089148819447,
         -0.01078040152788162,
         0.005141874775290489,
         0.008970821276307106,
         0.03011396713554859,
         0.02739018388092518,
         0.006701404228806496,
         -0.02274966426193714,
         -0.006294593214988708,
         -0.01789937913417816,
         0.01997224427759647,
         -0.01270539313554764,
         -0.002617336809635162,
         -0.02404285594820976,
         -0.002037975937128067,
         -0.01003919541835785,
         -0.02209992147982121,
         0.02056542225182056,
         -0.01411961950361729,
         0.01452367193996906,
         -0.004406793043017387,
         0.02355509065091610,
         -0.01593897491693497,
         0.001217873767018318,
         0.0007126983255147934,
         -0.01554191391915083,
         -0.0009739845991134644,
         0.002064535394310951,
         0.02398404665291309,
         -0.004489468410611153,
         0.02185245789587498,
         -0.008381322026252747,
         0.01282490231096745,
         0.009860439226031303,
         0.01110550947487354,
         -0.01053696312010288,
         -0.02715787477791309,
         -0.009835321456193924,
         0.01717347092926502,
         -0.002514826133847237,
         0.009461833164095879,
         -0.02107151970267296,
         0.01210157014429569,
         -0.01096688583493233,
         0.01759521476924419,
         0.02377885766327381,
         -0.02289235033094883,
         -0.006464017555117607,
         -0.01575855538249016,
         0.02370697073638439,
         -0.01496361568570137,
         0.007248854264616966,
         0.001736266538500786,
         0.0009158756583929062,
         0.01758024282753468,
         -0.0006820131093263626,
         0.0007332768291234970,
         -0.01139875315129757,
         0.004946770146489143,
         0.008506605401635170,
         0.007381768897175789,
         -0.02429187111556530,
         -0.01620756462216377,
         0.03005516342818737,
         -0.005321912467479706,
         -0.01853634603321552,
         -0.0005637868307530880,
         -0.02649341337382793,
         0.02503097988665104,
         0.001213119248859584,
         -0.01965894922614098,
         0.02482630498707294,
         -0.009180358611047268,
         -0.004607955925166607,
         0.0004835419531445950,
         0.003039423143491149,
         -0.005322119221091270,
         -0.01864337548613548,
         -0.02639990113675594,
         -0.02159614861011505,
         0.01944630593061447,
         0.02079932764172554,
         0.02739092335104942,
         0.008884195238351822,
         0.02906037494540215,
         -0.02655304409563541,
         -0.001341005321592093,
         0.01963913254439831,
         -0.002616163808852434,
         0.01869554817676544,
         0.009378422051668167,
         0.02133465558290482,
         -0.02563213370740414,
         -0.02522144094109535,
         -0.001847965759225190,
         -0.002215829445049167,
         0.01902556046843529,
         0.02023127861320972,
         -0.001581141143105924,
         0.01792214065790176,
         0.01524545997381210,
         -0.008871635422110558,
         -0.007853763177990913,
         -0.008949476294219494,
         0.02183079719543457,
         -0.02925540693104267,
         -0.02395220845937729,
         -0.004559265449643135,
         0.01811931468546391,
         -0.01021592039614916,
         -0.02660361677408218,
         0.01684531755745411,
         -0.02514537051320076,
         0.003942049108445644,
         -0.01417290233075619,
         -0.01371598616242409,
         0.02811659872531891,
         0.01795312948524952,
         0.01479581184685230,
         -0.02786095626652241,
         -0.0001500549842603505,
         0.01682891510426998,
         0.02391685545444489,
         0.02234480530023575,
         -6.659519567620009e-05,
         0.02308372408151627,
         0.004134291317313910,
         -0.02740069851279259,
         0.01614296808838844,
         0.01367114856839180,
         0.0115652447566390,
         -0.01264469604939222,
         0.03080128133296967,
         -0.01773168519139290,
         0.01132520474493504,
         -0.01743392832577229,
         0.01680586114525795,
         0.01578710041940212,
         0.02437335811555386,
         0.01417970936745405,
         0.02607169374823570,
         0.008474688045680523,
         0.002539124339818954,
         -0.02479249425232410,
         0.02984999865293503,
         0.02025036700069904,
         0.02703069895505905,
         -0.02464463748037815,
         -0.007361977361142635,
         -0.001842103898525238,
         -0.02357907220721245,
         0.01427195686846972,
         0.01828120462596416,
         -0.01794186048209667,
         -0.01713821664452553,
         -0.01902643404901028,
         -0.002768489066511393,
         -0.01088948361575603,
         0.01978254131972790,
         0.01988331787288189,
         -0.01680384762585163,
         -0.01782166585326195,
         0.01460703648626804,
         -0.02609828859567642,
         -0.003380875103175640,
         -0.01312136929482222,
         0.02790966257452965,
         0.02264015190303326,
         -0.007201009429991245,
         0.02145914360880852,
         0.0003664692339953035,
         -0.01364223193377256,
         0.02023222111165524,
         0.008981931954622269,
         0.02103852108120918,
         -0.02281940542161465,
         0.02744757756590843,
         0.02498929388821125,
         0.03042331524193287,
         -0.005153251346200705,
         0.02067466825246811,
         0.02612383104860783,
         -0.001413079095073044,
         -0.004100406542420387,
         -0.01361426897346973,
         0.01725643314421177,
         -0.006609531585127115,
         0.01820149086415768,
         -0.007940720766782761,
         -0.003512033028528094,
         -0.01920192129909992,
         0.008614532649517059,
         0.02703523077070713,
         -0.01356001105159521,
         -0.008315321058034897,
         0.0108240544795990,
         0.02396638691425323,
         0.02664781548082829,
         -0.02473847940564156,
         0.0004345850029494613,
         -0.02851051278412342,
         0.004339538514614105,
         0.006672951392829418,
         0.01230016071349382,
         0.03090323135256767,
         0.007707051001489162,
         -0.01177052594721317,
         0.02943122014403343,
         -0.02585381083190441,
         -0.009712178260087967,
         0.01921769976615906,
         -0.01507398486137390,
         -0.02216823026537895,
         -0.01157453004270792,
         0.01655291393399239,
         -0.009227145463228226,
         -0.02683598548173904,
         -0.02520248107612133,
         -0.01569499447941780,
         0.01715693436563015,
         0.01634043082594872,
         0.02328331395983696,
         0.01764276623725891,
         -0.02774587087333202,
         -0.01769593358039856,
         -0.02873620949685574,
         0.0005805657710880041,
         0.004056995734572411,
         0.01507972646504641,
         -0.01688958704471588,
         0.006897456012666225,
         0.0009598626638762653,
         -0.007051312364637852,
         0.02084149979054928,
         -0.01279413793236017,
         -0.0009450948564335704,
         0.003557340009137988,
         -0.002139176009222865,
         -0.02183811739087105,
         -0.02463760599493980,
         0.01991323754191399,
         0.02355370111763477,
         0.02406513132154942,
         -0.01155016105622053,
         -0.003612065687775612,
         0.02241887710988522,
         -0.01111977361142635,
         -0.02410637959837914,
         0.01195780746638775,
         0.002676144940778613,
         0.0004089920257683843,
         0.07330872863531113,
         -0.02460553683340549,
         0.01598343253135681,
         0.02989822253584862,
         0.02543198876082897,
         0.02463866584002972,
         0.01520047336816788,
         -0.001593819819390774,
         -0.01304070372134447,
         0.003595272079110146,
         -0.02519110962748528,
         0.02906733751296997,
         -0.01847015321254730,
         -0.008973456919193268,
         0.002983771264553070,
         -0.003853019326925278,
         -0.01897715963423252,
         -0.02768164500594139,
         -0.01038814708590508,
         0.02747351676225662,
         -0.002550226636230946,
         -0.01144998241215944,
         -0.0001437983446521685,
         -0.01156235393136740,
         0.02406617254018784,
         -0.0217513944953680,
         0.01069589424878359,
         0.005398966837674379,
         -0.004934106953442097,
         0.02683085575699806,
         -0.01365680992603302,
         0.0006031442317180336,
         -0.01943693310022354,
         -0.01585073955357075,
         0.02928571775555611,
         -0.01625992171466351,
         -0.01246024388819933,
         0.01455818302929401,
         -0.02365686744451523,
         0.01163644343614578,
         -0.01324509549885988,
         0.02418088354170322,
         -0.009379819035530090,
         -0.01662742346525192,
         -0.02616843953728676,
         0.02162863872945309,
         -0.01546181831508875,
         0.003038434311747551,
         -0.01840396225452423,
         -0.003886586055159569,
         0.001257916912436485,
         -0.02667225524783134,
         0.0007502082735300064,
         0.01671382971107960,
         -0.01721702516078949,
         -0.009430557489395142,
         -0.02812833152711391,
         0.01159350760281086,
         -0.02411541715264320,
         0.004421161487698555,
         0.002776438370347023,
         0.01990041695535183,
         0.01505540125072002,
         0.01427660696208477,
         -0.01220130734145641,
         0.02209987305104733,
         0.01239539496600628,
         -0.01977565139532089,
         0.006050294265151024,
         -0.008560514077544212,
         -0.02158224210143089,
         0.0008419808000326157,
         -0.02442008256912231,
         0.01245763339102268,
         0.005389949306845665,
         0.01388853974640369,
         0.005189856514334679,
         0.001649660989642143,
         -0.02290042862296104,
         0.02649700082838535,
         -0.001428466290235519,
         0.02117943577468395,
         0.01352829299867153,
         -0.02139643765985966,
         -0.0003976952284574509,
         -0.01243896968662739,
         0.02888121642172337,
         -0.01530899014323950,
         0.02866887860000134,
         0.02255662344396114,
         0.01078482158482075,
         0.02660304121673107,
         0.002143887802958488,
         0.02547338046133518,
         -0.002111669629812241,
         -0.01071708090603352,
         -0.006402479484677315,
         0.02504865638911724,
         -0.02416783198714256,
         0.01236152835190296,
         0.0001945625990629196,
         0.01533679850399494,
         -0.01871951669454575,
         -0.02693177014589310,
         0.02373219840228558,
         0.01190344430506229,
         -0.01081585697829723,
         -0.001981733366847038,
         -0.02470214664936066,
         -4.464760422706604e-05,
         0.00892312265932560,
         -0.009817350655794144,
         -0.02997334487736225,
         -0.006017955020070076,
         0.02511807717382908,
         -0.02660878002643585,
         -0.003790669841691852,
         -0.001301007578149438,
         -0.007015374954789877,
         -0.01737983897328377,
         -0.0005376336630433798,
         0.002122871810570359,
         -0.02699474990367889,
         -0.02578990533947945,
         -0.02176404371857643,
         0.01749325171113014,
         0.01068890374153852,
         -0.007112828083336353,
         -0.008534644730389118,
         -0.02541327476501465,
         -0.02129641175270081,
         0.007688882760703564,
         0.001323052449151874,
         0.02504089847207069,
         0.01540094707161188,
         -0.01757654733955860,
         0.01111175399273634,
         -0.01498633436858654,
         -0.01139639690518379,
         -0.02897502668201923,
         0.007937359623610973,
         0.01162114460021257,
         -0.02240977250039577,
         -0.02281693555414677,
         0.02382436580955982,
         -0.007635184098035097,
         0.002235461957752705,
         -0.01767727732658386,
         -0.008167778141796589,
         -0.007749823853373528,
         -0.001252026180736721,
         0.006773956120014191,
         0.001122416346333921,
         -0.02027511410415173,
         -0.007936761714518070,
         0.01087112352252007,
         -0.001727150054648519,
         -0.007540347985923290,
         0.01294473744928837,
         0.008109357208013535,
         -0.03035150468349457,
         0.0290624201297760,
         -0.01455199625343084,
         0.009888575412333012,
         0.01797310635447502,
         -0.02425998821854591,
         -0.001887428341433406,
         -0.01879085414111614,
         0.01658891886472702,
         -0.01727359741926193,
         0.01521867234259844,
         0.002390463137999177,
         0.007780117914080620,
         -0.02690668404102325,
         0.007669819053262472,
         0.002068991539999843,
         0.02681462652981281,
         -0.02863324433565140,
         -0.008363870903849602,
         0.01208375114947557,
         -0.002632444957271218,
         -0.03044774383306503,
         -0.02134557813405991,
         -0.02906019613146782,
         -0.02593732625246048,
         0.01627155207097530,
         0.001871242886409163,
         0.02433720789849758,
         0.02795580029487610,
         0.004936752375215292,
         -0.008275914005935192,
         0.02853536978363991,
         0.002389117144048214,
         0.01789812371134758,
         -0.02045632153749466,
         0.002679524011909962,
         -0.02743938006460667,
         -0.002166457474231720,
         -0.02288450114428997,
         -0.01876016333699226,
         -0.01963444054126740,
         0.01426339987665415,
         0.01108770538121462,
         -0.02465371973812580,
         0.002977779600769281,
         0.02016963809728622,
         -0.02246603183448315,
         0.01951912045478821,
         0.02952690050005913,
         -0.008162909187376499,
         -0.01298145670443773,
         0.001564296660944819,
         0.006624436005949974,
         0.02126065082848072,
         0.0005623628967441618,
         0.0001659992994973436,
         0.02052495256066322,
         0.002267554169520736,
         -0.01711437478661537,
         0.008843204937875271,
         0.02656133100390434,
         0.02322672121226788,
         0.006705013103783131,
         0.02558783441781998,
         0.02782836370170116,
         -0.02141167409718037,
         0.03034880012273788,
         -0.01714419759809971,
         0.004954558797180653,
         -0.01031002867966890,
         -0.01259720604866743,
         0.01812890730798244,
         0.02408071793615818,
         -0.02986265346407890,
         0.02449329756200314,
         0.02189944870769978,
         -0.003691557561978698,
         -0.006128625944256783,
         0.03456045687198639,
         0.02465666644275188,
         0.001640030532144010,
         0.005419171880930662,
         0.02441738732159138,
         0.004390244837850332,
         -0.01585708931088448,
         0.002073048613965511,
         -0.0005128833581693470,
         -0.01221981737762690,
         0.001353251864202321,
         -0.02072848379611969,
         -0.01601446606218815,
         0.02114778943359852,
         -0.0007934906752780080,
         0.01679468527436256,
         -0.02035948261618614,
         0.02426032908260822,
         -0.01050995383411646,
         -0.003696576459333301,
         0.01302606798708439,
         -0.005066002719104290,
         -0.003125278279185295,
         0.01504514832049608,
         0.01220288407057524,
         0.003800484118983150,
         -0.009066849946975708,
         0.01557430345565081,
         -0.01809957250952721,
         0.02173018269240856,
         -0.02489684335887432,
         0.008924714289605618,
         0.02393252216279507,
         0.007083224132657051,
         -0.01015716139227152,
         -0.002269520889967680,
         -0.002953185932710767,
         0.001700819819234312,
         -0.02523654326796532,
         -0.02040823549032211,
         0.02018306590616703,
         0.02118412032723427,
         0.01056517474353313,
         -0.01264266204088926,
         0.02902061119675636,
         2.125535502273124e-05,
         -0.02100090868771076,
         0.008477327413856983,
         0.002718254923820496,
         0.01242136210203171,
         -0.02543818764388561,
         -0.004680931102484465,
         -0.006520348601043224,
         -0.02885912172496319,
         -0.02785188704729080,
         -0.0003863717720378190,
         0.02850927226245403,
         0.01085905358195305,
         -0.02243809215724468,
         0.001030316576361656,
         0.02063236199319363,
         -0.01486092712730169,
         0.01322276052087545,
         0.01283698342740536,
         0.02518467977643013,
         0.01738590933382511,
         -0.02985669672489166,
         0.02913553081452847,
         0.02846079878509045,
         -0.001906827441416681,
         -0.01929608546197414,
         -0.03004794754087925,
         -0.01635506749153137,
         -0.009684216231107712,
         0.02256425470113754,
         -0.02184895612299442,
         -0.009679795242846012,
         -0.003920982591807842,
         -0.02151136286556721,
         0.02302694506943226,
         -0.001015459536574781,
         0.004606793634593487,
         -0.003048283047974110,
         -0.02520624734461308,
         0.008418280631303787,
         -0.002969165099784732,
         0.02200040034949780,
         -0.004611718002706766,
         -0.01063974667340517,
         0.01542930211871862,
         -0.01185255777090788,
         0.01954599842429161,
         -0.01510074175894260,
         -0.01364909391850233,
         0.01720194332301617,
         0.01763642393052578,
         -0.01675783470273018,
         -0.006997413001954556,
         -0.02135255374014378,
         -0.003358609043061733,
         -0.009646430611610413,
         0.0007720344583503902,
         -0.005480116698890924,
         -0.003273852635174990,
         0.01042413897812366,
         0.01716283895075321,
         0.02289826609194279,
         -0.01112362556159496,
         -0.02830124087631702,
         -0.002750348299741745,
         -0.006220312789082527,
         0.01903243921697140,
         0.009333247318863869,
         -0.004130441695451736,
         -0.006218634545803070,
         0.003661839291453362,
         0.01947175525128841,
         0.01628006435930729,
         0.006082432344555855,
         -0.02100746333599091,
         -0.01153604872524738,
         -0.003066483885049820,
         0.01018153317272663,
         -0.01644927263259888,
         0.005684150382876396,
         -0.01512004248797894,
         0.02744570933282375,
         -0.007566874846816063,
         -0.02432349696755409,
         0.03022052533924580,
         -0.002452155575156212,
         -0.001368781551718712,
         0.002583803609013557,
         -0.005155146121978760,
         -0.01384238526225090,
         0.01082905195653439,
         -0.02926917187869549,
         0.003479601815342903,
         0.02631482295691967,
         0.006527183577418327,
         0.01676746644079685,
         0.01731823571026325,
         0.02497082017362118,
         0.03064561821520329,
         0.03022146038711071,
         -0.02081573382019997,
         0.01360666938126087,
         -0.02135025337338448,
         -0.004537265747785568,
         -0.009390735998749733,
         -0.001699769869446754,
         0.02879240550100803,
         -0.02809504419565201,
         -0.02658899128437042,
         0.02880174852907658,
         -0.02890339866280556,
         -0.01836643740534782,
         -0.002206396311521530,
         0.004895685240626335,
         -0.02044552564620972,
         0.0002684779465198517,
         0.01626635529100895,
         -0.001253006979823112,
         0.01208569295704365,
         -0.001263059675693512,
         0.01077980361878872,
         -0.01505153253674507,
         -0.02613057196140289,
         -0.006163368001580238,
         0.01890938170254230,
         -0.01837708801031113,
         0.01260233111679554,
         0.01732388697564602,
         -0.02695735171437263,
         0.02595655433833599,
         -0.01345262303948402,
         0.007655067369341850,
         0.006369641050696373,
         -0.005333727691322565,
         -0.01557488553225994,
         0.02152393572032452,
         -0.006962500512599945,
         -0.02701208554208279,
         0.008898856118321419,
         -0.004662864375859499,
         0.01254412066191435,
         0.02543655782938004,
         -0.01155867334455252,
         0.003963618539273739,
         -0.01678975299000740,
         0.001931154401972890,
         -0.01224270369857550,
         0.009474655613303185,
         0.01336582656949759,
         0.007952473126351833,
         0.006761354859918356,
         -0.002684252103790641,
         -0.02500613220036030,
         -0.007454514503479004,
         0.02666913345456123,
         -0.006382868625223637,
         -0.001997996820136905,
         0.03069712780416012,
         0.007695899344980717,
         -0.009963708929717541,
         -0.01751492731273174,
         -0.01051210705190897,
         0.004400081932544708,
         -0.003664589952677488,
         0.01451247092336416,
         0.006026400718837976,
         -0.007117644883692265,
         -0.005234642885625362,
         -0.01958291232585907,
         -0.01975407265126705,
         0.01596022583544254,
         0.01140156574547291,
         -0.02551108971238136,
         0.006896634120494127,
         -0.01081386581063271,
         0.008720382116734982,
         -0.007825650274753571,
         0.01956327632069588,
         -0.01252309605479240,
         -0.02141240797936916,
         0.02946181781589985,
         -0.01847320981323719,
         0.002441626042127609,
         0.004409217741340399,
         -0.007303680758923292,
         -0.007363774348050356,
         0.008917463012039661,
         0.006673579569905996,
         -0.01836989820003510,
         -0.02189735881984234,
         -0.006774452514946461,
         -0.008246863260865211,
         0.02236547321081161,
         0.01842497102916241,
         0.01546947937458754,
         -0.005039674695581198,
         -0.02256188914179802,
         -0.02270860411226749,
         -0.004760544747114182,
         -0.01392178796231747,
         0.01316979527473450,
         0.02052151411771774,
         0.02513794042170048,
         0.0004051434516441077,
         -0.02499446086585522,
         -0.03046122938394547,
         0.02253437601029873,
         0.01668776758015156,
         -0.02931138873100281,
         -0.01841576397418976,
         -0.004594611003994942,
         -0.01945426687598228,
         -0.003334492910653353,
         0.02192437276244164,
         0.008111977018415928,
         -0.007812969386577606,
         -0.004851807840168476,
         -0.002176369540393353,
         0.004960876889526844,
         -0.003781762206926942,
         0.009462282992899418,
         -0.01505680568516254,
         0.02469581551849842,
         0.02961647324264050,
         0.01809879392385483,
         0.01010526251047850,
         -0.01083145290613174,
         0.02465528994798660,
         0.02322835661470890,
         -0.008657198399305344,
         0.01981696300208569,
         0.008440559729933739,
         -0.02252976037561893,
         0.003533471841365099,
         -0.002291646786034107,
         -0.02873256057500839,
         0.02477005682885647,
         -0.02022231556475163,
         0.01961346529424191,
         0.02035073935985565,
         0.01190203521400690,
         -0.008141578175127506,
         0.02463219873607159,
         -0.006590908858925104,
         -0.02298751473426819,
         -0.008338386192917824,
         0.01481344178318977,
         0.01335237920284271,
         0.0002975623938255012,
         -0.02454960159957409,
         -0.009831761941313744,
         0.0204044021666050,
         0.03103523328900337,
         0.02434677816927433,
         0.005621584597975016,
         0.02022231183946133,
         -0.01283616665750742,
         0.03093412518501282,
         -0.01311847195029259,
         0.03063983470201492,
         -0.0192396417260170,
         0.03051689639687538,
         0.01465153601020575,
         0.02485736086964607,
         -0.02961887978017330,
         0.001151716918684542,
         -0.02874886989593506,
         0.02888135425746441,
         0.006217235699295998,
         -0.02958515658974648,
         0.02325742505490780,
         -0.02775982394814491,
         -0.008747305721044540,
         -0.002766052493825555,
         -0.02421869710087776,
         0.02051352523267269,
         0.01541317068040371,
         -0.02000931091606617,
         -0.02175622060894966,
         0.03080980293452740,
         -0.006939608603715897,
         0.02392523363232613,
         -0.02984949760138988,
         -0.02597487531602383,
         -0.01147427596151829,
         -0.01090482994914055,
         0.01377242803573608,
         -0.01711955480277538,
         -0.01438607275485992,
         -0.006565759424120188,
         0.02940065786242485,
         0.02213810943067074,
         -0.001673621707595885,
         0.009845048189163208,
         0.005157418083399534,
         -0.02765631861984730,
         0.02772296778857708,
         0.003535788273438811,
         0.01070986688137054,
         0.004584356211125851,
         -0.01583673804998398,
         -0.01245414745062590,
         0.02726172097027302,
         -0.01296854205429554,
         0.01362558174878359,
         0.01011713873594999,
         0.01504998747259378,
         0.01320457644760609,
         -0.02742226980626583,
         0.0002573486417531967,
         -0.02888449095189571,
         -0.01425362098962069,
         0.01930850185453892,
         0.007647126447409391,
         -0.006855789572000504,
         -0.02556664869189262,
         0.02812086977064610,
         -0.01513641793280840,
         -0.0005933182546868920,
         0.01826782152056694,
         -0.01389241497963667,
         0.02538825944066048,
         0.02438470348715782,
         0.02569387108087540,
         0.003134345635771751,
         -0.001474782591685653,
         -0.02484118752181530,
         -0.02573489584028721,
         -0.01253545098006725,
         0.01678345911204815,
         0.0002915419172495604,
         0.02763766050338745,
         0.008131738752126694,
         -0.01445178501307964,
         -0.02618908695876598,
         -0.0009845421882346272,
         0.002851420547813177,
         -0.005681085400283337,
         -0.01022928394377232,
         0.005155939608812332,
         0.01148223970085382,
         -0.01272423751652241,
         -0.01044591888785362,
         -0.02564089745283127,
         0.02210980281233788,
         -0.003297597402706742,
         -0.02697800844907761,
         -0.02708401158452034,
         -0.007306515239179134,
         0.02832134813070297,
         0.01352392975240946,
         0.01529822871088982,
         -0.01778326369822025,
         -0.01971290446817875,
         0.002628074493259192,
         0.02884558402001858,
         0.007292462047189474,
         0.02781397849321365,
         -0.02123770676553249,
         0.02688326872885227,
         0.02273713983595371,
         0.001023387885652483,
         -0.02945443987846375,
         0.02817319147288799,
         0.01007958315312862,
         0.0003874972462654114,
         0.006617212668061256,
         -0.003730455413460732,
         0.009046414867043495,
         -0.01978692784905434,
         0.008114779368042946,
         0.02315756119787693,
         -0.01977746933698654,
         -0.01882777735590935,
         -0.01116166263818741,
         0.02187381498515606,
         -0.007923906669020653,
         0.009099395945668221,
         -0.01482016965746880,
         0.02235427685081959,
         -0.01827769353985786,
         0.004342036321759224,
         0.03001118637621403,
         0.001583827659487724,
         -0.02303658798336983,
         0.01709181629121304,
         -0.01879864186048508,
         -0.02395346388220787,
         -0.02368457242846489,
         0.02992824278771877,
         0.02928310446441174,
         -0.007635585963726044,
         0.02384515665471554,
         -0.01409885287284851,
         -0.01555988751351833,
         -0.02814560942351818,
         -0.002474837005138397,
         -0.002953866496682167,
         0.005851777270436287,
         0.01978902332484722,
         0.002776475623250008,
         -0.01976410299539566,
         0.02560542710125446,
         -0.01979877427220345,
         -0.008494069799780846,
         -0.03060529381036758,
         -0.01500506512820721,
         0.01156529970467091,
         0.003529256209731102,
         0.02369565330445766,
         0.01655910722911358,
         -0.02711342461407185,
         -0.01472092419862747,
         0.007482582703232765,
         -0.003506336361169815,
         0.01839454658329487,
         -0.02554453164339066,
         -0.03075718693435192,
         -0.007309347391128540,
         0.001551425084471703,
         -0.02501984685659409,
         0.009951012209057808,
         0.008255017921328545,
         0.0002974327653646469,
         -0.02200885489583015,
         0.02022079564630985,
         0.0007339362055063248,
         -0.02527216449379921,
         -0.02286386862397194,
         0.002236170694231987,
         0.01046783663332462,
         -0.02702905237674713,
         0.004101710394024849,
         -0.005299240350723267,
         0.01119705289602280,
         0.02643190324306488,
         0.02979187294840813,
         0.01308357715606689,
         0.02189691364765167,
         -0.03037124499678612,
         0.005254423711448908,
         -0.009787942282855511,
         -0.02421336248517036,
         0.02280072309076786,
         0.0252657588571310,
         0.01479221507906914,
         -0.001684601185843349,
         0.00715494854375720,
         0.01296737790107727,
         0.02056202851235867,
         -0.02812064066529274,
         -0.008327004499733448,
         -0.0006709863082505763,
         0.01610670611262321,
         0.02394605055451393,
         0.02808969281613827,
         0.02370542846620083,
         -0.01768103614449501,
         -0.02692137658596039,
         -0.003424069844186306,
         -0.006309418939054012,
         0.008465187624096870,
         -0.003406905801966786,
         -0.02990280836820602,
         -0.02811558358371258,
         -0.02372222393751144,
         0.01307243760675192,
         0.02312079071998596,
         -0.02850894443690777,
         0.01552606187760830,
         -0.002426515333354473,
         0.01599660702049732,
         -0.01299551408737898,
         -0.02009627968072891,
         -0.01475697383284569,
         0.002789830556139350,
         0.02078846655786037,
         0.02044953219592571,
         -0.005492894910275936,
         -0.004788872785866261,
         0.01578097417950630,
         0.006756227929145098,
         0.01984468288719654,
         0.02070531994104385,
         -0.02695915661752224,
         -0.006936349440366030,
         -0.01699161902070045,
         0.01274246722459793,
         -0.02782450057566166,
         0.001744717475958169,
         0.003650988219305873,
         0.01647830381989479,
         -0.002492899307981133,
         0.01814278215169907,
         0.0241501759737730,
         -0.0009997409069910645,
         -0.01210818067193031,
         0.01152309589087963,
         0.009900815784931183,
         0.009912011213600636,
         -0.01293853204697371,
         -0.004056288860738277,
         0.02582340128719807,
         0.02202391251921654,
         -0.02153467759490013,
         -0.005886984057724476,
         -0.001190852024592459,
         -0.02305754832923412,
         -0.008236947469413280,
         -0.02678841352462769,
         0.009593861177563667,
         0.02613314054906368,
         -0.003885000711306930,
         -0.01290620304644108,
         -0.006492936518043280,
         -0.007944967597723007,
         -0.02224954217672348,
         0.02488558180630207,
         0.02469060942530632,
         0.009179879911243916,
         -0.01494261156767607,
         -0.01243075449019670,
         -0.02263433486223221,
         -0.0007630528416484594,
         -0.01770598441362381,
         -0.001993078272789717,
         -0.02328619547188282,
         -0.005181857384741306,
         0.01853184960782528,
         -0.01533097401261330,
         -0.008562745526432991,
         0.02786760218441486,
         -0.02805514447391033,
         -0.02719587646424770,
         0.01847389340400696,
         -0.02235275320708752,
         -0.01613996364176273,
         -0.005608206614851952,
         0.01416813768446445,
         -0.009756782092154026,
         0.02885782346129417,
         0.01139080990105867,
         -0.01553408987820148,
         -0.02590409852564335,
         -0.001694007194600999,
         0.0005068089230917394,
         -0.01319867931306362,
         0.003469184273853898,
         -0.01784013211727142,
         0.002168382517993450,
         0.007945357821881771,
         2.545532697695307e-05,
         -0.001803992316126823,
         0.01522168051451445,
         -0.007089593447744846,
         -0.0007225727313198149,
         -0.005496941041201353,
         0.002777571789920330,
         0.02868468686938286,
         0.007349799387156963,
         0.03054897673428059,
         0.001908550155349076,
         -0.004739030729979277,
         0.03292421624064445,
         -0.01135156676173210,
         0.02047746069729328,
         -0.02335885912179947,
         -0.001094739069230855,
         -0.009738094173371792,
         0.01212250627577305,
         0.01395316142588854,
         -0.02378405816853046,
         0.03116936795413494,
         -0.02203638665378094,
         -0.005673088598996401,
         -0.01402964536100626,
         0.03312370553612709,
         -0.01927267760038376,
         -0.02213480323553085,
         0.008567674085497856,
         -0.02189770154654980,
         -0.01218718290328979,
         0.01274903025478125,
         0.001087736687622964,
         0.01970119588077068,
         -0.01450169552117586,
         -0.009617194533348083,
         -0.01706891693174839,
         -0.01557985320687294,
         -0.01169011555612087,
         0.01461969502270222,
         0.01857087016105652,
         -0.01630121469497681,
         0.02168253250420094,
         0.002705281367525458,
         -0.008641014806926250,
         -0.01356179174035788,
         -0.003735478268936276,
         0.0159249585121870,
         -0.01133810076862574,
         0.004322886932641268,
         0.02328284829854965,
         -0.01503865141421556,
         0.02325439266860485,
         -0.01024011615663767,
         -0.001354161417111754,
         0.01519044581800699,
         -0.01658138260245323,
         0.02453788556158543,
         0.01710673235356808,
         0.007717093452811241,
         0.007631257176399231,
         0.01665160991251469,
         -0.02365916594862938,
         0.001493497053161263,
         0.02642584405839443,
         -0.01071044430136681,
         0.02544076554477215,
         -0.02282165735960007,
         0.02824625186622143,
         -0.04740932583808899,
         0.02285382151603699,
         -0.01920028589665890,
         -0.02057881653308868,
         -0.02648544497787952,
         0.01894738711416721,
         -0.02814367972314358,
         -0.02946140244603157,
         0.01773583330214024,
         -0.004553453996777534,
         -0.01921926438808441,
         -0.01820065453648567,
         -0.003639257745817304,
         0.02088052965700626,
         -0.01246589701622725,
         0.006254368927329779,
         0.02877086028456688,
         0.02851130999624729,
         0.01825267262756824,
         -0.01828710921108723,
         0.03078819625079632,
         0.005937821697443724,
         -0.002595225116237998,
         -0.02559090964496136,
         0.005014331080019474,
         -0.01660585030913353,
         0.01399985048919916,
         0.02030524797737598,
         -0.01152386516332626,
         0.009191782213747501,
         -0.0009141283808276057,
         -0.02837173640727997,
         0.01893112435936928,
         0.0006513011758215725,
         -0.006854329258203506,
         0.02488590963184834,
         0.002892791060730815,
         -0.002556004095822573,
         0.0003397596301510930,
         0.02862060256302357,
         -0.01224107760936022,
         -0.006260143592953682,
         0.01064678374677896,
         -0.01690886542201042,
         -0.02342247776687145,
         0.02979257516562939,
         -0.01620215177536011,
         -0.009222755208611488,
         0.01793597824871540,
         -0.0007190592586994171,
         -0.02622372284531593,
         -0.007146347314119339,
         -0.01364285126328468,
         -0.01163078099489212,
         -0.01125250197947025,
         -0.02584739401936531,
         -0.01544992532581091,
         -0.02717071957886219,
         0.02302669174969196,
         -0.02581706829369068,
         0.0009361114352941513,
         -0.01883254945278168,
         -0.01913714781403542,
         0.009864235296845436,
         0.02938887290656567,
         0.006301531568169594,
         0.003577554598450661,
         0.01575848646461964,
         -0.004054024815559387,
         0.02784307859838009,
         0.003417534753680229,
         0.007384182885289192,
         -0.01651405170559883,
         -0.02371188439428806,
         0.02321575395762920,
         -0.002694023773074150,
         0.01900460384786129,
         0.01542658917605877,
         -0.001273702830076218,
         -0.01574097573757172,
         -0.01468902640044689,
         0.009400257840752602,
         0.006560986861586571,
         0.01238974742591381,
         -0.02485019527375698,
         0.01013092137873173,
         0.02760183624923229,
         0.02925314940512180,
         0.001438112929463387,
         0.0003341026604175568,
         -0.01859537139534950,
         0.004563210532069206,
         0.02526344545185566,
         0.009411359205842018,
         -0.003075378015637398,
         -0.02529297396540642,
         0.01665976829826832,
         0.02528371103107929,
         -0.002976816147565842,
         -0.008680846542119980,
         -0.02377594821155071,
         -0.02996565029025078,
         -0.008621366694569588,
         0.01249648816883564,
         0.0006825122982263565,
         0.02765320427715778,
         0.02894178219139576,
         -0.02528645470738411,
         0.02993117831647396,
         0.01931934989988804,
         0.01188583113253117,
         0.02165326662361622,
         0.02312307618558407,
         -0.007786480709910393,
         -0.02351007238030434,
         0.01003749761730433,
         -0.01484500803053379,
         0.006673336494714022,
         0.01364563591778278,
         0.01140405982732773,
         -0.02085010148584843,
         -0.01743263751268387,
         -0.01435288321226835,
         0.0001451329881092533,
         -0.003044189186766744,
         0.02299858629703522,
         0.02961375936865807,
         0.009839803911745548,
         0.02249385043978691,
         0.01933083683252335,
         0.01185193844139576,
         0.01295633055269718,
         -0.01922021061182022,
         -0.01781007088720798,
         -0.003771314397454262,
         -0.02372137829661369,
         -0.01264212559908628,
         0.001372657599858940,
         -0.02916113100945950,
         0.02670734003186226,
         7.012891728663817e-05,
         -0.01280479226261377,
         -0.008565455675125122,
         0.01253420580178499,
         -0.006037654820829630,
         -0.02167089097201824,
         -0.0001744389010127634,
         0.006707430351525545,
         -0.0005890413303859532,
         -0.007770111318677664,
         0.007741170004010201,
         -0.0005313873989507556,
         -0.003877918003126979,
         0.01073399838060141,
         -0.001081788213923573,
         -0.01688904874026775,
         0.01103051099926233,
         0.02121263369917870,
         -0.01838945783674717,
         0.01929599232971668,
         -0.009165058843791485,
         0.02470516413450241,
         0.02100018970668316,
         0.007614881731569767,
         -0.009253321215510368,
         -0.01646756194531918,
         -0.01179818250238895,
         -0.02486311644315720,
         0.02714451961219311,
         -0.003908696118742228,
         0.02833396568894386,
         -0.006016143132001162,
         -0.00549243763089180,
         0.02741464413702488,
         -0.01752590760588646,
         0.01264633703976870,
         0.01161786355078220,
         -0.02024222351610661,
         0.02179840952157974,
         0.002505798358470201,
         0.005125564523041248,
         0.02225516922771931,
         0.02776415646076202,
         -0.01467510964721441,
         0.005395747721195221,
         -0.01910129934549332,
         -0.01072937529534101,
         -0.02427856251597404,
         -0.02281313575804234,
         -0.003693142905831337,
         -0.002214563544839621,
         -0.01399648096412420,
         -0.02933782152831554,
         -0.004292794968932867,
         0.002329314826056361,
         -0.01111006643623114,
         -0.007727821357548237,
         0.02604604698717594,
         0.002507894998416305,
         -0.02664497308433056,
         0.01081568468362093,
         0.009477186016738415,
         0.02324695885181427,
         0.008723411709070206,
         0.02187120541930199,
         0.008371963165700436,
         0.01270503271371126,
         -0.02081621065735817,
         0.006077190395444632,
         0.004533389583230019,
         0.009696386754512787,
         0.006066919770091772,
         -0.0197878722101450,
         0.001509827445261180,
         0.02284875698387623,
         0.008908255957067013,
         -0.02598673850297928,
         0.01670589670538902,
         -0.01397768780589104,
         0.002110335743054748,
         -0.02659935317933559,
         0.01402728725224733,
         0.01155031751841307,
         0.005961929913610220,
         -0.03044873289763927,
         0.004492748063057661,
         -0.000479490845464170,
         -0.02686993964016438,
         -0.004105397500097752,
         -0.001636632019653916,
         -0.01189604867249727,
         0.02636419050395489,
         0.01694080792367458,
         -0.01840076223015785,
         0.01695222966372967,
         -0.02499440871179104,
         0.007405250798910856,
         -0.02262449078261852,
         -0.02608614414930344,
         -0.0006376550300046802,
         0.008788667619228363,
         0.02371058799326420,
         0.007715390063822269,
         0.01205034181475639,
         -0.03665503114461899,
         -0.01690628379583359,
         -0.02861315943300724,
         0.004109811969101429,
         -0.01339822728186846,
         -0.02667457237839699,
         0.0005990139325149357,
         -0.004165592603385448,
         -0.02606155723333359,
         0.02193823829293251,
         0.001123135560192168,
         -0.01387506164610386,
         -0.007054066751152277,
         -0.02142144553363323,
         0.01168738398700953,
         0.003475930774584413,
         0.02877295762300491,
         -0.02143358252942562,
         0.02520174533128738,
         -0.02659886889159679,
         -0.01214625034481287,
         -0.02363349683582783,
         -0.02010903507471085,
         0.006330848205834627,
         0.02075189538300037,
         -0.004300821106880903,
         0.02221599966287613,
         0.007112428545951843,
         0.01236714702099562,
         -0.0005004081758670509,
         -0.02900019288063049,
         -0.01526422332972288,
         -0.01513284351676702,
         0.01450907904654741,
         0.02005259692668915,
         -0.001206246903166175,
         0.02373412065207958,
         -0.005011054221540689,
         -0.03532586991786957,
         -0.02715357020497322,
         -0.02471685037016869,
         -0.02905401773750782,
         -0.01494544930756092,
         0.03625470399856567,
         0.005853469949215651,
         -0.01674324087798595,
         0.01912715472280979,
         0.01489002816379070,
         -0.009454904124140739,
         -0.02359303645789623,
         -0.02547659911215305,
         0.001954667270183563,
         0.02847444452345371,
         0.006981251761317253,
         0.005877336487174034,
         0.02614084444940090,
         0.01291012670844793,
         0.05661857500672340,
         -0.02125429175794125,
         0.002665013074874878,
         -0.001266934094019234,
         0.01679912954568863,
         0.01631105132400990,
         -0.02748630009591579,
         -0.02408678829669952,
         -0.02365507371723652,
         -0.02674525789916515,
         -0.02991598658263683,
         -0.01329354662448168,
         0.02815283462405205,
         0.008943211287260056,
         0.01786249689757824,
         0.01162515394389629,
         -0.01711325719952583,
         0.00854322686791420,
         0.02322181314229965,
         -0.02234200946986675,
         -0.02514303103089333,
         0.02126990444958210,
         0.005760036408901215,
         -0.006410918198525906,
         0.01168731600046158,
         -0.01802453957498074,
         0.002843211172148585,
         0.02217313647270203,
         0.01718644611537457,
         -0.02011744678020477,
         0.004426790867000818,
         -0.002918727463111281,
         0.01134921051561832,
         -0.0001241735153598711,
         0.02239422500133514,
         -0.01236950792372227,
         0.02146160788834095,
         0.01246822532266378,
         -0.001003685407340527,
         -0.02120027132332325,
         0.02890836261212826,
         -0.02859100513160229,
         0.02226613648235798,
         0.007388626225292683,
         0.03045433200895786,
         0.008340070024132729,
         -0.02125820890069008,
         0.01585926674306393,
         -0.02037466876208782,
         -0.001925626769661903,
         0.02161961235105991,
         -0.006644804030656815,
         0.005909519270062447,
         0.02851114608347416,
         -0.01361392624676228,
         0.02606688626110554,
         -0.003635341301560402,
         0.01958179660141468,
         0.02993379719555378,
         -0.0005245152860879898,
         0.01956469006836414,
         0.02017815224826336,
         0.01982585899531841,
         0.01223935000598431,
         -0.02643135190010071,
         -0.02813429012894630,
         -0.005340525880455971,
         0.02233692444860935,
         -0.02249724045395851,
         0.01341440714895725,
         0.02776330523192883,
         0.01088702119886875,
         0.02076302282512188,
         0.01219143904745579,
         6.296858191490173e-05,
         0.02794040553271770,
         -0.02627625130116940,
         -0.01232054829597473,
         -0.001981178298592567,
         0.0263917762786150,
         0.01402870006859303,
         -0.02966750599443913,
         -0.02833011001348495,
         0.01442396454513073,
         0.009718788787722588,
         -0.02577809244394302,
         0.01235479675233364,
         -0.003761030733585358,
         0.01640248857438564,
         -0.008889807388186455,
         0.02495961077511311,
         0.02362196706235409,
         -0.01057741791009903,
         0.02620465867221355,
         -0.02183094993233681,
         -0.006007162854075432,
         0.01172605343163013,
         0.003864733502268791,
         -0.01948017627000809,
         -0.01334448717534542,
         0.01378114707767963,
         0.02698649652302265,
         0.02504363842308521,
         -0.01124147884547710,
         0.0007273126393556595,
         0.02840149216353893,
         -0.01732058450579643,
         -0.02504568733274937,
         0.01698994822800159,
         -0.01915976405143738,
         -0.01143733784556389,
         -0.01456096023321152,
         0.006804699078202248,
         0.005957415327429771,
         -0.01464657112956047,
         -0.01265663560479879,
         0.02462231740355492,
         0.01493345666676760,
         0.02843931131064892,
         0.02264931984245777,
         0.02044440060853958,
         -0.02244876138865948,
         0.004017319064587355,
         -0.006375368684530258,
         0.004114210605621338,
         -0.02211911417543888,
         0.006785822100937366,
         0.007154867518693209,
         0.01818573102355003,
         -0.02678127400577068,
         0.006999498698860407,
         -0.009793997742235661,
         0.001869638334028423,
         -0.02898327074944973,
         -0.01089907623827457,
         -0.02777486480772495,
         -0.01971530541777611,
         0.01825355179607868,
         0.01225053239613771,
         -0.00167771743144840,
         0.01857566647231579,
         -0.003432789584621787,
         -0.01911567710340023,
         -0.01763442903757095,
         -0.004157134797424078,
         -0.009722453542053699,
         0.01570172049105167,
         -0.02664051949977875,
         -0.009096235036849976,
         -0.005596128292381763,
         0.01577959582209587,
         -0.01890649646520615,
         -0.02150728553533554,
         0.02338197827339172,
         0.004320249892771244,
         0.02301040850579739,
