{
   "convLayer" : {
      "bias" : [
         0.4508503079414368,
         0.4566442966461182,
         0.4424937963485718,
         0.437308281660080,
         0.4489181339740753,
         0.4517282247543335,
         0.4478652477264404,
         0.4448966681957245,
         0.4402468800544739,
         0.4480520486831665,
         0.4469102621078491,
         0.4426845014095306,
         0.4346972703933716,
         0.4431156814098358,
         0.4385598599910736,
         0.4374524354934692,
         0.4391323328018188,
         0.4588439762592316,
         0.4346537590026855,
         0.4318422675132751,
         0.4422324001789093,
         0.4496209919452667,
         0.4366583824157715,
         0.4479496479034424,
         0.4492609798908234,
         0.4464982450008392,
         0.4468097388744354,
         0.4506819248199463,
         0.4433818161487579,
         0.4513816535472870,
         0.4430874586105347,
         0.4434454441070557,
         0.4492488503456116,
         0.4375824630260468,
         0.4494788944721222,
         0.4464376866817474,
         0.4440622925758362,
         0.4496020376682281,
         0.4570445120334625,
         0.4532759785652161,
         0.4435811042785645,
         0.4361236393451691,
         0.4339359402656555,
         0.4354287385940552,
         0.4450520277023315,
         0.4488211572170258,
         0.439560592174530,
         0.4474014043807983,
         0.4553982317447662,
         0.4382834732532501,
         0.4441921412944794,
         0.4490513801574707,
         0.4442504048347473,
         0.4482954442501068,
         0.4481462240219116,
         0.4404688179492950,
         0.4454957544803619,
         0.4517572224140167,
         0.4346758425235748,
         0.4441617727279663
      ],
      "weight" : [
         0.006124034523963928,
         -0.005849469918757677,
         -0.003032614476978779,
         0.01752376183867455,
         0.004294605460017920,
         0.01401069015264511,
         -0.02899521216750145,
         0.009337247349321842,
         0.01843946985900402,
         -0.01908299326896667,
         0.003927776124328375,
         0.02857345156371593,
         -0.01211406476795673,
         -0.01619965769350529,
         -0.02760739438235760,
         -0.04483585804700851,
         0.02849387004971504,
         0.002626891946420074,
         -0.04705597087740898,
         -0.01147980429232121,
         0.01614946499466896,
         -0.01357171777635813,
         0.01137297600507736,
         0.006509974133223295,
         -0.007336346432566643,
         -0.0003893012471962720,
         -0.001648806151933968,
         -0.00977700948715210,
         0.02552907355129719,
         0.006907447706907988,
         -0.006275479216128588,
         -0.008823518641293049,
         0.02783768437802792,
         -0.01075557433068752,
         0.001336009940132499,
         0.007563899271190166,
         -0.02460140362381935,
         0.005140195600688457,
         0.01500160247087479,
         -0.01043819636106491,
         -0.01731405779719353,
         -0.007443719543516636,
         0.001353735220618546,
         0.01400047540664673,
         -0.01245503220707178,
         0.01057660393416882,
         0.01718450710177422,
         -0.01322512514889240,
         0.01963211037218571,
         0.02430417947471142,
         -0.01788555085659027,
         -0.006126550491899252,
         0.008618041872978210,
         -0.001376632717438042,
         -0.03329811617732048,
         -0.02882500924170017,
         -0.005287722684442997,
         0.007145647890865803,
         -0.02417299337685108,
         -0.01264206692576408,
         -0.02130904793739319,
         -0.02511672116816044,
         -0.01722758263349533,
         0.002462817821651697,
         -0.001397329964675009,
         -0.02464486658573151,
         -0.02528350241482258,
         0.01854525879025459,
         -0.01585992611944675,
         -0.009771849028766155,
         -0.02953710965812206,
         -0.02206129580736160,
         0.02386234328150749,
         -0.02578327804803848,
         0.003126686206087470,
         -0.02400922030210495,
         -0.01990022696554661,
         0.01232345495373011,
         0.02567209675908089,
         -0.007328813895583153,
         0.002519316738471389,
         -0.01124805957078934,
         -0.02742975205183029,
         -0.01826110668480396,
         0.001489097718149424,
         0.02630916237831116,
         0.008388751186430454,
         -0.006944769527763128,
         0.01799700036644936,
         0.007738151587545872,
         0.02004780992865562,
         -0.00968018826097250,
         -0.01480711810290813,
         0.02697388641536236,
         0.02803025394678116,
         0.02797063998878002,
         -0.002020941581577063,
         -0.02108746208250523,
         -0.01412119716405869,
         0.01812420412898064,
         0.002955730538815260,
         -0.02684616670012474,
         -0.007342637982219458,
         0.007285560481250286,
         -0.01773444563150406,
         0.02965986542403698,
         0.02486906573176384,
         0.01091088540852070,
         0.02628859877586365,
         0.02325880900025368,
         0.02020193263888359,
         -0.01735852472484112,
         -0.004023147281259298,
         -0.01364893838763237,
         0.01293624192476273,
         -0.006082850042730570,
         0.02103099785745144,
         -0.01948879100382328,
         -0.02519772574305534,
         0.0005039099487476051,
         -0.005389764904975891,
         -0.01225952152162790,
         0.008474204689264297,
         -0.01325598917901516,
         0.02851977199316025,
         0.02816609479486942,
         0.01228829659521580,
         -0.02017473243176937,
         0.008177908137440681,
         0.01706324517726898,
         -0.01760879345238209,
         0.01160941831767559,
         -0.01238699443638325,
         0.006836348213255405,
         -0.02035491727292538,
         0.005589608103036880,
         -0.01172715146094561,
         -0.02541065961122513,
         0.01307268347591162,
         0.02075047045946121,
         0.02743335627019405,
         0.02552398853003979,
         -0.02901070564985275,
         0.01547474693506956,
         -0.01121664047241211,
         0.02409150637686253,
         -0.02706122957170010,
         0.01295414566993713,
         0.02238778024911880,
         0.01229167915880680,
         0.01160091627389193,
         -0.02690481022000313,
         0.01954682730138302,
         -0.02115694992244244,
         0.02503194287419319,
         -0.02797850035130978,
         -0.02076448313891888,
         -0.02286635898053646,
         -0.001801932929083705,
         0.004383802413940430,
         0.002785687800496817,
         -0.02290185913443565,
         0.0009666950791142881,
         -0.004410604014992714,
         0.01316912658512592,
         0.01861897297203541,
         0.01930520124733448,
         0.01333059649914503,
         -0.01583519205451012,
         -0.006269404198974371,
         -0.02362143620848656,
         -0.01632622443139553,
         0.006813486106693745,
         -0.001253443304449320,
         -0.01534581929445267,
         0.002375059528276324,
         0.01956172101199627,
         -0.01579088717699051,
         -0.002089415211230516,
         0.003833079710602760,
         0.01141250506043434,
         -0.01243931613862514,
         -0.008698637597262859,
         -0.002039846498519182,
         -0.02374073863029480,
         0.01856652460992336,
         -0.01211319398134947,
         0.01948473788797855,
         -0.02016043476760387,
         0.005331901367753744,
         -0.01599453575909138,
         0.01281364448368549,
         0.002515752566978335,
         -0.01680547371506691,
         -0.008690294809639454,
         -0.02083458751440048,
         0.01460845861583948,
         -0.01049546804279089,
         0.008840847760438919,
         -0.01459706388413906,
         0.0161669272929430,
         -0.01522376015782356,
         0.01737669482827187,
         0.01266037859022617,
         0.001608588499948382,
         -0.02858804911375046,
         -0.01458411850035191,
         0.001289787469431758,
         0.02964850142598152,
         0.01830642297863960,
         -0.02350047230720520,
         -0.002687630010768771,
         -0.005095654632896185,
         -0.005184369627386332,
         -0.02066961862146854,
         0.02839307487010956,
         0.0004232518258504570,
         0.007014470174908638,
         0.01836784742772579,
         0.02310504950582981,
         -0.001510188449174166,
         0.0008739642216823995,
         -0.003984290640801191,
         -0.02663028985261917,
         -0.01006093807518482,
         0.02721384912729263,
         -0.02534169331192970,
         0.01294715888798237,
         0.01347610354423523,
         -0.003685010131448507,
         0.01504103932529688,
         -0.02541283518075943,
         0.006791065912693739,
         -0.01375223975628614,
         0.02268134243786335,
         0.01526441052556038,
         -0.02195628359913826,
         0.002823423594236374,
         -0.01806918717920780,
         0.01178595982491970,
         0.02082785964012146,
         0.02207779511809349,
         0.009605493396520615,
         0.01571032591164112,
         0.0009380618575960398,
         -0.02559438534080982,
         0.01636556349694729,
         -0.02183947898447514,
         0.01640582270920277,
         -0.01438996568322182,
         0.003077036002650857,
         0.02175944112241268,
         0.01101268641650677,
         -0.02967380732297897,
         -0.01921270787715912,
         -0.03128526359796524,
         0.01217308174818754,
         -0.005274474620819092,
         -0.009747109375894070,
         -0.01951502822339535,
         0.007051558699458838,
         0.005035322625190020,
         0.006072863005101681,
         -0.01162176113575697,
         0.004725384525954723,
         0.004034079611301422,
         0.01167241856455803,
         0.02891139127314091,
         -0.02761995233595371,
         0.02616280131042004,
         -0.01758538745343685,
         -0.02371624298393726,
         -0.01269521284848452,
         0.009138899855315685,
         0.02738255634903908,
         0.001975101185962558,
         0.009366311132907867,
         0.008494755253195763,
         -0.01956429146230221,
         -0.007648441474884748,
         0.006303401198238134,
         -0.01325829140841961,
         0.02033112756907940,
         0.01011729240417480,
         0.02377199754118919,
         0.005364081356674433,
         -0.01750037632882595,
         -0.03039729408919811,
         0.02669979445636272,
         -0.02494544722139835,
         -0.01631357707083225,
         0.00992232933640480,
         -0.02261129021644592,
         0.02953098714351654,
         0.007706756703555584,
         -0.009051669389009476,
         -0.02775568701326847,
         0.002681986428797245,
         0.01625650562345982,
         -0.01260205078870058,
         -0.02211492881178856,
         -0.007154466118663549,
         -0.05680122599005699,
         -0.005893798545002937,
         0.01544141303747892,
         -0.006218093913048506,
         0.02773074060678482,
         0.02820994332432747,
         0.01417828444391489,
         0.02789862826466560,
         0.01808945089578629,
         0.006087101530283689,
         0.02615144662559032,
         0.01605910807847977,
         -0.03486039862036705,
         -0.01764955744147301,
         -0.1731927096843719,
         0.02011005580425262,
         -0.01350470259785652,
         -0.03095905482769012,
         -0.002477089641615748,
         -0.01695274002850056,
         0.01009263936430216,
         0.01246630493551493,
         0.008580124936997890,
         -0.02279015444219112,
         0.01278250850737095,
         0.01512024551630020,
         -0.01667149364948273,
         -0.02260101214051247,
         -0.02517981082201004,
         -0.02471217513084412,
         -0.001398366061039269,
         -0.005377626977860928,
         0.02311219274997711,
         -0.006866769399493933,
         0.01393101736903191,
         -0.004601012915372849,
         -0.03093573264777660,
         -0.02028224617242813,
         -0.02607437781989574,
         -0.01254885550588369,
         0.001474988996051252,
         -0.02662495896220207,
         0.005062494892627001,
         -0.02942455932497978,
         0.006361501757055521,
         0.008181670680642128,
         -0.01583880744874477,
         0.0005976894753985107,
         -0.004864066373556852,
         0.02554175816476345,
         0.01063321996480227,
         0.02034895494580269,
         -0.03174400329589844,
         -0.03342594578862190,
         -0.02599381841719151,
         0.02248620800673962,
         -0.004644307307898998,
         -0.002212823834270239,
         -0.01493527740240097,
         -0.02943545393645763,
         0.02511054463684559,
         -0.02168614789843559,
         -0.01856216229498386,
         0.009290256537497044,
         -0.006003239192068577,
         -0.02060372009873390,
         0.01900335960090160,
         -0.0004237930406816304,
         -0.0276305153965950,
         0.002700281329452991,
         0.01006324216723442,
         0.02395711280405521,
         -0.02908879704773426,
         0.004612683318555355,
         0.02562949992716312,
         0.01103766821324825,
         -0.02309362217783928,
         -0.02054847031831741,
         -0.02083835750818253,
         -0.02945848740637302,
         0.006502158474177122,
         -0.02710277773439884,
         0.02078631706535816,
         0.01363870594650507,
         -0.003808680921792984,
         -0.01808272302150726,
         -0.002071939874440432,
         0.01041918247938156,
         0.0201315414160490,
         0.004467943217605352,
         0.0005774092860519886,
         -0.02412575483322144,
         -0.002354397904127836,
         0.004640628118067980,
         -0.01235264074057341,
         -0.01697222702205181,
         -0.008235263638198376,
         0.01425111759454012,
         -0.01030190289020538,
         -0.02501423098146915,
         0.004120830446481705,
         0.01434355415403843,
         0.01687835715711117,
         0.005755135323852301,
         0.01328648254275322,
         0.01564040407538414,
         0.01069393195211887,
         -0.02880646288394928,
         0.02565064653754234,
         -0.01146202534437180,
         0.02197480574250221,
         0.01562929898500443,
         0.02542678639292717,
         0.005004066042602062,
         -0.02741235680878162,
         0.02061311528086662,
         -0.006355877034366131,
         0.01142784208059311,
         0.004997191019356251,
         -0.02552446536719799,
         -0.002282735425978899,
         -0.009158240631222725,
         0.01073573622852564,
         -0.01365521457046270,
         0.02917608805000782,
         0.02373017184436321,
         -0.02073837071657181,
         0.02963143214583397,
         -0.009984700009226799,
         -0.02534215711057186,
         0.02714450657367706,
         0.01815738715231419,
         -0.004396087490022182,
         0.01561560016125441,
         -0.005041063763201237,
         0.02985901385545731,
         0.02218967303633690,
         -0.02034397795796394,
         -0.02749648317694664,
         -0.01436293590813875,
         -0.02284212037920952,
         -0.02029528841376305,
         -0.02240759879350662,
         0.002807198790833354,
         0.02909130975604057,
         0.02907934784889221,
         -0.02461206726729870,
         -0.0005876854993402958,
         -0.005955029278993607,
         0.01628129370510578,
         0.02332410588860512,
         0.01469729281961918,
         -0.006966301240026951,
         0.006710169836878777,
         -0.02858350612223148,
         -0.02013965509831905,
         -0.004920158535242081,
         -0.02789780311286449,
         -0.02487501315772533,
         0.02459261566400528,
         0.005425983108580112,
         -0.01044992450624704,
         -0.001970530254766345,
         -0.02136660180985928,
         -0.008668098598718643,
         0.006695856340229511,
         0.02088198065757751,
         0.007508320268243551,
         0.02456893399357796,
         0.0001590235042385757,
         -0.0004026321112178266,
         -0.02273010835051537,
         -0.003179692896082997,
         -0.003891685511916876,
         0.02491746470332146,
         0.003880941541865468,
         0.02263841219246387,
         0.01916364021599293,
         0.02074941061437130,
         -0.0007604346028529108,
         0.008605652488768101,
         -0.01142165157943964,
         0.001868015620857477,
         0.02280300483107567,
         0.02779072895646095,
         0.02430781908333302,
         -0.01244897022843361,
         -0.01603402942419052,
         -0.01163489650934935,
         0.02870554849505424,
         -0.02390607260167599,
         0.01919353939592838,
         -0.005903762299567461,
         0.02769439853727818,
         0.001024806289933622,
         0.02097992226481438,
         -0.02372000552713871,
         0.009222915396094322,
         -0.009998143650591373,
         0.02137599140405655,
         -0.004792613442987204,
         -0.01134283747524023,
         0.02915121242403984,
         0.01413547247648239,
         0.02846638113260269,
         -0.01578447222709656,
         -0.02302799373865128,
         -0.009827525354921818,
         -0.005351118743419647,
         0.01402977388352156,
         0.01696850545704365,
         0.02404689230024815,
         0.006677006836980581,
         0.001570070046000183,
         0.01228904072195292,
         -0.005948897916823626,
         0.02140386216342449,
         -0.01967299170792103,
         -0.008641284890472889,
         0.02217901870608330,
         0.01180202048271894,
         0.01597635634243488,
         0.008311789482831955,
         -0.02011968009173870,
         -0.02601582556962967,
         -0.01144020818173885,
         0.009826716035604477,
         -0.02936801500618458,
         -0.02699087746441364,
         0.01411639153957367,
         -0.01619853451848030,
         0.02402914501726627,
         -0.02584560401737690,
         0.007583984639495611,
         -0.02185880206525326,
         -0.01235439069569111,
         0.02654666826128960,
         0.01947981119155884,
         0.01942107267677784,
         -0.007948093116283417,
         -0.01315018068999052,
         -0.02488377876579762,
         0.02583608962595463,
         -0.01884837634861469,
         -0.02281547151505947,
         -0.002683901228010654,
         -0.01914862915873528,
         0.01425088848918676,
         -0.007175802718847990,
         0.01378525607287884,
         -0.02754000574350357,
         -0.01499098073691130,
         -0.03721164166927338,
         0.01691151596605778,
         -0.006051398348063231,
         0.02300104312598705,
         -0.0002153752866433933,
         -0.03709341213107109,
         -0.01824580132961273,
         0.01960188150405884,
         0.02699475362896919,
         -0.01792677119374275,
         0.0009158194880001247,
         -0.02970466949045658,
         0.01965895667672157,
         -0.03221626207232475,
         0.01107789203524590,
         -0.02234308607876301,
         0.01516908500343561,
         -0.006551754660904408,
         -0.01354084629565477,
         -0.01609359122812748,
         0.003724611131474376,
         -0.01041519083082676,
         0.01368242036551237,
         0.01611521467566490,
         0.001993214944377542,
         -0.01736907474696636,
         0.02068557776510715,
         -0.03871055692434311,
         -0.007432245649397373,
         0.01223222445696592,
         -0.02819858118891716,
         1.491678267484531e-05,
         -0.02929705567657948,
         0.02074990235269070,
         -0.02473708987236023,
         -0.03061811439692974,
         0.005664870608597994,
         0.003052807645872235,
         -0.01465871371328831,
         -0.01637954264879227,
         0.01375719252973795,
         -0.005316956900060177,
         -0.01564348116517067,
         0.02849174290895462,
         -0.03205902129411697,
         -0.005056751891970634,
         -0.01069635618478060,
         -0.03140125051140785,
         0.02967838570475578,
         0.04902876168489456,
         -0.008431604132056236,
         0.02137404121458530,
         0.03788167238235474,
         0.01987648196518421,
         -0.002799144480377436,
         -0.002608995186164975,
         -0.01526754256337881,
         0.01529378630220890,
         0.02740732952952385,
         -0.01405211910605431,
         -0.006485097575932741,
         0.006174811627715826,
         0.01219586282968521,
         0.3156289458274841,
         -0.01428503356873989,
         0.02847140468657017,
         0.04015742987394333,
         0.01159276440739632,
         -0.02162994258105755,
         0.01702652499079704,
         0.04041635990142822,
         -0.02766275778412819,
         -0.02904612943530083,
         0.02611498348414898,
         -0.006027557887136936,
         0.02277839928865433,
         -0.001954680774360895,
         0.003500050865113735,
         0.01323899440467358,
         -0.0004499891074374318,
         0.01613757200539112,
         0.002901863073930144,
         -0.01184180751442909,
         -0.003584539983421564,
         -0.02498912438750267,
         0.001857910421676934,
         -0.01793905533850193,
         -0.02444560267031193,
         -0.02984423749148846,
         -0.01149225607514381,
         0.01766313984990120,
         0.02133860997855663,
         -0.02185305580496788,
         0.0254098717123270,
         0.02211202308535576,
         -0.01223621796816587,
         -0.01334074139595032,
         -0.01813391596078873,
         -0.01727079413831234,
         0.01647894829511642,
         -0.002078329911455512,
         0.03345241025090218,
         0.02974056079983711,
         0.03747005388140678,
         0.02076041884720325,
         -0.002118357224389911,
         0.005921241827309132,
         0.01738870702683926,
         -0.01257232669740915,
         -0.009157982654869556,
         -0.004535115789622068,
         0.02635738812386990,
         0.02722805738449097,
         0.006066246889531612,
         0.01804919913411140,
         -0.01292201783508062,
         -0.007045288570225239,
         -0.01900315098464489,
         0.01173460856080055,
         -0.02231341414153576,
         -0.004451880231499672,
         -0.007239195518195629,
         0.01670904643833637,
         0.001556828035973012,
         -0.01282847020775080,
         -0.02930746600031853,
         -0.005091707687824965,
         -0.02128266915678978,
         0.007164165377616882,
         -0.002647968707606196,
         -0.02069345675408840,
         -0.01067702379077673,
         0.01371091324836016,
         0.02140446566045284,
         0.009967385791242123,
         0.004731932189315557,
         0.02910874411463737,
         -0.02571475878357887,
         0.01329050958156586,
         0.02589364908635616,
         0.007421108894050121,
         -0.02221033163368702,
         0.005237491801381111,
         0.02160419151186943,
         0.009055736474692822,
         -0.02924643270671368,
         0.02744378335773945,
         0.009856129996478558,
         -0.02334512025117874,
         -0.02971250750124454,
         0.02322790957987309,
         0.02852881141006947,
         -0.01066498924046755,
         -0.007721568457782269,
         -0.02965650148689747,
         -0.02183384075760841,
         -0.01587201282382011,
         0.02549152448773384,
         0.001534441718831658,
         0.01266210805624723,
         0.003205969464033842,
         0.0004642796120606363,
         0.002830737503245473,
         0.02895713970065117,
         0.005426325835287571,
         -0.01992077566683292,
         -0.02800353616476059,
         -0.004683858249336481,
         0.02988295443356037,
         -0.007620183750987053,
         -0.004406717605888844,
         -0.02982014790177345,
         -0.02037897333502769,
         0.02341056801378727,
         -0.01658577471971512,
         -0.02950224839150906,
         0.01326907984912395,
         -0.01715933904051781,
         -0.009765981696546078,
         0.01551619824022055,
         0.003807225963100791,
         -0.02059723623096943,
         0.02711971849203110,
         -0.01922898739576340,
         -0.002023491309955716,
         -0.02833714708685875,
         0.003905376419425011,
         -0.01662970334291458,
         -0.01134002115577459,
         -0.01295075006783009,
         0.01376170013099909,
         0.01639888621866703,
         0.01340038981288671,
         0.004957658238708973,
         -0.006125655490905046,
         -0.02735579013824463,
         -0.007166683208197355,
         -0.006528535392135382,
         0.01061169989407063,
         0.02877680212259293,
         0.01047598291188478,
         -0.02599239163100719,
         0.02100169844925404,
         -0.006884433794766665,
         0.02812613360583782,
         -0.02979761548340321,
         -0.01207501254975796,
         0.02776514552533627,
         -0.009372786618769169,
         0.01520158722996712,
         -0.008221672847867012,
         0.01838892139494419,
         0.004093498457223177,
         0.02559312246739864,
         -0.01265014428645372,
         8.485604485031217e-05,
         0.005969835445284843,
         -0.02255958132445812,
         0.002075562952086329,
         0.01545226853340864,
         -0.01826751977205276,
         -0.009124550037086010,
         0.01662675663828850,
         -0.02474507316946983,
         0.0159752219915390,
         0.02263394743204117,
         -0.02441374771296978,
         0.009264562278985977,
         0.005608856678009033,
         0.02316826954483986,
         0.008272015489637852,
         -0.01855090446770191,
         -0.02391481213271618,
         0.01224817521870136,
         -0.01647294871509075,
         -0.01172746252268553,
         0.01385541912168264,
         -0.01931230351328850,
         -0.01573738269507885,
         0.01373809576034546,
         -0.01771307177841663,
         0.02130724117159843,
         -0.02395348064601421,
         0.006952576339244843,
         0.002103888429701328,
         -0.003179518738761544,
         0.02960435859858990,
         0.01697162538766861,
         -0.001056888489983976,
         -0.004615043755620718,
         0.01771816425025463,
         0.01086625549942255,
         0.01997925527393818,
         -0.007378081791102886,
         0.001298862043768167,
         -0.02558649331331253,
         -0.02019235678017139,
         -0.006458395160734653,
         -0.02097556181252003,
         0.009995186701416969,
         0.01399646513164043,
         0.01198205817490816,
         0.01727805845439434,
         -0.003688512602820992,
         -0.004655137192457914,
         -0.008200392127037048,
         0.002603210275992751,
         -0.01335966959595680,
         -0.002177208662033081,
         -0.02343213185667992,
         -0.004200262483209372,
         0.003316068788990378,
         0.01961768232285976,
         -0.003032096661627293,
         -0.006151975598186255,
         -0.02020891569554806,
         0.01091745402663946,
         0.02132239751517773,
         -0.02642992138862610,
         0.02927863039076328,
         -0.02249132655560970,
         0.007725799456238747,
         -0.01310944464057684,
         -0.01618659682571888,
         0.006322888657450676,
         -0.01919461786746979,
         -0.003685382660478354,
         0.004207644145935774,
         0.01438895147293806,
         0.02849889732897282,
         -0.01510918606072664,
         0.02451758272945881,
         0.02892668545246124,
         -0.01683665625751019,
         0.008980107493698597,
         0.02438042499125004,
         0.02395478263497353,
         -0.01300343777984381,
         -0.02161475270986557,
         -0.01413479167968035,
         -0.01422657538205385,
         0.06436482816934586,
         -7.883019134169444e-05,
         0.02206755429506302,
         0.005414490122348070,
         0.03255090117454529,
         0.02006085775792599,
         0.05473053827881813,
         -0.02880381792783737,
         0.002014536876231432,
         0.02038402669131756,
         -0.009803384542465210,
         0.07076938450336456,
         -0.01934691518545151,
         0.04861902818083763,
         0.03236740827560425,
         0.01598964817821980,
         -0.02626323327422142,
         0.02876479551196098,
         -0.02617340721189976,
         0.04717684909701347,
         0.00649960944429040,
         0.008166278712451458,
         0.01424330007284880,
         -0.01317681279033422,
         0.02092229388654232,
         -0.01086615864187479,
         0.005783720873296261,
         0.04596119001507759,
         0.02809552848339081,
         0.02767518162727356,
         0.03277686610817909,
         0.01588970050215721,
         0.005527485162019730,
         0.01119474321603775,
         0.0009561255574226379,
         0.02672512643039227,
         -0.002746089128777385,
         -0.01423914264887571,
         0.004967179615050554,
         -0.01714694127440453,
         0.02817567996680737,
         -0.01957003399729729,
         0.02174971811473370,
         -0.0007479235646314919,
         0.1001196578145027,
         0.02972172759473324,
         -0.01580594107508659,
         0.003716805949807167,
         0.01303882151842117,
         -0.003482978092506528,
         -0.009906399995088577,
         0.01615341752767563,
         -0.02798122353851795,
         -0.01129865460097790,
         -0.009157998487353325,
         -0.008297733962535858,
         -0.02478734031319618,
         -0.02353471890091896,
         0.01751204766333103,
         0.01164103392511606,
         0.02269940264523029,
         0.006630182266235352,
         0.0003007990308105946,
         -0.07827283442020416,
         0.01566152088344097,
         -0.005145547911524773,
         -0.02864343859255314,
         -0.001455200719647110,
         -0.02923843078315258,
         -0.02104989625513554,
         0.01649871841073036,
         0.01848353818058968,
         -0.02840699069201946,
         -0.01666313409805298,
         0.01638797484338284,
         -0.01296416856348515,
         0.007402102462947369,
         -0.004060698673129082,
         0.006794994696974754,
         0.001500774291343987,
         -0.02015592716634274,
         0.01931955292820930,
         -0.007263915147632360,
         -0.003121988615021110,
         -0.01994579471647739,
         -0.008456314913928509,
         0.0009301549871452153,
         -0.02327144518494606,
         0.01811769232153893,
         0.02228426933288574,
         -0.007457054220139980,
         -0.01125618442893028,
         0.02724128589034081,
         -0.007075611036270857,
         -0.01223293971270323,
         0.01594489067792892,
         -0.0003205816319677979,
         -0.01253478229045868,
         -0.006773417349904776,
         -0.01848408579826355,
         -0.02719792164862156,
         -0.004218379966914654,
         -0.02684749290347099,
         0.0003937565197702497,
         0.004679000470787287,
         -0.02368870563805103,
         -0.003801676677539945,
         0.02182123251259327,
         -0.02222109586000443,
         -0.02462785132229328,
         -0.02409988269209862,
         0.02589257806539536,
         -0.01216428913176060,
         0.02653470262885094,
         -0.01359736733138561,
         0.02475720457732677,
         -0.005559341516345739,
         0.02136137150228024,
         -0.01985239796340466,
         0.01475203875452280,
         0.002683714497834444,
         0.01785564236342907,
         -0.01151205971837044,
         -0.01094226818531752,
         0.001078031142242253,
         -0.02368770726025105,
         0.001651305938139558,
         -0.006933642085641623,
         -0.008406626060605049,
         -0.02188252843916416,
         -0.007962816394865513,
         0.01872683130204678,
         -0.0117015503346920,
         -0.02705092355608940,
         -0.02135358937084675,
         0.02977477572858334,
         0.02139482460916042,
         -0.003527017077431083,
         0.002820682944729924,
         0.02935650199651718,
         0.005458408035337925,
         0.009998816996812820,
         0.02887516096234322,
         0.02708983421325684,
         0.02710830606520176,
         0.003992840647697449,
         0.008050042204558849,
         0.009970356710255146,
         -0.02389124408364296,
         0.02313620969653130,
         -0.02480154298245907,
         -0.01413255836814642,
         -0.01382663752883673,
         -0.02022435329854488,
         0.01174305472522974,
         0.02582751773297787,
         -0.02798040583729744,
         -7.380537135759369e-05,
         -0.02886988595128059,
         -0.02753143012523651,
         0.01609371788799763,
         -0.01281640212982893,
         -0.02073142305016518,
         -0.01258337125182152,
         -0.009988515637814999,
         -0.02242317982017994,
         -0.02793567813932896,
         0.02651956491172314,
         -0.01575357653200626,
         -0.01806581206619740,
         0.006559925153851509,
         0.001909188460558653,
         0.01215681247413158,
         -0.02684228867292404,
         -0.01638566888868809,
         0.01026862952858210,
         -0.01831578649580479,
         0.02620246633887291,
         -0.01245737448334694,
         0.001896717119961977,
         0.01724624633789062,
         0.008423025719821453,
         0.02597756311297417,
         0.02051682025194168,
         -0.02494094520807266,
         0.01334796939045191,
         0.02175743319094181,
         -0.01802072674036026,
         -0.01093765161931515,
         -0.02760997414588928,
         0.02313651330769062,
         0.02866554260253906,
         0.01279235817492008,
         0.003486575558781624,
         -0.009370789863169193,
         0.01658410951495171,
         -0.01404764968901873,
         -0.004671620205044746,
         0.004601219668984413,
         -0.007002050522714853,
         0.02647162973880768,
         -0.01883713342249393,
         0.007529687602072954,
         0.02129012905061245,
         -0.002517987973988056,
         0.01969747804105282,
         0.02447825856506824,
         -0.02356280013918877,
         0.009939748793840408,
         -0.001554733607918024,
         -0.02110066264867783,
         0.007444762159138918,
         0.02038573473691940,
         0.02530770748853683,
         0.009397228248417377,
         -0.01035607513040304,
         -0.006034158635884523,
         0.002005231333896518,
         0.004554731771349907,
         -0.005590863060206175,
         0.02005999162793159,
         -0.01763655990362167,
         -0.01213752850890160,
         -0.003133547957986593,
         0.002625990891829133,
         -0.02598316036164761,
         -0.008795807138085365,
         0.02293427102267742,
         -0.01077496353536844,
         0.01920954510569572,
         0.01834954135119915,
         -0.006781338714063168,
         0.004279444459825754,
         -0.004518749658018351,
         -0.02432741783559322,
         0.0004695467068813741,
         0.02760392427444458,
         0.01711125671863556,
         -0.002015289850533009,
         0.02908632531762123,
         0.01735415123403072,
         -0.02007024176418781,
         -0.02978451177477837,
         0.02242250367999077,
         -0.02594995684921741,
         -0.01561159547418356,
         -0.01203658431768417,
         0.02289208583533764,
         -0.01753455772995949,
         -0.01945405267179012,
         -0.01823040097951889,
         0.003211753210052848,
         -0.008981411345303059,
         0.01283995155245066,
         -0.002096856711432338,
         0.01301340200006962,
         -0.01654769480228424,
         0.002793937223032117,
         0.02927175723016262,
         0.02952850423753262,
         0.01560890674591064,
         0.008058927953243256,
         -0.01849075406789780,
         0.01874796114861965,
         -0.01714119128882885,
         -0.01663307845592499,
         0.02712016180157661,
         -0.02400281839072704,
         -0.02983677946031094,
         0.01165920123457909,
         0.02771011739969254,
         0.002985696541145444,
         -0.007174824830144644,
         -0.01842628046870232,
         0.01028377655893564,
         -0.01990117505192757,
         -0.005104117095470428,
         0.02586840651929379,
         0.02722152695059776,
         -0.02823791466653347,
         0.02209718897938728,
         -0.008587856777012348,
         0.01653304882347584,
         -0.03170932456851006,
         0.02351553551852703,
         -0.01290247589349747,
         -0.01889266259968281,
         0.01937709189951420,
         0.004324920475482941,
         -0.01393097732216120,
         -0.003381978720426559,
         -0.01239490322768688,
         0.01466117706149817,
         -0.007416537497192621,
         -0.01481344271451235,
         0.01269530225545168,
         0.003234143601730466,
         -0.01878787577152252,
         -0.007999960333108902,
         -0.002881033346056938,
         -0.01115845330059528,
         -0.04273985698819160,
         -0.03322412818670273,
         -0.009381379000842571,
         -0.008067988790571690,
         -0.03333105891942978,
         -0.008704018779098988,
         -0.02580774575471878,
         0.009409567341208458,
         -0.02446877025067806,
         0.02910212799906731,
         0.02822649665176868,
         -0.01904796063899994,
         -0.02909625880420208,
         0.01851948164403439,
         0.005694973748177290,
         0.007525584660470486,
         -0.02546661905944347,
         0.004972186870872974,
         -0.007849672809243202,
         -0.02857150137424469,
         0.01741968840360641,
         -0.02046280354261398,
         -0.01550650503486395,
         -0.01232547219842672,
         0.02041203156113625,
         -0.005320440977811813,
         -0.002301709260791540,
         -0.02664599381387234,
         -0.02417506836354733,
         0.02010426856577396,
         -0.02134257927536964,
         -0.009667740203440189,
         -0.004653926007449627,
         -0.01436732895672321,
         0.01914610341191292,
         -0.002652174327522516,
         -0.02231293544173241,
         0.02090496942400932,
         -0.02229234203696251,
         -0.02145860157907009,
         0.0003883771714754403,
         0.02059294283390045,
         0.01490995101630688,
         -0.02957080118358135,
         -0.003339139046147466,
         0.01047690212726593,
         0.01000441517680883,
         0.02785125188529491,
         -0.02266447618603706,
         -0.03693544864654541,
         0.007284652907401323,
         0.006284279283136129,
         0.008761670440435410,
         -0.01902273483574390,
         0.004568589851260185,
         0.01782505773007870,
         0.006343286484479904,
         0.0004807430086657405,
         0.02347528561949730,
         0.01921732723712921,
         -0.02733376435935497,
         -0.03187521547079086,
         -0.02378983609378338,
         0.06054234132170677,
         0.02120917104184628,
         -0.02031663060188293,
         -0.02478360198438168,
         0.001763131469488144,
         0.004909941460937262,
         -0.01766181550920010,
         -0.002151582390069962,
         0.02742799557745457,
         -0.009173220023512840,
         0.02890293300151825,
         0.01625773496925831,
         0.02222557738423347,
         -0.01410148292779922,
         0.02738807536661625,
         0.0008925931761041284,
         0.006584029179066420,
         0.01929400302469730,
         0.01898123510181904,
         0.02923553436994553,
         -0.01080061495304108,
         -0.02742550149559975,
         -0.02664018981158733,
         -0.004836148116737604,
         -0.007160599809139967,
         0.003793850308284163,
         0.01648853160440922,
         -0.02033893577754498,
         -0.02618240937590599,
         0.005997348576784134,
         -0.007662293035537004,
         0.008896475657820702,
         -0.0002661304606590420,
         0.02194768935441971,
         -0.008039022795855999,
         0.02252799458801746,
         -0.007041295059025288,
         0.01615641452372074,
         0.01693564467132092,
         -0.01090716570615768,
         -0.01919046603143215,
         0.007633643224835396,
         -0.0002253964776173234,
         0.004942843690514565,
         0.01961761340498924,
         -0.02780740521848202,
         -0.02086937613785267,
         -0.02341075427830219,
         0.005698850378394127,
         0.02239376865327358,
         0.007156133186072111,
         -0.006110506597906351,
         0.02224969118833542,
         -0.003413223428651690,
         -0.008841030299663544,
         0.003483798820525408,
         -0.009452332742512226,
         -0.01575903967022896,
         -0.01720492914319038,
         0.01128590945154428,
         0.02292043343186378,
         0.003747125389054418,
         -0.02709961123764515,
         -0.02691992558538914,
         0.02747457474470139,
         0.01336159463971853,
         -0.01971873082220554,
         0.002672150265425444,
         -0.01484117843210697,
         0.001999709522351623,
         0.003051721258088946,
         0.02953571453690529,
         0.02855606563389301,
         -0.01758450828492641,
         -0.01646941713988781,
         -0.01060148701071739,
         0.009114407934248447,
         0.01078113447874784,
         0.01583662815392017,
         -0.01425717864185572,
         -0.02295507118105888,
         0.02783111482858658,
         0.01760508678853512,
         0.01898008398711681,
         0.003867532592266798,
         -0.01221613399684429,
         -0.01527100615203381,
         0.02734752558171749,
         -0.01112703606486320,
         0.01131843496114016,
         -0.01614812389016151,
         -0.005912717897444963,
         0.01225604489445686,
         0.02771188691258430,
         -0.02418894693255424,
         -0.01407883409410715,
         -0.01699623465538025,
         0.01580508612096310,
         0.01480343379080296,
         0.007921783253550529,
         -0.002677897922694683,
         0.01659225113689899,
         -0.002798161003738642,
         -0.001747782109305263,
         0.01621276512742043,
         0.001084968680515885,
         -0.003831148846074939,
         -0.02909406833350658,
         0.01262501627206802,
         0.01599949598312378,
         0.01182281505316496,
         -0.02535683289170265,
         -0.01096098497509956,
         -0.007675008382648230,
         -0.005658945534378290,
         -0.008095162920653820,
         -0.02851586602628231,
         0.02488378062844276,
         -0.01817075721919537,
         -0.01802087575197220,
         0.003721873043105006,
         0.02508417889475822,
         0.01701680757105350,
         -0.02313234470784664,
         -0.004505596123635769,
         0.01488607004284859,
         -0.01555792987346649,
         -0.02116949483752251,
         0.02034052647650242,
         0.02238848432898521,
         -0.001158977276645601,
         0.01122943218797445,
         -0.0009228232083842158,
         0.02753916941583157,
         0.02650185674428940,
         -0.02607574313879013,
         -0.009886395186185837,
         -0.01504259370267391,
         0.02565657347440720,
         0.002552148653194308,
         -0.01983419060707092,
         -0.01697539538145065,
         -0.02967357076704502,
         -0.02040700614452362,
         0.02287089824676514,
         0.02079935185611248,
         0.02821255661547184,
         0.01196320261806250,
         0.02388698607683182,
         -0.01389524992555380,
         -0.01502056140452623,
         -0.006664998363703489,
         -0.009917592629790306,
         0.01685319840908051,
         0.0127006983384490,
         0.005656399298459291,
         0.01991053856909275,
         -0.004213646985590458,
         -0.02592859230935574,
         0.01745017617940903,
         -0.001030598767101765,
         -0.02583468705415726,
         0.02821966260671616,
         -0.008018228225409985,
         0.01697995513677597,
         -0.002342215972021222,
         -0.02088585495948792,
         0.02000165544450283,
         0.01751393079757690,
         0.001384631148539484,
         0.02157794497907162,
         0.02646631188690662,
         0.02388884499669075,
         -0.02530555985867977,
         -0.02200690470635891,
         0.02999077178537846,
         0.004576700739562511,
         0.02976045385003090,
         -0.01944440416991711,
         0.01849773898720741,
         0.004285123199224472,
         0.02223286963999271,
         -0.0006297281943261623,
         0.02194704115390778,
         -0.02181274071335793,
         -0.02090851403772831,
         -0.01826983131468296,
         0.02571223862469196,
         0.01196542661637068,
         0.01054690498858690,
         -0.02963370829820633,
         0.005873558111488819,
         0.003683328162878752,
         0.02926105633378029,
         0.003973079379647970,
         -0.01471181213855743,
         -0.02704035677015781,
         0.02960887365043163,
         -0.01723413169384003,
         0.02973699569702148,
         -0.02117599360644817,
         0.02508050948381424,
         -0.02085856534540653,
         -0.01506321784108877,
         -0.01916122250258923,
         -0.02934428490698338,
         0.01020646933466196,
         -0.004272785969078541,
         0.02231054753065109,
         0.02478794194757938,
         0.004064457025378942,
         0.01739519834518433,
         -0.02260310389101505,
         -0.01574784331023693,
         -0.01492125820368528,
         -0.008745310828089714,
         -0.006265664473176003,
         0.0001906652178149670,
         0.01588520780205727,
         -0.006551648024469614,
         -0.02563477307558060,
         0.02507978118956089,
         0.02174941822886467,
         -0.003841300727799535,
         -0.003120276611298323,
         -0.01301933731883764,
         0.02891933545470238,
         -0.001968841999769211,
         -0.002845373470336199,
         0.006598234642297029,
         0.01561629679054022,
         0.002686077263206244,
         -0.02044368162751198,
         0.02172042429447174,
         -0.02113267220556736,
         -0.01120873447507620,
         0.003401466179639101,
         0.02829327806830406,
         0.02652115933597088,
         0.01535205077379942,
         -0.01654048636555672,
         -0.01136050093919039,
         -0.01337192393839359,
         0.0141675453633070,
         -0.004214111715555191,
         0.02984356880187988,
         -0.02549704723060131,
         0.02619482390582561,
         -0.01102387625724077,
         0.02601084858179092,
         0.007628794759511948,
         -0.01303761824965477,
         0.02440140396356583,
         -0.005547094624489546,
         0.02236560173332691,
         -0.001560915727168322,
         -0.01252682600170374,
         0.01917600817978382,
         -0.02323454245924950,
         0.003079035552218556,
         0.02059018798172474,
         -0.003698846092447639,
         0.001209605485200882,
         -0.01039308216422796,
         -0.009518299251794815,
         -0.01806221529841423,
         0.004925732500851154,
         0.01495917979627848,
         -0.01839223317801952,
         -0.01399830542504787,
         0.01469083875417709,
         -0.02385719306766987,
         0.03313685208559036,
         -0.01397747639566660,
         0.008137157186865807,
         -0.02360592596232891,
         0.01404749695211649,
         0.01790442131459713,
         -0.02524033002555370,
         -0.01422387454658747,
         0.01837208122014999,
         -0.02134335972368717,
         0.04811009019613266,
         -0.01405420340597630,
         -0.02705168910324574,
         0.02658629231154919,
         0.006673548370599747,
         0.02670431137084961,
         -0.01389702688902617,
         0.02101298607885838,
         -0.007121613249182701,
         0.02469050511717796,
         0.02171036228537560,
         0.02043976821005344,
         0.02642915770411491,
         0.01530450861901045,
         -0.02888008020818233,
         -0.006003692746162415,
         -0.02760530263185501,
         0.02504242584109306,
         0.01084466464817524,
         -0.0004236213280819356,
         -0.01062744669616222,
         -0.0009828682523220778,
         -0.001067736302502453,
         0.002196249086409807,
         0.02911153994500637,
         -0.01969189755618572,
         0.02806912548840046,
         0.01629396900534630,
         0.02350607514381409,
         0.0003326678706798702,
         0.01248654164373875,
         0.02371716685593128,
         0.005375689361244440,
         -0.02317854017019272,
         -0.01658789440989494,
         -0.02042755112051964,
         -0.01928214728832245,
         -0.002572141820564866,
         -0.01477083843201399,
         0.007739020977169275,
         0.008619382977485657,
         0.02085151150822639,
         0.01343160960823298,
         0.02446036413311958,
         -0.01171830482780933,
         0.02150497213006020,
         -0.02069462090730667,
         0.0119162155315280,
         -0.02143700420856476,
         0.005847516003996134,
         0.003484327811747789,
         -0.0002356589830014855,
         0.02521914988756180,
         0.005362348631024361,
         -0.007425418123602867,
         0.02030595019459724,
         -0.009953727945685387,
         -0.002205925295129418,
         -0.005847551859915257,
         0.02763005159795284,
         0.01595540717244148,
         -0.006943578831851482,
         -0.006362394429743290,
         -0.01204701233655214,
         0.001737573998980224,
         0.02018922567367554,
         0.01341837830841541,
         0.01101583987474442,
         -0.02327686548233032,
         0.01454946491867304,
         0.01131126005202532,
         0.02023172006011009,
         -0.02072347700595856,
         -0.004077562596648932,
         -0.02932844497263432,
         0.0005327846738509834,
         -0.001711962628178298,
         0.002037020632997155,
         -0.02516561187803745,
         -0.003308078739792109,
         -0.01633466966450214,
         -0.01837329193949699,
         0.01495340652763844,
         -0.02200399339199066,
         0.01887537725269794,
         -0.01209769304841757,
         -0.007739616092294455,
         0.02936458587646484,
         0.02737856470048428,
         -0.02615388482809067,
         -0.01078262925148010,
         0.009643847122788429,
         -0.02320785634219646,
         0.003053480060771108,
         0.003998378291726112,
         -0.02256239019334316,
         -0.02304994687438011,
         0.006191315595060587,
         0.01951370574533939,
         -0.01765105687081814,
         -0.02700777351856232,
         0.008634001016616821,
         -0.02554886788129807,
         0.01445197127759457,
         -0.02228515781462193,
         0.02631631307303905,
         0.02084520645439625,
         0.006547888275235891,
         -0.02828552015125751,
         0.02278031781315804,
         -0.008084607310593128,
         -0.02114547789096832,
         0.02608397603034973,
         0.02193456701934338,
         -0.01778705790638924,
         -0.02026595547795296,
         -0.01429037097841501,
         -0.01355728972703218,
         -0.02376853488385677,
         0.01843545027077198,
         -0.006740077864378691,
         0.006948308087885380,
         0.002910655923187733,
         0.00234503997489810,
         -0.02812856994569302,
         0.01815565302968025,
         0.002441916381940246,
         -0.01359539199620485,
         0.002770957071334124,
         0.02554351463913918,
         -0.02895326912403107,
         -0.01358484942466021,
         -0.02241622097790241,
         -0.01557554025202990,
         -0.003698439570143819,
         -0.007411967031657696,
         0.01698241382837296,
         0.01461392734199762,
         -0.02185589633882046,
         -0.005183412227779627,
         -0.02487946115434170,
         0.01407656818628311,
         0.01851482875645161,
         0.02333735860884190,
         0.002947995904833078,
         0.02964516915380955,
         0.005801423452794552,
         0.02169309929013252,
         -0.003429550211876631,
         0.02115737460553646,
         -0.002399660879746079,
         -0.004678091965615749,
         0.01787418685853481,
         -0.01322324760258198,
         0.01444669812917709,
         0.02218289487063885,
         0.01609702780842781,
         0.02876788936555386,
         -0.004456262569874525,
         -0.01305195316672325,
         0.02700986899435520,
         0.02574458718299866,
         -0.01624325104057789,
         0.008028256706893444,
         0.002644394524395466,
         0.001959997462108731,
         -0.01256281696259975,
         -0.0009128656820394099,
         0.02539302781224251,
         0.02914328128099442,
         -0.004582307767122984,
         -0.01146852038800716,
         -0.001413700287230313,
         -0.02529268898069859,
         0.02216543257236481,
         0.006346983369439840,
         -0.005856537725776434,
         0.008841626346111298,
         -0.001928096171468496,
         0.002280007814988494,
         0.02915402501821518,
         0.01463759504258633,
         -0.002875755308195949,
         -0.02722508460283279,
         0.02108360826969147,
         0.02597910538315773,
         -0.007386890240013599,
         0.003483581822365522,
         0.0003278657095506787,
         -0.02717201784253120,
         0.01837367564439774,
         0.02949691005051136,
         0.02093041129410267,
         -0.02803850173950195,
         -0.01651364564895630,
         0.01737171225249767,
         -0.01929125189781189,
         -0.002803134033456445,
         0.005385215394198895,
         -0.01014456804841757,
         0.02246717736124992,
         0.004201838281005621,
         0.01645642146468163,
         -0.004584941547363997,
         -0.01424780208617449,
         -0.02044356800615788,
         0.005518848076462746,
         -0.004530102945864201,
         -0.002608605660498142,
         0.01186335086822510,
         -0.01443217974156141,
         0.02611885778605938,
         0.02388658747076988,
         0.01132197305560112,
         0.006133112590759993,
         0.01911231502890587,
         -0.006408962421119213,
         0.01671719364821911,
         -0.004555120132863522,
         -0.02966156601905823,
         0.007915197871625423,
         0.02855337597429752,
         0.02373328618705273,
         0.01904904283583164,
         -0.01412480697035789,
         -0.01061813998967409,
         -0.009201129898428917,
         0.01806675642728806,
         -0.02269820868968964,
         -0.01231199782341719,
         -0.0204872302711010,
         -0.02182330191135406,
         -0.01863539405167103,
         -0.01684384047985077,
         -0.01290345005691051,
         -0.02516807802021503,
         -0.001790222828276455,
         -0.001847394043579698,
         -0.002041537780314684,
         0.01012532133609056,
         -0.02620965614914894,
         0.002264762530103326,
         -0.001253126654773951,
         0.00189777382183820,
         0.001465790206566453,
         -0.007844452746212482,
         -0.01337450370192528,
         0.001655561733059585,
         0.01655064523220062,
         -0.006972697097808123,
         0.02644077874720097,
         -0.002724900143221021,
         -0.005278539843857288,
         -0.008490425534546375,
         0.02904426120221615,
         0.02700017392635345,
         -0.004338005557656288,
         0.01531607378274202,
         0.002006706083193421,
         -0.01880327612161636,
         0.02321684733033180,
         0.001067981473170221,
         0.01026026718318462,
         0.02060672640800476,
         0.02680103294551373,
         0.006225622724741697,
         0.01224691141396761,
         -0.01379996258765459,
         0.01257319469004869,
         0.008552138693630695,
         -0.008775792084634304,
         -0.01255270279943943,
         0.02851963229477406,
         0.02036911994218826,
         -7.855353032937273e-05,
         0.01900211162865162,
         0.01449393481016159,
         0.009012767113745213,
         -0.008318791165947914,
         0.01963456906378269,
         -0.01652265898883343,
         -0.02016910724341869,
         0.02563371695578098,
         -0.01562925986945629,
         -0.003505809232592583,
         -0.01079114899039268,
         -0.01002024859189987,
         -0.02536387182772160,
         0.02945156581699848,
         0.01999762281775475,
         0.005979481618851423,
         0.009501514025032520,
         -0.01198925264179707,
         -0.03144644945859909,
         0.02184144966304302,
         -0.008792651817202568,
         -0.02556840702891350,
         0.008377664722502232,
         0.01626059412956238,
         0.009739854373037815,
         -0.02385713718831539,
         0.005712992511689663,
         0.002628823276609182,
         0.02471342124044895,
         0.01915677636861801,
         -0.02424259856343269,
         -0.02339917048811913,
         -0.007281927391886711,
         -0.004069714806973934,
         -0.02116087079048157,
         0.01437924522906542,
         0.01948225125670433,
         -0.01597624085843563,
         -0.02766900695860386,
         0.01905076019465923,
         -0.01971425488591194,
         -0.02674576826393604,
         -0.0008263201452791691,
         -0.01179894432425499,
         -0.02795114181935787,
         -0.006306173279881477,
         0.0001682741858530790,
         0.01540613267570734,
         0.02421655133366585,
         -0.02182357013225555,
         0.02557314373552799,
         0.007399166002869606,
         -0.01961561292409897,
         -0.002906280336901546,
         -0.003993286751210690,
         -0.02410580217838287,
         -0.006174438167363405,
         -0.009319158270955086,
         -0.02127734571695328,
         0.009993108920753002,
         0.02181469649076462,
         -0.0005448067677207291,
         0.01121419388800859,
         -0.01318982336670160,
         0.02648887038230896,
         -0.00200306368060410,
         0.01885900832712650,
         0.01762594655156136,
         -0.002330138348042965,
         0.02530725859105587,
         -0.01121158059686422,
         0.02162643894553185,
         0.0007868409156799316,
         -0.02865034155547619,
         0.01007000636309385,
         0.02231335453689098,
         -0.006883716676384211,
         0.01190936844795942,
         -0.01389786880463362,
         0.02772884257137775,
         0.02295819483697414,
         0.02848169393837452,
         0.007116689812391996,
         0.006583271082490683,
         0.007060831878334284,
         -0.01660654880106449,
         0.004811146296560764,
         0.009240862913429737,
         0.02180393785238266,
         0.0002419350785203278,
         0.01205203868448734,
         0.02014239691197872,
         0.003704305039718747,
         -0.007553375326097012,
         0.003104035509750247,
         0.01193779148161411,
         0.02940181083977222,
         0.008756019175052643,
         -0.001753641408868134,
         -0.0004566254501696676,
         0.002132183639332652,
         -0.02471412159502506,
         0.01273820549249649,
         -0.01113902311772108,
         0.02983124367892742,
         0.02282307669520378,
         0.002795502310618758,
         0.01074696984142065,
         0.01480673067271709,
         0.009999961592257023,
         -0.01942304521799088,
         0.02671224996447563,
         0.02102375775575638,
         0.002389694098383188,
         -0.007838146761059761,
         -0.02088706381618977,
         0.009537122212350368,
         -0.01059389673173428,
         -0.002170093124732375,
         -0.02781561017036438,
         0.01463118940591812,
         -0.01302691828459501,
         -0.02608972042798996,
         0.009724129922688007,
         -0.01722251437604427,
         0.01903487928211689,
         0.003733341349288821,
         0.0003962445480283350,
         0.01707543805241585,
         0.001168246730230749,
         0.009997713379561901,
         -0.01202557701617479,
         -0.0003601732023525983,
         0.01785599254071712,
         -0.005213462747633457,
         -0.01651587523519993,
         -0.02111709862947464,
         0.01087593380361795,
         0.02056842297315598,
         0.01675937697291374,
         -0.02268208190798759,
         0.01640611514449120,
         0.02658800221979618,
         -0.004708865191787481,
         -0.01126777473837137,
         0.02351472899317741,
         0.02271870709955692,
         0.004755740519613028,
         0.0008022904512472451,
         -0.003269019303843379,
         -0.02974595315754414,
         -0.005506508983671665,
         0.007444796618074179,
         0.02508005499839783,
         -0.02966842427849770,
         0.02809418365359306,
         -0.01787692494690418,
         0.0109094288200140,
         0.01208814326673746,
         0.01174810528755188,
         -0.02989594824612141,
         -0.02492756769061089,
         0.02222873643040657,
         0.01861227117478848,
         -0.01696809194982052,
         -0.005416873376816511,
         0.01371532212942839,
         0.004500152543187141,
         -0.008295931853353977,
         -0.01203964650630951,
         0.02303688041865826,
         0.008167335763573647,
         0.002346677938476205,
         0.002892227377742529,
         -0.01252192072570324,
         0.02881290018558502,
         0.02213585935533047,
         -0.0236399769783020,
         -0.01093179918825626,
         0.01910268329083920,
         -0.02198025956749916,
         -0.01604328490793705,
         0.02160527370870113,
         -0.006112087052315474,
         0.01765236817300320,
         -0.01720877178013325,
         0.01022812817245722,
         0.004894516430795193,
         0.01868979819118977,
         -0.004556011874228716,
         0.01074461825191975,
         0.02061361633241177,
         0.02390211634337902,
         -0.01241515763103962,
         -0.02188937738537788,
         0.02010014839470387,
         0.01221157889813185,
         -0.0006713964976370335,
         0.01145796943455935,
         0.01708633080124855,
         0.01085055712610483,
         0.003814273513853550,
         -0.01574838906526566,
         -0.01686467789113522,
         -0.003038073657080531,
         0.02552143856883049,
         0.01120965275913477,
         0.01604782044887543,
         0.01324334181845188,
         0.02293811552226543,
         0.005141645669937134,
         0.01370884571224451,
         -0.02021545171737671,
         0.02536700852215290,
         0.02898239716887474,
         0.008361372165381908,
         -0.01484027318656445,
         0.006447785068303347,
         0.01738902740180492,
         0.01000828575342894,
         0.01798196882009506,
         -0.004690678324550390,
         -0.002305142348632216,
         -0.02342179045081139,
         0.01471757888793945,
         0.01532390154898167,
         -0.01368808839470148,
         -0.01130065508186817,
         0.01006549689918756,
         0.01542785577476025,
         0.01814598776400089,
         0.01628192141652107,
         0.009195075370371342,
         0.001830708468332887,
         0.02415545843541622,
         -0.02892952598631382,
         -0.01804632321000099,
         0.02579517662525177,
         0.02681535482406616,
         0.003766511334106326,
         0.01222725026309490,
         0.02197471261024475,
         0.02580029703676701,
         -0.007660325150936842,
         -0.01746566966176033,
         0.02227704972028732,
         0.002019450999796391,
         0.02910889871418476,
         -0.02631620876491070,
         -0.005207041278481483,
         -0.01656003855168819,
         0.0009263289393857121,
         0.02454110980033875,
         -0.009103622287511826,
         0.004385375417768955,
         -0.01098578702658415,
         -0.02852262184023857,
         0.01966267824172974,
         -0.001821133657358587,
         -0.02184970118105412,
         -0.01627161167562008,
         -0.01467230170965195,
         0.007839208468794823,
         -0.01158555038273335,
         0.0003675374609883875,
         0.01013743039220572,
         -0.008931440301239491,
         -0.02025603130459785,
         -0.01414770632982254,
         0.008901619352400303,
         -0.007810196373611689,
         0.008118739351630211,
         -0.01848533190786839,
         0.009403448551893234,
         -0.02189695648849010,
         -0.01214663125574589,
         0.002977170748636127,
         -0.02663126587867737,
         0.02085104398429394,
         -0.0004293583624530584,
         -0.02208029292523861,
         0.002691995818167925,
         -0.02844994328916073,
         -0.02789789810776711,
         0.01259854994714260,
         -0.004447628743946552,
         0.01477907784283161,
         -0.01033386867493391,
         0.02020980976521969,
         -0.01458348333835602,
         0.01648769713938236,
         -0.02692217193543911,
         -0.02831028029322624,
         0.01664171181619167,
         -0.01227090321481228,
         0.02827355079352856,
         -0.01362600922584534,
         -0.02415410988032818,
         -0.02357430011034012,
         -0.02022186480462551,
         0.01917592808604240,
         0.001431550481356680,
         0.02435184456408024,
         -0.02730560488998890,
         0.0006370823830366135,
         -0.02245705761015415,
         0.002533689374104142,
         0.02853310853242874,
         -0.01727661862969398,
         -0.001874206820502877,
         -0.01164714526385069,
         -0.01910972781479359,
         0.007566242478787899,
         -0.01057151146233082,
         -0.007446223869919777,
         -0.005810278467833996,
         0.01376573834568262,
         -0.02465710788965225,
         -0.01476901862770319,
         -0.004354591481387615,
         -0.01499813236296177,
         0.003238212550058961,
         0.01462741382420063,
         0.003290912136435509,
         0.01656235381960869,
         0.006199583411216736,
         -0.02802904881536961,
         0.003468080190941691,
         0.01954003423452377,
         0.006450207438319921,
         0.008674953132867813,
         0.02787249535322189,
         0.008046936243772507,
         0.006415912881493568,
         -0.01098405290395021,
         -0.01782187819480896,
         -0.02474028058350086,
         0.01421800907701254,
         -0.02862169221043587,
         -0.01677635684609413,
         -0.001890949090011418,
         0.005309828091412783,
         0.02037697471678257,
         -0.02266927622258663,
         -0.01112780906260014,
         0.007513449527323246,
         -0.02158935740590096,
         0.02201823145151138,
         0.0007998728542588651,
         -0.003920744173228741,
         -0.004376450087875128,
         0.02698155678808689,
         0.02169752307236195,
         0.004648989066481590,
         -0.02860751748085022,
         -0.02821106836199760,
         -0.01757083833217621,
         -0.03042220696806908,
         0.005581574980169535,
         -0.002886619186028838,
         -0.01484976988285780,
         -0.01987423002719879,
         0.02835958078503609,
         0.02394758351147175,
         0.02427004277706146,
         0.02830872125923634,
         -0.001571637811139226,
         -0.005812604445964098,
         0.02748553641140461,
         0.005449647549539804,
         -0.004579025320708752,
         -0.01844809576869011,
         -0.005068778526037931,
         -0.01175655797123909,
         -0.01979550160467625,
         0.009070645086467266,
         -0.006897196639329195,
         -0.02281588688492775,
         0.01284872088581324,
         0.02342890389263630,
         -0.02874710038304329,
         0.02366878464818001,
         0.02202947251498699,
         0.009188004769384861,
         0.003717478597536683,
         0.01908340491354465,
         0.001518617500551045,
         -0.005764288827776909,
         0.005745007656514645,
         0.02064046822488308,
         0.02609756402671337,
         -0.008383921347558498,
         -0.005036745686084032,
         0.01792112551629543,
         -0.01530369650572538,
         0.01941353268921375,
         -0.01908365823328495,
         0.02833436988294125,
         -0.006531443446874619,
         -0.02295895107090473,
         0.01161631383001804,
         -0.02807025238871574,
         -0.02096270769834518,
         0.02425585500895977,
         0.00762975774705410,
         -0.008306371048092842,
         -0.02338680997490883,
         0.008837229572236538,
         -0.006085873115807772,
         -0.009120864793658257,
         -0.007452141027897596,
         -0.01862099766731262,
         0.006192037370055914,
         -0.01577212475240231,
         0.01105899550020695,
         -0.02612108550965786,
         0.01827513426542282,
         0.001813406473957002,
         0.01674557477235794,
         0.02673626877367496,
         0.02227446809411049,
         -0.02376906387507915,
         -0.008340194821357727,
         -0.01693237759172916,
         0.01702438853681087,
         0.01369790080934763,
         -0.01459452509880066,
         -0.002891980344429612,
         0.01854203268885612,
         -0.01317813526839018,
         -0.01554649788886309,
         -0.01587159559130669,
         0.01743612997233868,
         -0.004802546463906765,
         0.02058479376137257,
         -0.01966114901006222,
         -0.02220008149743080,
         0.01206981204450130,
         -0.02266495861113071,
         0.0009682126692496240,
         -0.006014045793563128,
         -0.001182042295113206,
         -0.01191315334290266,
         0.004979136399924755,
         0.02569679543375969,
         0.01259560044854879,
         0.02766816131770611,
         -0.02068579941987991,
         -0.005363133735954762,
         -0.02619771659374237,
         0.02243649773299694,
         -0.01463444251567125,
         0.02024622075259686,
         -0.005243960302323103,
         0.02751110866665840,
         -0.02687172219157219,
         -0.02540148980915546,
         -0.001568731269799173,
         -0.0129764424636960,
         0.006578872911632061,
         0.004035852383822203,
         0.01931883208453655,
         0.02235963381826878,
         0.01542691513895988,
         -0.02365980483591557,
         -0.02116043306887150,
         -0.01135031506419182,
         -0.02694624662399292,
         -0.02671925723552704,
         0.001575476606376469,
         -0.01130743138492107,
         -0.02659852243959904,
         0.003308511106297374,
         -0.01410267315804958,
         0.02288974076509476,
         0.02411525882780552,
         -0.0008954083896242082,
         -0.004198256414383650,
         -4.954581163474359e-05,
         -0.01383006107062101,
         0.02773977816104889,
         0.01300766505300999,
         -0.009570793248713017,
         -0.01083922665566206,
         0.009007829241454601,
         -0.0004233059298712760,
         -0.01038903743028641,
         -0.0003769917821045965,
         -0.01466236729174852,
         -0.01444703154265881,
         -0.01049219816923141,
         -0.02837494015693665,
         -0.01236363034695387,
         0.02410234510898590,
         -0.01514034532010555,
         0.002569257514551282,
         -0.02495807036757469,
         0.002552911406382918,
         -0.01258657593280077,
         0.02551485225558281,
         -0.02682810649275780,
         -0.01354890409857035,
         -0.007995441555976868,
         -0.02528012916445732,
         -0.007552073802798986,
         -0.01482982374727726,
         -0.001872608787380159,
         0.003542077261954546,
         0.02193019725382328,
         -0.01793935894966125,
         0.0180454496294260,
         -0.02934652380645275,
         -0.01047201082110405,
         -0.004820086061954498,
         0.01255479827523232,
         0.02708815410733223,
         0.002761206356808543,
         -0.001705599948763847,
         0.02662903256714344,
         0.02427290007472038,
         0.02957036904990673,
         -0.02909531071782112,
         0.02501064166426659,
         0.005543537903577089,
         -0.02717738598585129,
         0.01116521097719669,
         0.02431742846965790,
         0.01492498349398375,
         0.009018097072839737,
         -0.008677920326590538,
         0.01403060741722584,
         -0.007168277632445097,
         0.003078853012993932,
         -8.956366218626499e-05,
         0.01982315257191658,
         0.01396094635128975,
         0.02708294428884983,
         0.001120652887038887,
         0.001339567475952208,
         0.003238197881728411,
         -0.02844257652759552,
         -0.02718557417392731,
         -0.0276990644633770,
         -0.01232071220874786,
         0.0001250580389751121,
         -0.02538470178842545,
         0.01873674988746643,
         -0.01242881827056408,
         0.01395616866648197,
         0.01186861377209425,
         -0.02200387232005596,
         0.01874693855643272,
         -0.02101877331733704,
         -0.02108301222324371,
         0.006007079966366291,
         -0.01185664813965559,
         -0.02229813672602177,
         0.01603829115629196,
         -0.02674136497080326,
         -0.004005365073680878,
         -0.008830721490085125,
         0.01538798958063126,
         -0.02076318487524986,
         0.005095896776765585,
         0.02105993404984474,
         -0.02550541982054710,
         -0.01738341152667999,
         -0.02725652977824211,
         -0.01924993656575680,
         0.02325189299881458,
         0.01417339965701103,
         0.001277620671316981,
         -0.01174038834869862,
         -0.01605547592043877,
         -0.009618509560823441,
         -0.02342671155929565,
         0.003161928849294782,
         0.01534412335604429,
         -0.02425946481525898,
         -0.02912889048457146,
         0.005752837285399437,
         -0.01800207234919071,
         0.02501726336777210,
         0.004901776090264320,
         -0.02337217144668102,
         0.01707378961145878,
         0.02623233199119568,
         -0.02977015264332294,
         -0.01993192732334137,
         0.01542999316006899,
         0.0009621652425266802,
         -0.008519356139004230,
         0.009045852348208427,
         0.01769023202359676,
         0.02301562950015068,
         0.0001797391887521371,
         -0.007172545418143272,
         0.02526146918535233,
         0.02866091392934322,
         -0.002947923727333546,
         0.001132626901380718,
         -0.01849907636642456,
         0.02928875014185905,
         0.006416799966245890,
         0.01969021186232567,
         0.0004493391897995025,
         -0.001262809149920940,
         -0.0008679805905558169,
         0.01128692645579576,
         0.0001036369503708556,
         -0.02550112828612328,
         -0.02802516333758831,
         0.01350096147507429,
         -0.01482423115521669,
         -0.02081578224897385,
         0.01749804243445396,
         0.01681380346417427,
         -0.02449332550168037,
         -0.02115477435290813,
         -0.02867988869547844,
         -0.02521951124072075,
         -0.01202598679810762,
         0.003737592138350010,
         -0.005532192531973124,
         -0.001148943323642015,
         -0.02883614599704742,
         0.005514844786375761,
         0.01846621744334698,
         0.01459028106182814,
         0.02256645448505878,
         0.01645464822649956,
         0.02074177935719490,
         0.006190897896885872,
         -0.001478327205404639,
         -0.01771611720323563,
         0.01749439910054207,
         -0.009966663084924221,
         0.01362952589988708,
         -0.01290975697338581,
         0.006883041001856327,
         0.0009731997270137072,
         -0.02522376552224159,
         -0.0001213556388393044,
         -0.02149827405810356,
         -0.01953951455652714,
         0.01213328633457422,
         0.01511468924582005,
         -0.04458515718579292,
         0.02491693012416363,
         -0.01854995638132095,
         0.007527088746428490,
         -0.004736367147415876,
         0.005518782418221235,
         0.003740998916327953,
         0.01395998336374760,
         -0.02511771768331528,
         0.02050525322556496,
         0.003155101323500276,
         -0.02056205458939075,
         0.01095729134976864,
         -0.01379733253270388,
         -0.006694762967526913,
         -0.01195787824690342,
         0.0002921881095971912,
         -0.006948546040803194,
         -0.01236585434526205,
         0.01000287849456072,
         -0.02319908514618874,
         0.01023642625659704,
         0.007618459407240152,
         0.005100088659673929,
         0.01815318129956722,
         -0.009126003831624985,
         0.007559403311461210,
         0.00588737940415740,
         0.01448400039225817,
         -0.01455049961805344,
         0.02813470922410488,
         0.01269234064966440,
         -0.01745134033262730,
         0.01610498316586018,
         -0.009972828440368176,
         -0.01136953011155128,
         0.02048371545970440,
         0.02422276884317398,
         -0.009011440910398960,
         0.03447442874312401,
         -0.003197443205863237,
         0.02693532407283783,
         0.01077744364738464,
         0.01560112833976746,
         -0.01663346961140633,
         -0.01358101796358824,
         -0.01074892934411764,
         -0.02884579077363014,
         0.02468293160200119,
         -0.02338609285652637,
         0.02984703518450260,
         0.02120679244399071,
         0.02347044274210930,
         -0.02479516342282295,
         0.008283367380499840,
         0.02786777168512344,
         0.02315660752356052,
         0.01103951036930084,
         -0.006824914831668139,
         0.01300331670790911,
         -0.01083024032413960,
         0.001855824259109795,
         -0.02794429659843445,
         0.003242942271754146,
         0.02260683104395866,
         0.001452633528970182,
         0.02845734916627407,
         0.02503088302910328,
         -0.01595315523445606,
         -0.02834607660770416,
         0.004040049854665995,
         0.02741717919707298,
         0.01448900811374187,
         0.01975759491324425,
         -0.01252206880599260,
         -0.02516223490238190,
         0.001029067905619740,
         0.007293310016393661,
         -0.004525928758084774,
         0.002712312154471874,
         0.01956528984010220,
         -0.007419693749397993,
         0.01548120565712452,
         0.02673763222992420,
         0.004091694019734859,
         -0.003443746827542782,
         -0.02596953883767128,
         -0.02095873281359673,
         0.01557305734604597,
         0.008655400946736336,
         -0.02118238247931004,
         0.008942935615777969,
         -0.009404364973306656,
         -0.02266529202461243,
         0.006904162466526031,
         -0.02860262431204319,
         -0.01268422417342663,
         -0.01270907837897539,
         0.02225002646446228,
         0.01772495917975903,
         -0.02479451894760132,
         0.02678734064102173,
         -2.879184103221633e-05,
         0.02109093219041824,
         0.02847452089190483,
         -0.02030860446393490,
         0.02269268594682217,
         0.01755681075155735,
         0.01256398484110832,
         0.004705485422164202,
         -0.003869014326483011,
         -0.01394567172974348,
         0.007992781698703766,
         0.02664660476148129,
         0.01076776720583439,
         -0.02016071230173111,
         0.01536646671593189,
         -0.001617869827896357,
         -0.006931610405445099,
         -0.01330032106488943,
         -0.01633121073246002,
         -0.01442163437604904,
         -0.01688226684927940,
         0.02412379160523415,
         -0.02163779176771641,
         0.02161012962460518,
         -0.01437103562057018,
         0.003099795430898666,
         -0.004511317238211632,
         -0.02099533565342426,
         -0.001264262362383306,
         -0.01194609608501196,
         -0.01532224845141172,
         -0.02529926970601082,
         -0.02140799164772034,
         0.01850429177284241,
         0.02789879031479359,
         -0.02425275929272175,
         -0.007792424876242876,
         0.02577818930149078,
         0.002783376490697265,
         -0.003017865587025881,
         -0.008430099114775658,
         0.005788366310298443,
         -0.003106544492766261,
         -0.02546166069805622,
         -0.01144797913730145,
         0.02221863344311714,
         -0.001009615138173103,
         -0.003205037908628583,
         -0.01736835949122906,
         0.001619194401428103,
         0.005951932631433010,
         -0.005725731141865253,
         -0.01920290477573872,
         0.01943391002714634,
         -0.02875754982233047,
         0.01873072236776352,
         -0.02365573868155479,
         0.02798024006187916,
         0.02638055011630058,
         -0.02439669519662857,
         0.008500549010932446,
         0.01237462181597948,
         -0.01429034676402807,
         0.004840302746742964,
         0.0002304764202563092,
         -0.02643441781401634,
         -0.02082396484911442,
         -0.02239995077252388,
         0.01335231680423021,
         0.007723259273916483,
         -0.007160496432334185,
         0.01094374153763056,
         -0.02792879939079285,
         0.02508291974663734,
         0.01792271062731743,
         -0.01205469388514757,
         -0.01193471252918243,
         0.01318800728768110,
         -0.02653833851218224,
         0.009824956767261028,
         -0.001540856435894966,
         -0.01099600270390511,
         0.003366216085851192,
         0.004916639532893896,
         0.02382797375321388,
         -0.006811740342527628,
         0.02864130027592182,
         -0.01586476340889931,
         -0.02575413882732391,
         0.02379445731639862,
         -0.005562724545598030,
         0.02851549722254276,
         0.02532865479588509,
         0.01406856160610914,
         -0.006078701466321945,
         0.01886869035661221,
         -0.005218300037086010,
         0.008348850533366203,
         -0.02497359365224838,
         0.01952549628913403,
         0.01419818960130215,
         0.003578021423891187,
         0.003465358167886734,
         -0.02535446174442768,
         -0.002221329836174846,
         0.01852661930024624,
         0.01213263813406229,
         0.01148625276982784,
         -0.01824843697249889,
         0.01436213869601488,
         0.02521520853042603,
         -0.009332411922514439,
         0.009585893712937832,
         -0.006550953723490238,
         -0.008758561685681343,
         -0.003964078146964312,
         0.01034313719719648,
         -0.007832677103579044,
         0.01461110077798367,
         0.01226821169257164,
         0.01219325978308916,
         0.009899054653942585,
         -0.01085450686514378,
         0.02733711712062359,
         0.02091458253562450,
         -0.009863313287496567,
         0.01519714761525393,
         0.001404400449246168,
         -0.02649674192070961,
         -0.01687303185462952,
         0.0001522096717962995,
         0.02655151300132275,
         -0.009054339490830898,
         0.01611785218119621,
         -0.01553726196289062,
         -1.472848362027435e-05,
         -0.01192276272922754,
         -0.02718349359929562,
         0.0001912357693072408,
         -0.02546977251768112,
         0.007574630435556173,
         -0.02808829769492149,
         2.450247120577842e-05,
         -0.01447158306837082,
         -0.002139151562005281,
         0.005884556565433741,
         -0.004683188628405333,
         0.01727068983018398,
         -0.01522229705005884,
         0.0001329154038103297,
         -0.01322170998901129,
         -0.02115872688591480,
         -0.0008625839836895466,
         -0.006375756580382586,
         -0.02944083698093891,
         0.01142264157533646,
         0.01897824928164482,
         0.01769847236573696,
         0.005363890901207924,
         -0.02139490842819214,
         -0.01794818602502346,
         -0.01076728571206331,
         0.01088956464082003,
         0.003524604719132185,
         -0.001124240225180984,
         0.0002744773519225419,
         -0.004429545253515244,
         -0.02121032774448395,
         -0.008157840929925442,
         -0.01535973139107227,
         0.007475431077182293,
         -0.02559932321310043,
         -0.01334125082939863,
         0.01412306632846594,
         -0.01136856339871883,
         -0.01451555360108614,
         -0.02508153021335602,
         0.004497453104704618,
         0.003674129489809275,
         0.005004382226616144,
         -0.02483774535357952,
         0.01757850497961044,
         0.02807408943772316,
         0.003149956231936812,
         -0.005522500723600388,
         -0.005028275772929192,
         -0.0139958793297410,
         -0.02433281019330025,
         -0.03303205594420433,
         0.01459300424903631,
         -0.007965937256813049,
         0.005805865395814180,
         0.001414942089468241,
         -0.02176694758236408,
         -0.01093087811022997,
         0.02212283387780190,
         -0.02269450202584267,
         -0.04351072013378143,
         0.01268194429576397,
         -0.02043980732560158,
         -0.004801611881703138,
         -0.01687866449356079,
         -0.04493962600827217,
         -0.01424580998718739,
         0.02273112908005714,
         0.007764927111566067,
         0.01718466356396675,
         -0.01636412180960178,
         0.02302620932459831,
         -0.01884940825402737,
         0.01037258096039295,
         0.02504136227071285,
         0.02239891141653061,
         0.02039090357720852,
         0.02165750972926617,
         -0.008456619456410408,
         0.01690564118325710,
         -0.01415919791907072,
         -0.02084211260080338,
         -1.379761215503095e-05,
         -0.01577335596084595,
         -0.02077461220324039,
         -0.007701775059103966,
         -0.02708841487765312,
         0.02608992345631123,
         0.01256647147238255,
         0.001597449998371303,
         0.002121450845152140,
         0.02534773014485836,
         0.009262328967452049,
         -0.01555284112691879,
         -0.02765885926783085,
         0.02861855179071426,
         -0.02859215997159481,
         -0.001823730650357902,
         -0.02962488308548927,
         0.02903680689632893,
         -0.008569093421101570,
         -0.03815326467156410,
         -0.0007187084993347526,
         -0.01126920618116856,
         0.02071663551032543,
         -0.02933820709586143,
         -0.01728822290897369,
         -0.02809233590960503,
         0.01649975962936878,
         0.02671117149293423,
         0.02742284722626209,
         -0.008239887654781342,
         -0.02649516053497791,
         0.008529797196388245,
         0.0001057094996212982,
         -0.01201379206031561,
         0.008790048770606518,
         0.02388699352741241,
         0.01242894586175680,
         0.01773660071194172,
         -0.01261951960623264,
         -0.02437141537666321,
         -0.02682139724493027,
         0.02424443326890469,
         0.01519367378205061,
         -0.008604946546256542,
         0.01002179086208344,
         -0.01282494422048330,
         0.01461962983012199,
         0.01892573013901711,
         -0.01646457053720951,
         -0.02100834250450134,
         -0.01171394158154726,
         0.008593172766268253,
         -0.01979821175336838,
         0.005495839752256870,
         0.001614224165678024,
         0.01267781481146812,
         -0.02558902837336063,
         0.003162150736898184,
         0.009953596629202366,
         -0.02142234146595001,
         -0.01742709800601006,
         0.02145509608089924,
         0.02861798368394375,
         0.001434846082702279,
         -0.01196309458464384,
         0.01666823960840702,
         0.01812965236604214,
         0.02718892507255077,
         -0.02967889979481697,
         -0.009448362514376640,
         0.02738622017204762,
         0.02000363916158676,
         -0.02709937095642090,
         0.003471352159976959,
         0.02350195311009884,
         3.439568899921142e-05,
         -0.002313239034265280,
         0.01057979650795460,
         0.01816480979323387,
         0.02476418763399124,
         0.02566575631499290,
         0.007431213743984699,
         0.01552058849483728,
         -0.02683317102491856,
         -0.0008358557824976742,
         -0.02526121400296688,
         -0.002970415167510509,
         -0.02388868480920792,
         0.02079354599118233,
         -0.008735497482120991,
         0.02835706621408463,
         -0.01824665628373623,
         0.002976864809170365,
         -0.003168880939483643,
         -0.02437028475105762,
         0.01681328937411308,
         0.01085930783301592,
         -0.02705085463821888,
         -0.003734667552635074,
         -0.02294944040477276,
         -0.02317231521010399,
         -0.02558293938636780,
         0.02334370650351048,
         -0.006086618639528751,
         -0.009907271713018417,
         0.01927369832992554,
         0.009941446594893932,
         -0.009726540185511112,
         -0.02327039651572704,
         -0.007901402190327644,
         0.02760674431920052,
         -0.02380884252488613,
         0.01473007723689079,
         0.007704416755586863,
         -0.01612602733075619,
         -0.02201529592275620,
         0.002046991838142276,
         -0.01570439711213112,
         -0.003414361504837871,
         0.02482735738158226,
         0.008262733928859234,
         0.01112992223352194,
         0.02967642992734909,
         0.001700374647043645,
         0.02499302476644516,
         -0.01540992129594088,
         -0.003730031196027994,
         -0.02894166111946106,
         0.01520664617419243,
         0.01372936833649874,
         0.01162254065275192,
         0.009286465123295784,
         0.01915494166314602,
         -0.02073115482926369,
         -0.01457473821938038,
         -0.01034851744771004,
         -0.01952840015292168,
         0.01472631935030222,
         0.01026222016662359,
         0.01192747056484222,
         -0.005259061232209206,
         0.02439923584461212,
         0.001306745572946966,
         -0.02343190275132656,
         -0.02757484093308449,
         0.02243694663047791,
         -0.02929861471056938,
         0.01501718349754810,
         -0.02936081029474735,
         -0.004236456472426653,
         0.02376720868051052,
         -0.01209327392280102,
         0.001167673501186073,
         -0.02646643295884132,
         0.008245250210165977,
         -0.02097438275814056,
         0.01293968968093395,
         0.004946261644363403,
         0.02529327385127544,
         0.02903121151030064,
         0.01037447154521942,
         0.007365300785750151,
         0.004374372307211161,
         -0.005683823488652706,
         0.01210191193968058,
         0.006824743933975697,
         0.01054285559803247,
         -0.02101204730570316,
         0.009122080169618130,
         0.01280562579631805,
         -0.001259185024537146,
         -0.02761579491198063,
         -0.02155528031289577,
         0.01413288619369268,
         0.01507012918591499,
         0.01931816153228283,
         -0.007790871430188417,
         -0.009820167906582355,
         -0.0007243433501571417,
         -0.01410286221653223,
         0.01380274537950754,
         0.008749438449740410,
         0.01151364948600531,
         0.01167965773493052,
         0.004375415388494730,
         0.01373160257935524,
         -0.005175036843866110,
         -0.02757804654538631,
         0.02513246424496174,
         0.0005996391410008073,
         0.004007811658084393,
         0.001694674370810390,
         0.01422758214175701,
         0.004259789828211069,
         0.02188635990023613,
         -0.008378072641789913,
         -0.01632178202271461,
         0.02087349630892277,
         0.001958304317668080,
         0.004572656471282244,
         0.01591174118220806,
         0.01666563376784325,
         -0.005500519182533026,
         0.005939634516835213,
         0.02957754209637642,
         0.01010688301175833,
         0.01244832202792168,
         -0.005525555461645126,
         0.004483209457248449,
         -0.008555917069315910,
         -0.01088952179998159,
         -0.002517930464819074,
         -0.01237779203802347,
         -0.02186671830713749,
         0.008495300076901913,
         0.02530742436647415,
         0.007630415726453066,
         -0.01219107024371624,
         0.01210141275078058,
         -0.02436416409909725,
         -0.02793651819229126,
         0.02295080572366714,
         -0.01281165797263384,
         0.009700272232294083,
         0.02620411291718483,
         -0.009806619957089424,
         0.02576705813407898,
         0.02614304609596729,
         0.007120008114725351,
         0.01292557921260595,
         0.01346063055098057,
         -0.02664483524858952,
         -0.02398559823632240,
         -0.02129771932959557,
         0.01479609776288271,
         0.008532477542757988,
         0.003450022311881185,
         -0.02409855462610722,
         0.007543477695435286,
         -0.01055674906820059,
         0.01109688449651003,
         0.02654043212532997,
         0.02183087542653084,
         -0.01202084869146347,
         -0.01878817006945610,
         0.006082732230424881,
         -0.008547758683562279,
         -0.002317225560545921,
         -0.003506265114992857,
         0.02584144473075867,
         -0.009907001629471779,
         -0.02335610054433346,
         0.02637718245387077,
         -0.002524949610233307,
         0.02572757564485073,
         0.003554800758138299,
         0.02631330676376820,
         -0.01774901151657104,
         0.002044191118329763,
         -0.02609839849174023,
         -0.02086447179317474,
         -0.009965484030544758,
         -0.01462507992982864,
         0.004940551239997149,
         0.01005446631461382,
         -0.01182934921234846,
         -0.01935576833784580,
         -0.003931346815079451,
         -0.0199759453535080,
         -0.01043125707656145,
         0.0004077628836967051,
         0.02733665518462658,
         0.02708466723561287,
         0.008107172325253487,
         0.006376079283654690,
         -0.009026935324072838,
         -0.02914438024163246,
         0.009681489318609238,
         0.005280232056975365,
         -0.01589939929544926,
         0.009820058941841125,
         0.07908235490322113,
         -0.02203058451414108,
         0.006863197311758995,
         0.005478131584823132,
         0.006609960459172726,
         -0.01917523890733719,
         0.01962390914559364,
         0.02439817599952221,
         0.005879177711904049,
         0.02956037968397141,
         0.007805723696947098,
         -0.02757985889911652,
         -0.02597876079380512,
         0.0006535942666232586,
         -0.01923047751188278,
         0.0003375167725607753,
         0.005247952416539192,
         0.0005424862611107528,
         -0.01585164479911327,
         -0.01989367417991161,
         -0.02667772583663464,
         -0.005144503898918629,
         0.01384338457137346,
         0.02632368169724941,
         -0.01010738313198090,
         0.02216174453496933,
         -0.007502423599362373,
         -0.01340847741812468,
         0.006905315909534693,
         -0.01754355803132057,
         -0.01892757788300514,
         0.02981511130928993,
         -0.01176415849477053,
         0.001795030664652586,
         0.02276614308357239,
         0.02031166292726994,
         0.01974701322615147,
         0.009906496852636337,
         -0.004846326075494289,
         0.02332460694015026,
         -0.005145023576915264,
         0.0003472050884738564,
         -0.01384443696588278,
         0.005430846940726042,
         -0.01827078312635422,
         0.02325845137238503,
         -0.02873070351779461,
         -0.02258326299488544,
         -0.02980027161538601,
         -0.01325014978647232,
         0.00772121874615550,
         0.01787778921425343,
         -0.008236755616962910,
         -0.02171075157821178,
         0.02891120873391628,
         0.01013955660164356,
         -0.02929801493883133,
         0.006704604718834162,
         -0.01019263733178377,
         0.02751222066581249,
         -0.007304964121431112,
         -0.01275223866105080,
         -0.01478735450655222,
         0.01776796951889992,
         -0.01210993528366089,
         0.02548532001674175,
         -0.02462756447494030,
         0.001536421244964004,
         -0.02243223972618580,
         -0.01418328657746315,
         -0.02004520036280155,
         0.01640470884740353,
         0.02220340445637703,
         -0.01454556267708540,
         -0.02787186019122601,
         0.01260888855904341,
         -0.002217803150415421,
         -0.01277475245296955,
         0.02784136123955250,
         0.009924691170454025,
         -0.02054442837834358,
         -0.02828756347298622,
         -0.003887093858793378,
         -0.003095879685133696,
         -0.01952012442052364,
         0.001693010330200195,
         0.01564887538552284,
         -0.001306117046624422,
         0.01744251511991024,
         0.01663010753691196,
         -0.009607939980924129,
         -0.009972310625016689,
         0.004130325745791197,
         -0.02482798509299755,
         0.02599587477743626,
         -0.02783916145563126,
         0.0018106714123860,
         0.02152188494801521,
         0.01232097391039133,
         0.02841452136635780,
         0.02589598298072815,
         -0.006554023362696171,
         -0.02474074438214302,
         0.003535253228619695,
         -0.01911705918610096,
         0.02532997354865074,
         -0.008001395501196384,
         -0.02565928176045418,
         0.02694576606154442,
         -0.007185391150414944,
         -0.003633223939687014,
         -0.01061154529452324,
         -0.01764625683426857,
         0.02065197750926018,
         -0.003530169371515512,
         -0.01238895021378994,
         0.003283988218754530,
         -0.02539547905325890,
         -0.01174204330891371,
         0.003215736011043191,
         0.01691669784486294,
         -0.002872250741347671,
         -0.01316612772643566,
         -0.01139313820749521,
         -0.01538760960102081,
         -0.02699395455420017,
         0.01386898849159479,
         -0.01113974582403898,
         -0.02571979910135269,
         -0.02203953452408314,
         -0.02079879865050316,
         -0.01726723276078701,
         0.01463196519762278,
         0.002682539168745279,
         0.01552039384841919,
         -0.02077666856348515,
         -0.02130191959440708,
         -0.01003607083112001,
         -0.003902288852259517,
         0.01208318956196308,
         0.02603194490075111,
         0.008871481753885746,
         -0.02601575851440430,
         -0.01925102993845940,
         0.01225089561194181,
         0.02111049927771091,
         -0.01586378552019596,
         0.007169095333665609,
         0.02505249343812466,
         -0.001102186157368124,
         -0.01165270060300827,
         -0.02822309732437134,
         -0.02250536344945431,
         0.01071546319872141,
         -0.00791028980165720,
         0.01032274495810270,
         0.009453034028410912,
         0.009928653016686440,
         0.01716109178960323,
