{
   "convLayer" : {
      "bias" : [
         0.1341273486614227,
         0.03934033960103989,
         0.403408557176590,
         0.2738916575908661,
         0.4855248332023621,
         0.3685079813003540,
         0.3834324479103088,
         0.1799333393573761,
         0.2141713500022888,
         0.1561627835035324,
         0.4529467821121216,
         0.1855349838733673,
         0.3173445165157318,
         0.2619171738624573,
         0.2142296135425568,
         0.5162242650985718,
         0.02914099767804146,
         -0.007713965605944395,
         0.1296767145395279,
         0.4593786597251892,
         0.1160907447338104,
         0.003430516459047794,
         0.3404654562473297,
         0.2047482728958130,
         0.3450097143650055,
         0.3000238835811615,
         0.3777399361133575,
         0.3476321101188660,
         0.2828250527381897,
         0.2220416963100433,
         0.2267238497734070,
         0.4604470133781433,
         0.3853071928024292,
         0.05387910455465317,
         0.04427359253168106,
         0.1395366787910461,
         0.08994715660810471,
         0.1543465852737427,
         0.4085471630096436,
         0.2786955833435059,
         0.02544029615819454,
         0.3503022789955139,
         0.03050929307937622,
         0.4361164867877960,
         0.1767342984676361,
         0.1634745597839355,
         0.4764431715011597,
         0.0001080594520317391,
         0.1480999141931534,
         0.4584946632385254,
         0.01119898259639740,
         0.4136755764484406,
         0.2652061581611633,
         0.5133693814277649,
         0.2865316569805145,
         0.4500011801719666,
         0.2909062206745148,
         0.1749873459339142,
         -0.02875079773366451,
         0.3587020039558411
      ],
      "weight" : [
         -0.007418541703373194,
         -0.01453584153205156,
         0.01913025602698326,
         0.006274302955716848,
         0.02986325509846210,
         0.01534765399992466,
         0.01696861721575260,
         -0.003650044556707144,
         -6.046891212463379e-05,
         -0.005888810846954584,
         0.02377750910818577,
         -0.002919323742389679,
         0.01023968867957592,
         0.007930141873657703,
         3.134720464004204e-05,
         0.02470610849559307,
         -0.01856102608144283,
         -0.01925952546298504,
         -0.005924526136368513,
         0.02407078631222248,
         -0.009852200746536255,
         -0.02113673277199268,
         0.01238170545548201,
         -0.001356840482912958,
         0.01300166733562946,
         0.008490860462188721,
         0.01586062088608742,
         0.01326259132474661,
         0.006797049194574356,
         0.0007199941319413483,
         0.001186699024401605,
         0.02447381243109703,
         0.01695402525365353,
         -0.01617138832807541,
         -0.01704666763544083,
         -0.007502706255763769,
         -0.01242578774690628,
         -0.005136919207870960,
         0.01988268457353115,
         0.006393362767994404,
         -0.01889284141361713,
         0.01396792847663164,
         -0.01797074638307095,
         0.02210097946226597,
         -0.003785118693485856,
         -0.004686443135142326,
         0.02652412652969360,
         -0.02141823805868626,
         -0.006656308658421040,
         0.02450769953429699,
         -0.02013069763779640,
         0.01997812837362289,
         0.005043487995862961,
         0.03082786500453949,
         0.008576491847634315,
         0.02348964475095272,
         0.007600272074341774,
         -0.003952063154429197,
         -0.02436346746981144,
         0.01436866633594036,
         -0.02836078032851219,
         0.002585137262940407,
         -0.001328915357589722,
         -0.01431869156658649,
         0.02784381248056889,
         0.006320213899016380,
         0.02298506163060665,
         -0.02268445119261742,
         -0.001420985907316208,
         -0.02309859171509743,
         0.01925755478441715,
         -0.004984071478247643,
         0.008287144824862480,
         -0.01668841019272804,
         -0.0001567117869853973,
         -0.003352316096425056,
         0.01050110720098019,
         -0.001552358269691467,
         -0.02327026054263115,
         -0.02641720883548260,
         0.02607895992696285,
         -0.02718388475477695,
         0.02067357487976551,
         -0.02839417383074760,
         -0.02421057969331741,
         0.005329390987753868,
         -0.01562386471778154,
         -0.02344127930700779,
         -0.02572702988982201,
         0.0273828674107790,
         -0.001678751781582832,
         0.01052994467318058,
         0.01266215927898884,
         -0.003351975232362747,
         -0.02599398605525494,
         0.007680336013436317,
         -0.02216877602040768,
         -0.01537074986845255,
         0.02448648773133755,
         0.02428671531379223,
         0.01797909475862980,
         -0.01786291785538197,
         0.002248981967568398,
         0.02739029563963413,
         0.03002089820802212,
         -0.01712639816105366,
         -0.007581597194075584,
         -0.003429349511861801,
         0.02559460885822773,
         0.007360087707638741,
         0.009359551593661308,
         -0.007067721337080002,
         0.03019022010266781,
         0.02913893945515156,
         -0.0174219049513340,
         0.01379860751330853,
         -0.02716263383626938,
         -0.008751342073082924,
         -0.009758047759532928,
         0.009255839511752129,
         -0.02106115967035294,
         -0.01312165521085262,
         -0.02073645964264870,
         0.02198805101215839,
         -0.02929673157632351,
         -0.01688860356807709,
         0.01303195394575596,
         -0.02662844583392143,
         0.002851655706763268,
         0.008267572149634361,
         -0.02390468120574951,
         -0.002684870036318898,
         0.02976575307548046,
         0.007674793247133493,
         -0.01241233851760626,
         -0.0001293964887736365,
         0.02115428633987904,
         -0.01324849668890238,
         -0.02863854356110096,
         -0.003071091370657086,
         -0.006591186393052340,
         -0.02569782175123692,
         0.02440067008137703,
         0.007094338070601225,
         0.01258386019617319,
         -0.006237769965082407,
         -0.005437208339571953,
         0.01244526077061892,
         0.02292115613818169,
         -0.009726489894092083,
         0.009752600453794003,
         0.009625689126551151,
         -0.03003968670964241,
         -0.01536830607801676,
         0.007577048614621162,
         0.02268997952342033,
         0.009390373714268208,
         -0.002828561235219240,
         -0.008514812216162682,
         0.02213585935533047,
         0.02859045751392841,
         0.01585212722420692,
         0.02524937689304352,
         0.01355079840868711,
         -0.001164206652902067,
         0.008539049886167049,
         -0.01847313903272152,
         0.02628557942807674,
         0.0005899847601540387,
         0.01142187509685755,
         -0.002348412061110139,
         -0.007311129942536354,
         0.007442864123731852,
         0.004520928487181664,
         -0.01132106874138117,
         -0.01061565708369017,
         -0.02678492106497288,
         0.004926008637994528,
         6.428793858503923e-05,
         -0.03058401867747307,
         -0.01494812592864037,
         -0.009918157011270523,
         -0.01738149672746658,
         0.006512518506497145,
         0.009523089043796062,
         -0.007901927456259727,
         0.02090888284146786,
         0.004932275507599115,
         -0.008007761090993881,
         0.01990710757672787,
         0.005137705709785223,
         -0.005519677419215441,
         -0.01913666911423206,
         0.01568517088890076,
         -0.01757227815687656,
         0.01868205890059471,
         0.02361614257097244,
         -0.006810954306274652,
         -0.02728804014623165,
         -0.02337153814733028,
         0.005652231629937887,
         0.005780515726655722,
         -0.02390224300324917,
         0.02288219891488552,
         -0.02687490172684193,
         -0.005034944973886013,
         -0.01925415359437466,
         0.02766279131174088,
         -0.002398666692897677,
         0.01692327857017517,
         -0.007855463773012161,
         -0.004375708755105734,
         0.02050753310322762,
         0.02664795145392418,
         0.003627385245636106,
         0.002523139119148254,
         -0.002253843704238534,
         -0.002105919644236565,
         0.01101135183125734,
         -0.02307303249835968,
         0.001510494621470571,
         -0.02407687157392502,
         -0.02829256840050220,
         -0.009254381991922855,
         -0.01359132770448923,
         -0.01487450115382671,
         -0.009293660521507263,
         0.001748863025568426,
         0.01967436634004116,
         -0.02415307424962521,
         0.01983804255723953,
         0.01591311953961849,
         0.01242037210613489,
         0.01991434209048748,
         0.01502727624028921,
         -0.01109835132956505,
         -0.01721025630831718,
         -0.0006094517302699387,
         -0.02234585396945477,
         -0.007780375890433788,
         0.01679748669266701,
         -0.02076548151671886,
         -0.01190931629389524,
         0.02884094230830669,
         -0.02735024318099022,
         -0.02153322473168373,
         0.004496792331337929,
         -0.01787318661808968,
         0.02125376090407372,
         0.01290641538798809,
         0.009383126161992550,
         -0.006280523259192705,
         0.008850269019603729,
         0.008367122150957584,
         -0.01645643450319767,
         -0.002786964876577258,
         -0.006714574992656708,
         0.01420758664608002,
         0.01239643245935440,
         -0.001705404021777213,
         -0.02657799422740936,
         0.01034467201679945,
         0.00836048461496830,
         0.01850621774792671,
         -0.02601310424506664,
         -0.009042116813361645,
         -0.01001725066453218,
         0.01869428716599941,
         0.02441698685288429,
         -0.01180496718734503,
         -0.01285037305206060,
         0.01583176851272583,
         0.008417602628469467,
         0.02059169858694077,
         0.007105378434062004,
         -0.003127797273918986,
         0.01623172499239445,
         0.02662203460931778,
         0.02441631443798542,
         0.002958126366138458,
         -0.03008006140589714,
         0.005251230672001839,
         -0.02028225548565388,
         0.02553793974220753,
         -0.008352301083505154,
         0.01228873897343874,
         0.001740908133797348,
         -0.01679858379065990,
         -0.01100735459476709,
         -0.0005759795312769711,
         0.02090893127024174,
         -0.02426703646779060,
         0.009912967681884766,
         -0.009376127272844315,
         -0.02101946994662285,
         0.009875242598354816,
         0.005390745121985674,
         -0.01796713657677174,
         0.01120502408593893,
         -0.002107669133692980,
         0.02295983768999577,
         -0.01164829730987549,
         -0.03021808713674545,
         0.0018432866781950,
         0.02367786131799221,
         -0.02154824882745743,
         0.02819215320050716,
         0.002327949041500688,
         0.003144648391753435,
         -0.007723717018961906,
         0.001990001415833831,
         -0.01118766516447067,
         0.007643332704901695,
         0.01948290877044201,
         -0.01989949867129326,
         -0.01735609211027622,
         0.003087473800405860,
         0.01997359283268452,
         0.02549142576754093,
         -0.009520026855170727,
         0.01347016450017691,
         -0.007866103202104568,
         -0.01538849994540215,
         -0.01446812413632870,
         -0.004228305537253618,
         -0.02045718766748905,
         -0.01988478563725948,
         -0.01928453892469406,
         0.01317235361784697,
         -0.02450394257903099,
         -0.01938466355204582,
         -0.01312738563865423,
         0.01772978529334068,
         0.009864369407296181,
         0.02580802701413631,
         -0.02985256537795067,
         0.02620356343686581,
         -0.02311875484883785,
         0.006277762353420258,
         -0.007451233919709921,
         0.01741865277290344,
         -0.009091807529330254,
         -0.01826177164912224,
         -0.02898641303181648,
         -0.01303310599178076,
         0.008774767629802227,
         -0.003078407607972622,
         0.01671801134943962,
         0.02634865045547485,
         -0.01261985301971436,
         0.02608394809067249,
         0.01405821274966002,
         -0.009726050309836864,
         0.006786680780351162,
         -0.004398762714117765,
         -0.01623122394084930,
         0.01354958675801754,
         0.001020504161715508,
         0.01368607860058546,
         0.02362584881484509,
         0.0002084393054246902,
         -0.02757098339498043,
         -0.01257888972759247,
         -0.005672905594110489,
         -0.02617210708558559,
         0.01394238509237766,
         -0.001820128411054611,
         0.007620474323630333,
         -0.01365127414464951,
         -0.01748967915773392,
         0.002913517877459526,
         -0.005519803613424301,
         -0.003522606566548347,
         0.01468653790652752,
         0.02080942131578922,
         0.02495615370571613,
         -0.01321479491889477,
         -0.01492599211633205,
         0.001219822093844414,
         -0.007451631128787994,
         -0.01188920252025127,
         0.02825719676911831,
         0.02414885722100735,
         0.02644292823970318,
         -0.01375661417841911,
         -0.02907935902476311,
         -0.01081987470388412,
         0.02998008765280247,
         0.02104227803647518,
         0.02866849489510059,
         -0.003126759082078934,
         0.01769376359879971,
         0.008687155321240425,
         0.01124426163733006,
         0.002120116725564003,
         0.0196878444403410,
         0.01682913117110729,
         -0.01945898681879044,
         0.01461907662451267,
         -0.001259243115782738,
         0.02008372731506824,
         -0.01293199509382248,
         -0.01430889219045639,
         0.01522571034729481,
         -0.03004374355077744,
         -0.01745134592056274,
         0.007777174934744835,
         0.01732381992042065,
         0.009760869666934013,
         -0.01706465519964695,
         -0.006826212629675865,
         0.001316955313086510,
         -0.02198994904756546,
         0.02991545759141445,
         0.01220615766942501,
         -0.02599963173270226,
         0.02306058816611767,
         0.005044260993599892,
         -0.02412914671003819,
         -0.01351865567266941,
         4.338845610618591e-05,
         -0.01301585137844086,
         0.01324466057121754,
         0.01985158585011959,
         -0.01583641953766346,
         0.01696550287306309,
         -0.02740759402513504,
         0.002075700089335442,
         0.02922762744128704,
         -0.001479018479585648,
         -0.001856934279203415,
         0.002256364328786731,
         0.01178071089088917,
         -0.02717695198953152,
         -0.02045893669128418,
         -0.02304109558463097,
         -0.008360545150935650,
         0.01996418833732605,
         -0.0001283899182453752,
         -0.001438937266357243,
         0.01326590869575739,
         -0.01382964011281729,
         0.02178376540541649,
         -0.02856905013322830,
         -0.01166700199246407,
         -0.02044063061475754,
         0.02640093304216862,
         0.01453102100640535,
         0.008171550929546356,
         0.005344284232705832,
         -0.008663315325975418,
         0.01185470074415207,
         0.01651523262262344,
         0.01653518155217171,
         -0.01875254884362221,
         -0.01465019769966602,
         -0.02777574956417084,
         -0.01691453903913498,
         0.01533994078636169,
         0.002636548830196261,
         0.01481748931109905,
         1.990839155041613e-05,
         0.023950245231390,
         0.005569466389715672,
         -0.02909889630973339,
         -0.01601406373083591,
         -0.01259983703494072,
         -0.02333979494869709,
         -0.004612938035279512,
         0.002194111002609134,
         -0.02580287866294384,
         0.01644581556320190,
         -0.01866050809621811,
         0.02556953579187393,
         0.01627021469175816,
         -0.02205247804522514,
         -0.02550248987972736,
         -0.01682672463357449,
         -0.005468740127980709,
         -0.001597758382558823,
         0.0007284915191121399,
         0.01546491682529449,
         0.003689696779474616,
         0.02321408130228519,
         0.02872900478541851,
         0.01934530586004257,
         -0.01949950493872166,
         -0.02329115010797977,
         0.02502497099339962,
         -0.008790488354861736,
         -0.02268256619572639,
         -0.03079005144536495,
         -0.001520538819022477,
         0.006865386385470629,
         -7.899402407929301e-05,
         -0.01871232874691486,
         0.02994561009109020,
         0.02774567157030106,
         0.01836221292614937,
         0.01196636166423559,
         -0.0007192240445874631,
         0.01644432917237282,
         0.01188857760280371,
         0.02022417262196541,
         -0.02237178385257721,
         -0.02229467220604420,
         0.02062768675386906,
         -0.02577180042862892,
         0.01663027517497540,
         0.005718315951526165,
         0.03016193397343159,
         0.01818227954208851,
         0.01994890160858631,
         -0.01960852183401585,
         0.03065652213990688,
         -0.01962633430957794,
         -0.009519462473690510,
         0.03078148700296879,
         0.01640473119914532,
         -0.006779056508094072,
         0.008144872263073921,
         -0.02115979976952076,
         0.02616590820252895,
         0.004865545779466629,
         -0.003371958620846272,
         0.02379181236028671,
         -0.01466529350727797,
         0.02073470503091812,
         -0.02312082611024380,
         -0.01957963220775127,
         -0.009836073033511639,
         -0.008920190855860710,
         0.01561622042208910,
         -0.02309058979153633,
         0.01624237187206745,
         -0.02463622950017452,
         0.0002450530009809881,
         0.02142108045518398,
         0.01616802625358105,
         -0.01952863670885563,
         0.02582444623112679,
         -0.01527533680200577,
         -0.02233843319118023,
         -0.02528844028711319,
         0.01637370139360428,
         -0.01147381030023098,
         0.002684495644643903,
         -0.01036088261753321,
         0.01828871853649616,
         -0.03052146546542645,
         -0.02399178594350815,
         -0.008435288444161415,
         0.02594699896872044,
         0.02598233334720135,
         -0.0009521087631583214,
         0.01597359962761402,
         0.02424106560647488,
         1.108564538299106e-05,
         -0.001836231676861644,
         -0.01404554955661297,
         -0.01717269234359264,
         0.005055610556155443,
         -0.01838640868663788,
         -0.006117982324212790,
         -0.007557715289294720,
         0.006090146489441395,
         0.02650639973580837,
         -0.02987742237746716,
         0.01348614133894444,
         0.02593937516212463,
         0.008243506774306297,
         0.006555384956300259,
         0.01586676202714443,
         -0.02343528717756271,
         -0.02978031709790230,
         -0.0007575374911539257,
         -0.02950488962233067,
         0.02294685505330563,
         -0.02924979105591774,
         -0.01367862336337566,
         -0.001398205407895148,
         -0.02366994321346283,
         -0.01263070199638605,
         0.01043660473078489,
         0.02098385244607925,
         0.01850407011806965,
         -0.02269358001649380,
         0.01042927149683237,
         0.007674685213714838,
         0.01495650876313448,
         -0.004109835717827082,
         -0.02908302657306194,
         -0.005434970371425152,
         0.01694146357476711,
         0.001220981241203845,
         -0.01876886747777462,
         0.009750073775649071,
         0.02942915819585323,
         0.02174783311784267,
         -0.01564439013600349,
         -0.02695622667670250,
         0.01678415946662426,
         0.02667158469557762,
         -0.005720095708966255,
         -0.002363248728215694,
         0.009228976443409920,
         -0.02471259236335754,
         0.02702252753078938,
         0.01835577189922333,
         -0.003976158332079649,
         0.02101557888090611,
         -0.007302658166736364,
         -0.02009536698460579,
         -0.02210572361946106,
         0.009033134207129478,
         -0.02948673442006111,
         -0.01938939094543457,
         -0.01101426314562559,
         0.01034067012369633,
         0.004172836430370808,
         -0.008439299650490284,
         0.02941656857728958,
         -0.004061382263898849,
         0.02963771857321262,
         0.004411932546645403,
         -0.02778204530477524,
         0.01167838461697102,
         0.005013881716877222,
         0.02508638799190521,
         0.01129587832838297,
         -0.01250106003135443,
         -0.006448931526392698,
         0.01493661478161812,
         0.004029648378491402,
         -0.01351207029074430,
         0.02812579460442066,
         0.004825457930564880,
         0.02732595615088940,
         0.01163654774427414,
         0.01155037805438042,
         0.001445842557586730,
         0.01468724571168423,
         -0.01702191308140755,
         -0.02449299767613411,
         -0.009194299578666687,
         0.0009433463565073907,
         0.02802207320928574,
         0.01270928978919983,
         -0.02055370807647705,
         -0.02857534773647785,
         0.02276777848601341,
         -0.01198983471840620,
         -0.02945930883288383,
         -0.01075340993702412,
         -0.008811125531792641,
         0.02007845789194107,
         0.01047312933951616,
         -0.02911587618291378,
         -0.001210125163197517,
         0.0001516654301667586,
         0.02314229123294353,
         0.03077512793242931,
         0.01180117763578892,
         -0.01837315224111080,
         0.009499525651335716,
         0.01149267144501209,
         0.008627558127045631,
         0.005390679463744164,
         -0.01230668649077415,
         -0.01952515915036201,
         -0.001770749688148499,
         -0.01025720685720444,
         0.01897714100778103,
         -0.02337469160556793,
         0.01934405229985714,
         0.006683127954602242,
         0.01932911761105061,
         0.01422031037509441,
         -0.01324945315718651,
         -0.01471451856195927,
         0.02163705788552761,
         -0.02767913416028023,
         -0.01950247958302498,
         0.01757853664457798,
         0.02010443992912769,
         -0.01140119880437851,
         -0.01375783234834671,
         -0.005779301747679710,
         -0.01149043254554272,
         -0.02809044346213341,
         -0.02195534110069275,
         0.01386114768683910,
         0.005963923409581184,
         -0.005055893212556839,
         0.02763345651328564,
         0.01633877120912075,
         0.02569351531565189,
         -0.002422660589218140,
         0.01911091618239880,
         -0.003776393830776215,
         -0.02757055871188641,
         0.02836312167346478,
         -0.008590715005993843,
         -0.03079181537032127,
         0.02633291669189930,
         -0.02978397533297539,
         -0.01637319847941399,
         -0.01352711021900177,
         0.007182752713561058,
         0.02760867588222027,
         0.02812477014958858,
         -0.002089230343699455,
         0.02029225043952465,
         0.009084766730666161,
         -0.02858822792768478,
         -0.007477894425392151,
         0.02916728146374226,
         -0.02556962892413139,
         0.008327754214406013,
         -0.01939089596271515,
         0.01840254850685596,
         0.009165102615952492,
         -0.002992479130625725,
         0.02339154668152332,
         -0.01451138593256474,
         -0.02728477679193020,
         0.02246509678661823,
         -0.02738384716212749,
         0.007291456684470177,
         0.01432605274021626,
         0.005391011014580727,
         -0.02315886691212654,
         0.02175780013203621,
         0.01960833370685577,
         -0.008504922501742840,
         -0.01051752269268036,
         -0.02261318638920784,
         -0.01658616401255131,
         -0.02196591719985008,
         -0.009016543626785278,
         0.003923356998711824,
         0.02429965510964394,
         0.01864112727344036,
         -0.02944585494697094,
         -0.02813524939119816,
         -0.006963369436562061,
         0.02471641823649406,
         -0.02718009240925312,
         0.008032970130443573,
         0.02560939826071262,
         0.01676995120942593,
         -0.003261465579271317,
         0.01983092539012432,
         0.01802459359169006,
         0.02113498747348785,
         0.004245666787028313,
         0.02397171966731548,
         0.004231013357639313,
         -0.02494786120951176,
         -0.02594443969428539,
         -0.02914465777575970,
         -0.02873598784208298,
         0.005184112582355738,
         0.004522029776126146,
         -0.003968451172113419,
         0.005512512288987637,
         0.007905059494078159,
         0.004605402704328299,
         -0.02042564190924168,
         -0.005060891155153513,
         -0.02299600839614868,
         0.01197058614343405,
         -0.01145707443356514,
         0.01017477177083492,
         0.002139718970283866,
         0.004882445093244314,
         0.02202130481600761,
         -0.01082364097237587,
         -0.01602714881300926,
         -0.01741021499037743,
         -0.008063251152634621,
         -0.01034779660403728,
         0.01315058302134275,
         -0.007451195269823074,
         0.02443062141537666,
         -0.01924212463200092,
         -0.01585117913782597,
         0.01221636682748795,
         0.02217881195247173,
         0.02907600812613964,
         -0.009601043537259102,
         -0.007132154423743486,
         -0.009599839337170124,
         0.001098259002901614,
         -0.01089359261095524,
         -0.01811676286160946,
         -0.009412677958607674,
         -0.01267995405942202,
         0.008631145581603050,
         -0.02345873974263668,
         0.02989135496318340,
         0.009729552082717419,
         -0.02406828477978706,
         -0.02373147755861282,
         0.006855223327875137,
         0.02630173787474632,
         -0.03021867573261261,
         -0.01482346933335066,
         -0.009116659872233868,
         -0.009298317134380341,
         -0.0008046773727983236,
         0.005360015667974949,
         0.02512253634631634,
         0.02070759795606136,
         0.02912781760096550,
         0.02108261547982693,
         -0.01053207926452160,
         -0.02278066612780094,
         -0.02520785108208656,
         0.01609615050256252,
         0.005597281735390425,
         0.003143529407680035,
         -0.005663829389959574,
         -0.01434647385030985,
         0.002809734549373388,
         -0.01265675202012062,
         -0.02310156449675560,
         0.007950993254780769,
         0.02527369372546673,
         0.009869955480098724,
         -0.02649117447435856,
         0.008343928493559361,
         0.01580142974853516,
         -0.02675452642142773,
         -0.01875437796115875,
         0.01615248806774616,
         0.01924317143857479,
         -0.01245694234967232,
         -0.01287967246025801,
         0.008247248828411102,
         -0.03062809258699417,
         -0.01975744776427746,
         0.02661571651697159,
         -0.02830571308732033,
         0.01454173866659403,
         -0.001827739062719047,
         0.003631365718320012,
         -0.01687671244144440,
         -0.01111409906297922,
         -0.01781705953180790,
         0.01219090167433023,
         -0.007950527593493462,
         0.01994918845593929,
         -0.007733317557722330,
         0.02159272879362106,
         -0.006114284507930279,
         -0.005172223784029484,
         0.01264045201241970,
         -0.005430054385215044,
         -0.02900201268494129,
         0.01999217644333839,
         -0.01447071414440870,
         -0.02635408192873001,
         0.004247612785547972,
         0.02230587415397167,
         0.01755072735249996,
         0.0009567310917191207,
         0.0003598620241973549,
         -0.0009755338542163372,
         0.01243953220546246,
         0.008933118544518948,
         0.005045761354267597,
         0.004889414645731449,
         0.03047656081616879,
         0.02718159928917885,
         -0.02159648947417736,
         0.01251367572695017,
         0.02047266624867916,
         0.02451561391353607,
         -0.02871648222208023,
         -0.03057196922600269,
         0.01105318218469620,
         -0.008533321321010590,
         0.001669246470555663,
         0.01165463589131832,
         -0.01731773465871811,
         0.02372853085398674,
         0.02482509985566139,
         -0.02925715222954750,
         0.03056466206908226,
         -0.004642684012651443,
         0.02009969204664230,
         -0.007038664538413286,
         -0.001573590794578195,
         -0.01774309389293194,
         0.01419242005795240,
         -0.004065505228936672,
         0.03015555441379547,
         0.01424587331712246,
         0.03061518631875515,
         0.02520718798041344,
         0.001306560356169939,
         0.008085704408586025,
         -0.01235165353864431,
         -0.005014628171920776,
         -0.003810261841863394,
         -0.02679986692965031,
         0.02783361822366714,
         -0.02500544860959053,
         -0.0009236422483809292,
         -0.03013001196086407,
         0.02599072270095348,
         0.01703837141394615,
         0.01228361763060093,
         -0.002808721736073494,
         -0.004057608544826508,
         -0.002561661647632718,
         0.01062467321753502,
         0.04492415487766266,
         -0.01690099760890007,
         -0.004227159544825554,
         0.0003057587018702179,
         -0.008320458233356476,
         0.02009949646890163,
         -0.005434361286461353,
         -0.0136401467025280,
         0.006093040574342012,
         -0.01278950460255146,
         0.02639594487845898,
         -0.01179475802928209,
         -0.009296522475779057,
         -0.02726157195866108,
         -0.006013014819473028,
         0.02906340733170509,
         0.02752221561968327,
         0.01002676598727703,
         -0.02673812955617905,
         0.02300756424665451,
         0.008271082304418087,
         0.02170985750854015,
         -0.02205550856888294,
         0.02120642364025116,
         -0.009166994132101536,
         0.01737746596336365,
         0.01085711736232042,
         -0.02654412575066090,
         0.001259080599993467,
         0.02172365225851536,
         -0.006690128706395626,
         -0.01558944210410118,
         -0.02139542251825333,
         -0.01897981949150562,
         0.01470986381173134,
         0.02296199835836887,
         0.01331810001283884,
         -0.001568570500239730,
         0.003001147881150246,
         -0.004470418673008680,
         -0.02871267870068550,
         0.01768184639513493,
         0.01602457463741302,
         0.02105942927300930,
         0.009718609973788261,
         -0.004199447110295296,
         -0.01452700980007648,
         -0.02636232599616051,
         -0.02966905198991299,
         -0.02409670315682888,
         -0.01498733460903168,
         -0.02286879159510136,
         -0.003572907298803329,
         0.005892241373658180,
         0.004941122606396675,
         -0.0002065766602754593,
         -0.004217902198433876,
         0.02300386689603329,
         0.02971793524920940,
         -0.01921696960926056,
         0.01296385936439037,
         -0.005846571177244186,
         -0.01027951203286648,
         0.02372746355831623,
         0.02645382843911648,
         0.01758013106882572,
         -0.02635588683187962,
         0.009429672732949257,
         0.03034854121506214,
         -0.009164299815893173,
         0.01996067725121975,
         0.001725306734442711,
         -0.02152166515588760,
         -0.01201493665575981,
         0.01672240160405636,
         -0.01808909326791763,
         -0.02272704988718033,
         -0.002446955069899559,
         0.003824820742011070,
         0.02438014931976795,
         0.02646402455866337,
         0.005077658221125603,
         -0.01749303191900253,
         -0.02896249480545521,
         -0.01074721291661263,
         0.009272871538996696,
         0.002335278317332268,
         0.01162492297589779,
         0.02567093633115292,
         0.02161465771496296,
         0.01729293353855610,
         0.03025944344699383,
         0.003698891028761864,
         -0.001849275082349777,
         -0.009580615907907486,
         -0.01952237077057362,
         0.01103320531547070,
         0.02207468263804913,
         -0.02151058614253998,
         -0.01673504337668419,
         -0.02931266278028488,
         -0.02461371012032032,
         -0.01868004165589809,
         -0.01125431619584560,
         0.02567790262401104,
         0.01014441810548306,
         -0.008787307888269424,
         -0.002850763499736786,
         -0.02297379262745380,
         -0.01010275632143021,
         0.02821434102952480,
         0.0007299613207578659,
         -0.003902671858668327,
         0.02527003549039364,
         -0.0005725640803575516,
         -0.007748387288302183,
         -0.02291346155107021,
         -0.01013034302741289,
         -0.009076756425201893,
         0.01655346713960171,
         0.002578723011538386,
         0.006592172663658857,
         -0.02946494705975056,
         0.01822876930236816,
         0.01097119320183992,
         -0.02700627967715263,
         -0.01574419066309929,
         -0.01472440827637911,
         0.006054069846868515,
         -0.008214844390749931,
         -0.008345270529389381,
         -0.003168861614540219,
         0.0002143669262295589,
         -0.007394787389785051,
         0.02139300480484962,
         -0.0001677873515291139,
         0.02063655294477940,
         0.02638824842870235,
         0.01115663535892963,
         -0.005510784219950438,
         -0.02033406496047974,
         0.01244406215846539,
         0.02492650225758553,
         0.02734882757067680,
         -0.007830263115465641,
         0.02199400775134563,
         -0.01604297943413258,
         -0.01389265153557062,
         -0.01365564018487930,
         -0.008803476579487324,
         0.004668326582759619,
         -0.0001696350955171511,
         -0.007117427419871092,
         3.568161628209054e-05,
         0.02361726760864258,
         -0.01474014669656754,
         0.01514561008661985,
         0.02157302945852280,
         0.01148049905896187,
         -0.01638836227357388,
         -0.02670582942664623,
         -0.002446327824145555,
         -0.02951658517122269,
         0.001474141608923674,
         -0.005546869710087776,
         0.02031879127025604,
         0.003385217627510428,
         0.02145769447088242,
         -0.004164281301200390,
         0.007683419156819582,
         -0.0008662691107019782,
         0.01574354432523251,
         0.02390001900494099,
         -0.01529573742300272,
         0.009717963635921478,
         0.01732195354998112,
         -0.009492999874055386,
         -0.01471398398280144,
         -0.02313486859202385,
         0.002557983389124274,
         -0.02835813537240028,
         0.01050479896366596,
         0.003690492361783981,
         0.02415795624256134,
         0.01407376397401094,
         -0.004920240491628647,
         0.02009571902453899,
         -0.02877343073487282,
         -0.02269388176500797,
         0.01474753860384226,
         0.01493138074874878,
         -0.02038182690739632,
         -0.01096117682754993,
         0.02312422171235085,
         -0.02892782539129257,
         -0.02465712837874889,
         -0.01218092348426580,
         0.005448140669614077,
         -0.01868747174739838,
         -0.01116566918790340,
         -0.009733958169817924,
         -0.02416808903217316,
         0.005228511523455381,
         -0.007571475580334663,
         -0.01261280290782452,
         0.02248291671276093,
         -0.01678197085857391,
         -0.01725350879132748,
         0.01293443702161312,
         0.01615606062114239,
         0.02805964834988117,
         0.01699074357748032,
         0.02684175595641136,
         -0.001493871095590293,
         0.001066869357600808,
         -0.003544153179973364,
         0.01957217790186405,
         0.003061767667531967,
         0.02310250699520111,
         -0.02725047431886196,
         0.02011125534772873,
         0.003089191624894738,
         -0.02451125346124172,
         0.02897468023002148,
         0.03100716322660446,
         -0.009357663802802563,
         0.004673241637647152,
         0.01597984135150909,
         0.01551107224076986,
         -0.01493053417652845,
         -0.02476385049521923,
         -0.02564285323023796,
         0.01395231485366821,
         0.01878494769334793,
         -0.009556260891258717,
         -0.02262589894235134,
         0.02221530862152576,
         0.01156812813133001,
         0.03469505906105042,
         0.01603549532592297,
         -0.02407699823379517,
         -0.005293942987918854,
         -0.0007951101870276034,
         0.02174348011612892,
         -0.02164060994982719,
         0.01448070537298918,
         -0.008407499641180038,
         0.01882206648588181,
         -0.01545789837837219,
         0.01434335112571716,
         0.01755728758871555,
         -0.005212100222706795,
         -0.01197687536478043,
         0.03258110210299492,
         -0.02703980728983879,
         0.0309153925627470,
         0.02891627326607704,
         -0.003473052289336920,
         -0.02301482670009136,
         -0.01993335783481598,
         0.02614039927721024,
         -0.001818296965211630,
         -0.02229695022106171,
         0.02976496331393719,
         -0.02457113564014435,
         0.001922891824506223,
         0.008097140118479729,
         -0.02130770310759544,
         0.01269017998129129,
         0.01093718223273754,
         -0.01622723229229450,
         0.02139283530414104,
         0.02855515293776989,
         -0.006453163456171751,
         0.02666998840868473,
         -0.0006291838362812996,
         0.006535219959914684,
         -0.003814426250755787,
         -0.02897846512496471,
         0.01072086393833160,
         -0.009741914458572865,
         -0.02954830601811409,
         0.003970423247665167,
         -0.01649058796465397,
         0.01135845109820366,
         -0.01427783165127039,
         -0.01375267282128334,
         -0.007288696244359016,
         0.008731193840503693,
         0.008699116297066212,
         0.02528995834290981,
         0.02600867860019207,
         -0.02890383079648018,
         -0.01598869077861309,
         0.03059200756251812,
         0.01463598292320967,
         0.004600642248988152,
         -0.01432247646152973,
         0.009683569893240929,
         0.01792647689580917,
         -0.009345795959234238,
         -0.01284474227577448,
         0.01256710197776556,
         -0.02324194833636284,
         -0.009350535459816456,
         -0.02417735941708088,
         -0.002740820869803429,
         -0.004456084221601486,
         0.01030539255589247,
         -0.003257945645600557,
         0.01669488288462162,
         0.01524336077272892,
         0.02597178332507610,
         0.01791442185640335,
         0.00494275800883770,
         0.02630027197301388,
         0.01021889317780733,
         -0.02614716812968254,
         0.008827787823975086,
         -0.003182167652994394,
         0.01900573447346687,
         -0.03036893159151077,
         0.01433773711323738,
         0.01718748547136784,
         -0.005025121383368969,
         -0.009076148271560669,
         0.02995985560119152,
         -0.02028408274054527,
         -0.02373083680868149,
         0.01395330112427473,
         -0.02015596628189087,
         -0.0007291357615031302,
         0.01043926365673542,
         0.01486213132739067,
         -0.02930501848459244,
         -0.009269127622246742,
         -0.01311355549842119,
         -0.02042464911937714,
         -0.003050333354622126,
         -0.002980415243655443,
         -0.02588880248367786,
         -0.02987487800419331,
         -0.009599756449460983,
         0.007886892184615135,
         0.02093639783561230,
         -0.01940341666340828,
         0.01943630538880825,
         -0.006356757134199142,
         0.02975443564355373,
         0.02116882614791393,
         0.009130643680691719,
         0.01380323059856892,
         0.01222223602235317,
         -0.008098037913441658,
         0.02626128308475018,
         -0.02610096894204617,
         -0.02280501462519169,
         0.02169718034565449,
         -0.02304221130907536,
         -0.02669530734419823,
         -0.01012115366756916,
         0.003569426015019417,
         -0.02982850372791290,
         -0.01126095466315746,
         0.02272800542414188,
         -0.02367958985269070,
         0.02828536368906498,
         -0.01479075103998184,
         -0.02887681499123573,
         0.004484893754124641,
         -0.01697866804897785,
         -0.02445708774030209,
         0.01772608794271946,
         0.02521306462585926,
         -0.01492872275412083,
         -0.03078382834792137,
         -0.002240082249045372,
         -0.01489252224564552,
         -0.001426715403795242,
         -0.03042131848633289,
         -0.02475113794207573,
         -0.003325982019305229,
         0.01796060241758823,
         0.03067256323993206,
         0.01103212498128414,
         0.01724700815975666,
         0.02218947373330593,
         0.02378420718014240,
         -0.01310799829661846,
         -0.01215589605271816,
         -0.001104865223169327,
         0.002824069932103157,
         0.01088814251124859,
         -0.008646400645375252,
         -0.02638134546577930,
         0.02474716864526272,
         -0.02361496910452843,
         0.02058272249996662,
         0.01437413878738880,
         0.006610529497265816,
         0.01882588304579258,
         0.02972383238375187,
         0.009151065722107887,
         -0.005013752728700638,
         0.02245613373816013,
         -0.02677267603576183,
         0.01153057254850864,
         0.02323750592768192,
         -0.008987339213490486,
         -0.02081574872136116,
         -0.002125494182109833,
         -0.02514215745031834,
         -0.02263079583644867,
         0.02172542177140713,
         -0.02463969215750694,
         0.02186111919581890,
         -0.02518699318170547,
         -0.003069048281759024,
         0.004522661212831736,
         -0.02104001864790916,
         -0.007343554869294167,
         0.01511338260024786,
         0.01258510723710060,
         -0.01269669178873301,
         0.008238605223596096,
         -0.02725893259048462,
         -0.002490104176104069,
         -0.02526768483221531,
         0.02152172289788723,
         -0.02234494872391224,
         -0.009996204636991024,
         0.02539608441293240,
         -0.009883133694529533,
         0.01484062243252993,
         -0.007415633648633957,
         0.01620333269238472,
         -0.03022877871990204,
         0.004640972707420588,
         -0.007558532059192657,
         0.002998488955199718,
         -0.01176948193460703,
         0.009601180441677570,
         -0.01114520151168108,
         -0.01301700901240110,
         -0.01273850165307522,
         0.0006742307450622320,
         0.01546567492187023,
         -0.002567796269431710,
         -0.02637143991887569,
         -0.02682953700423241,
         0.01677903346717358,
         -0.003369868965819478,
         0.02066347748041153,
         -0.01306630671024323,
         -0.01769195310771465,
         -0.03045738674700260,
         0.02040061727166176,
         -0.02697004936635494,
         -0.02055440284311771,
         0.01942913793027401,
         0.002405951498076320,
         -0.02449053339660168,
         0.01611740514636040,
         0.02910111658275127,
         0.02847000584006310,
         0.01807533390820026,
         -0.01252430584281683,
         -0.01496247295290232,
         0.01407349947839975,
         -0.005007926374673843,
         0.01617133244872093,
         0.01116572041064501,
         -0.01169171836227179,
         0.008571993559598923,
         0.003556908573955297,
         0.02858439832925797,
         0.02672098018229008,
         0.01793291419744492,
         -0.02696193195879459,
         0.02814470604062080,
         -0.003202492138370872,
         -0.01660792529582977,
         -0.01251971069723368,
         0.009465153329074383,
         -0.0008638456347398460,
         -0.002060194266960025,
         0.003699535271152854,
         0.002376985503360629,
         0.008113574236631393,
         0.02699506469070911,
         0.003851927584037185,
         -0.009133579209446907,
         0.01758919656276703,
         0.01156573090702295,
         0.02378094010055065,
         -0.03000168688595295,
         -0.02661077119410038,
         0.01080620195716619,
         -0.01989235542714596,
         0.02298076264560223,
         -0.005940815899521112,
         -0.02677997387945652,
         0.01526362728327513,
         -0.03044960647821426,
         0.01696936972439289,
         -0.02519098669290543,
         0.006801332347095013,
         -0.002687769476324320,
         -0.02364726178348064,
         -0.0001420538173988461,
         0.009723343886435032,
         -0.0005131173529662192,
         -0.02973810024559498,
         0.01426009647548199,
         -0.004915143828839064,
         -0.02448088675737381,
         0.002824288327246904,
         0.02948646433651447,
         0.008657546713948250,
         -0.01257051806896925,
         0.01801540888845921,
         0.01393688656389713,
         0.01463072467595339,
         0.006417507305741310,
         0.001867027487605810,
         0.003850850509479642,
         -0.01257824711501598,
         -0.009952081367373466,
         -0.003525715786963701,
         0.02994311787188053,
         -0.02520899102091789,
         0.02344257757067680,
         -0.02279952913522720,
         -0.01932999305427074,
         0.02992327883839607,
         -0.01539693307131529,
         0.02267451584339142,
         -0.01197947748005390,
         -0.01519046816974878,
         -0.02245482988655567,
         -0.01189020555466413,
         -0.009913085028529167,
         0.009317581541836262,
         -0.02095859311521053,
         -0.02207458578050137,
         -0.02253253012895584,
         0.007533906493335962,
         0.004262546543031931,
         0.01591176353394985,
         -0.02877998538315296,
         -0.02386855520308018,
         0.02138535678386688,
         0.01554131694138050,
         0.01852115616202354,
         0.005004879552870989,
         0.006083243992179632,
         -0.01702694036066532,
         -0.02757265977561474,
         -0.003203759202733636,
         -0.001214831368997693,
         -0.01599263213574886,
         -0.02393080480396748,
         -0.02543913014233112,
         0.02285157889127731,
         0.01896668784320354,
         0.01910627447068691,
         -0.0009912826353684068,
         0.01553823333233595,
         0.0008050051401369274,
         0.03015926480293274,
         0.006913003977388144,
         0.01243443042039871,
         0.02245460264384747,
         0.02328357845544815,
         -0.02672129683196545,
         -0.01654546894133091,
         0.009460791014134884,
         -0.02482541464269161,
         0.008219718001782894,
         -0.01527416892349720,
         0.02026530168950558,
         -0.01694854162633419,
         0.02802375890314579,
         -0.01538002956658602,
         0.01348631270229816,
         -0.02662778832018375,
         0.003884186036884785,
         -0.02884877286851406,
         0.02265701442956924,
         -0.002194683765992522,
         0.006153832189738750,
         -0.02852592244744301,
         0.02643185667693615,
         0.004329405259341002,
         -0.01926549710333347,
         -0.01737169176340103,
         0.01323396153748035,
         -0.0002871956676244736,
         0.006009491160511971,
         0.02440735511481762,
         -0.02028521895408630,
         -0.02046319469809532,
         -0.002489266451448202,
         0.006862111389636993,
         -0.03116346523165703,
         -0.003865333506837487,
         -0.02504023537039757,
         0.02295907773077488,
         0.007745733484625816,
         -0.01677218824625015,
         0.02153683453798294,
         0.01221055351197720,
         4.691031790571287e-05,
         -0.02230663038790226,
         -0.01929298415780067,
         0.003906060243025422,
         -0.008403865620493889,
         -0.009245859459042549,
         -0.02223548665642738,
         -0.009886290878057480,
         0.02193889208137989,
         0.006330245640128851,
         -0.03021230362355709,
         -0.02652765437960625,
         -0.01216314360499382,
         -0.02272090688347816,
         0.02450076490640640,
         -0.003711176337674260,
         -0.01203937735408545,
         0.02667516097426414,
         0.02160910330712795,
         0.01454124879091978,
         0.009762136265635490,
         -0.002886079251766205,
         0.003333825850859284,
         -0.01828711479902267,
         0.01750294491648674,
         -0.01329950429499149,
         -0.01520027965307236,
         0.03014571778476238,
         -0.02552313916385174,
         0.007853475399315357,
         -0.009959115646779537,
         -0.007887547835707664,
         -0.01435532793402672,
         -0.001874296227470040,
         -0.02447278425097466,
         0.01031898893415928,
         0.01326788403093815,
         0.02988579310476780,
         -0.006763370707631111,
         -0.01385128125548363,
         0.004534794017672539,
         -0.009073261171579361,
         0.02023808471858501,
         -0.01188163459300995,
         0.02832219935953617,
         0.03017128445208073,
         -0.02594684250652790,
         -0.02689734473824501,
         -0.01589989848434925,
         -0.005107361823320389,
         -0.002585118636488914,
         0.004987264052033424,
         -0.0226241722702980,
         -0.02714006043970585,
         0.006782429292798042,
         -0.02115523070096970,
         0.02814273722469807,
         0.007546173408627510,
         0.02030598558485508,
         0.0005446132272481918,
         -0.016492098569870,
         -0.01079973019659519,
         0.02118665166199207,
         0.01292395405471325,
         0.02839225716888905,
         0.008298667147755623,
         -0.02474595420062542,
         0.006244516000151634,
         -0.01206902042031288,
         0.02063800208270550,
         -0.01311862468719482,
         -0.02663503214716911,
         0.01364537887275219,
         -0.02065858244895935,
         0.01681354828178883,
         0.005820980295538902,
         0.02272172085940838,
         0.01817530207335949,
         0.007050594314932823,
         -0.02752109058201313,
         0.01824667491018772,
         -0.003583304584026337,
         -0.03043932095170021,
         0.0006352234631776810,
         0.007530590519309044,
         -0.01139765977859497,
         -0.01294509693980217,
         0.02086876519024372,
         -0.01394125074148178,
         -0.007365215569734573,
         -0.01145049929618835,
         0.02906659059226513,
         0.004160439595580101,
         0.03074392862617970,
         0.01577307842671871,
         0.01958244480192661,
         0.006629241630434990,
         -0.008840005844831467,
         0.003954777494072914,
         -0.002603018656373024,
         -0.02575106732547283,
         -0.02469300106167793,
         -0.02120179869234562,
         0.002184836193919182,
         -0.02772315219044685,
         0.009790875948965549,
         0.02347843348979950,
         0.0129581568762660,
         0.02508267760276794,
         0.01634359359741211,
         0.01022083498537540,
         0.006477649789303541,
         0.01286042761057615,
         0.02225428633391857,
         0.01967966742813587,
         -0.004938983824104071,
         0.009485957212746143,
         -0.01024364214390516,
         0.0002328504197066650,
         0.03063687309622765,
         -0.02169005014002323,
         -0.009150003083050251,
         -0.02078043855726719,
         0.01037993561476469,
         -0.02833564765751362,
         0.008724447339773178,
         -0.01223916560411453,
         -0.01656025648117065,
         0.002817575586959720,
         0.0008383442764170468,
         -0.01056922972202301,
         -0.002943665487691760,
         -0.03000185638666153,
         -0.01066093053668737,
         -0.004136661998927593,
         -0.02628900669515133,
         -0.01100328378379345,
         0.004524060990661383,
         0.02511484362185001,
         0.0006893640966154635,
         0.002383633516728878,
         -0.02736154943704605,
         -0.02784202061593533,
         -0.004876456223428249,
         0.02061684615910053,
         0.02519205585122108,
         0.01383488904684782,
         0.02817744947969913,
         -0.01404275000095367,
         -0.001810519490391016,
         -0.02931876294314861,
         -0.008816483430564404,
         0.004026059526950121,
         0.01261378359049559,
         -0.004153293091803789,
         0.0009950387757271528,
         0.006508327554911375,
         0.02431563287973404,
         -0.01389523223042488,
         -0.02952498197555542,
         -0.01193253044039011,
         0.02513744868338108,
         0.02172814495861530,
         -0.01095878705382347,
         0.006251362152397633,
         -0.02426436543464661,
         -0.0008291080594062805,
         0.01363991573452950,
         0.02195741795003414,
         -0.006456763483583927,
         -0.03025562129914761,
         -0.01091306470334530,
         0.01373656839132309,
         -0.002324011409655213,
         -0.003560061566531658,
         -0.02746323496103287,
         -0.01710976287722588,
         0.01986293867230415,
         0.01967372931540012,
         0.007469828240573406,
         0.009392098523676395,
         0.02891070023179054,
         -0.02307965047657490,
         0.02298992499709129,
         -0.008578035980463028,
         -0.003076570807024837,
         -0.02581012994050980,
         -0.0185379870235920,
         0.02325741946697235,
         0.008972551673650742,
         -0.01987346820533276,
         -0.01113295648247004,
         0.02777484245598316,
         -0.01624668575823307,
         0.02666648291051388,
         0.02626378834247589,
         0.02561119012534618,
         0.02616908773779869,
         -0.03032435476779938,
         -0.01266954932361841,
         -0.001193513628095388,
         -0.01436024811118841,
         0.02671200968325138,
         0.01677911728620529,
         0.004942608065903187,
         0.01523658819496632,
         0.02480100840330124,
         0.01148939505219460,
         0.001609714003279805,
         0.01660997793078423,
         0.02444082126021385,
         0.01565791107714176,
         -0.02788974530994892,
         0.02557608857750893,
         0.0006193116423673928,
         -0.01653539203107357,
         -0.007511823438107967,
         -0.02535133063793182,
         -0.02057536505162716,
         0.006424063816666603,
         0.03008610382676125,
         -0.02661637589335442,
         -0.02792182564735413,
         0.02101190574467182,
         0.01353809423744678,
         0.01223750971257687,
         -0.01720828935503960,
         0.003347752615809441,
         -0.03276070952415466,
         -0.02933809347450733,
         0.01213601231575012,
         0.01298683602362871,
         0.01817784644663334,
         -0.006046849768608809,
         0.02359957434237003,
         -0.01591762527823448,
         -0.002871003001928329,
         -0.0007288793567568064,
         -0.02076278813183308,
         0.0004074220196343958,
         -0.01837453804910183,
         0.02646260708570480,
         -0.01241403352469206,
         0.02062650211155415,
         -0.002199820708483458,
         0.02741257287561893,
         0.009307905100286007,
         -0.02471907995641232,
         0.005096063017845154,
         0.01047645974904299,
         -0.02825328148901463,
         -0.02771218679845333,
         0.004763400182127953,
         0.007884293794631958,
         0.01521560642868280,
         -0.02945888042449951,
         -0.01101413741707802,
         -0.01134447753429413,
         0.001400713808834553,
         -0.001612988882698119,
         -0.003870521206408739,
         0.02696274593472481,
         -0.007785739377140999,
         -0.01948602683842182,
         -0.007631655316799879,
         0.01273456029593945,
         -0.01477122493088245,
         0.002800972666591406,
         -0.02227018773555756,
         -0.01088909432291985,
         0.02443416230380535,
         -0.01382656116038561,
         0.004895792808383703,
         -0.0009150129044428468,
         -0.002201184164732695,
         -0.02415295690298080,
         0.02208014018833637,
         -0.01707781106233597,
         -0.005157611798495054,
         -0.01916994154453278,
         0.01407876051962376,
         -0.02833876386284828,
         0.02701538987457752,
         0.02369624376296997,
         -0.02294252067804337,
         0.01546448655426502,
         0.005136372521519661,
         -0.01294281519949436,
         -0.006041336804628372,
         -0.0004206833837088197,
         -0.01497685629874468,
         -0.008671355433762074,
         -0.01163697056472301,
         -0.03279262781143188,
         0.01298826467245817,
         0.003114391816779971,
         -0.001214120537042618,
         -0.02452954277396202,
         -0.01838354207575321,
         -0.005266751628369093,
         0.01879505254328251,
         -0.003017722163349390,
         -0.01685788854956627,
         -0.003709852229803801,
         -0.008922057226300240,
         -0.01019340008497238,
         0.01578844711184502,
         -0.005581959150731564,
         -0.01432385202497244,
         -0.01145811658352613,
         0.001077922759577632,
         0.006793915759772062,
         -0.03066800348460674,
         0.02855696342885494,
         -0.003898814553394914,
         0.01536635030061007,
         -0.01693465746939182,
         -0.03103845193982124,
         -0.02750159427523613,
         0.01235055085271597,
         -0.02940311282873154,
         -0.02186175063252449,
         0.03023295290768147,
         -0.01786995679140091,
         -0.02522831968963146,
         0.02742550335824490,
         -0.01982739381492138,
         -0.01562121976166964,
         0.02703705616295338,
         0.01302371360361576,
         -0.007834403775632381,
         -0.01466725859791040,
         -0.0009574256837368011,
         -0.006349434610456228,
         -0.03041243366897106,
         0.005295773968100548,
         -0.02072586491703987,
         0.008710214868187904,
         -0.02022805437445641,
         -0.003212401643395424,
         0.002039464190602303,
         -0.01336115226149559,
         0.009321151301264763,
         -0.02515885978937149,
         0.02109490521252155,
         -0.009981567040085793,
         0.02272834070026875,
         0.01862272061407566,
         0.005139013752341270,
         -0.003848653286695480,
         -0.01762474328279495,
         0.01194546557962894,
         -0.01811781525611877,
         0.02767734415829182,
         0.01200715638697147,
         0.001961169764399529,
         0.002559741958975792,
         0.02112627215683460,
         0.01038111560046673,
         -0.0292775034904480,
         -0.03057668544352055,
         -0.01156218349933624,
         -0.0007926225662231445,
         0.02770197577774525,
         0.01470679976046085,
         -0.007783176377415657,
         0.007684161886572838,
         0.009844785556197166,
         -0.02429923787713051,
         0.02662625350058079,
         -0.01863404363393784,
         -0.01164035126566887,
         -0.02553114667534828,
         0.002768179401755333,
         0.01283127628266811,
         0.02464120276272297,
         -0.01145447976887226,
         -0.02576852962374687,
         0.0002691019326448441,
         -0.01732527464628220,
         -0.01963029615581036,
         0.02225657738745213,
         -0.01351988874375820,
         -0.003013314679265022,
         -0.009524129331111908,
         0.008166132494807243,
         0.006477965041995049,
         0.0007755327969789505,
         0.003960376605391502,
         -0.01101485081017017,
         -0.01283026672899723,
         0.02551451139152050,
         0.01079692877829075,
         -0.005776535719633102,
         0.01780715398490429,
         -0.001302279531955719,
         -0.008629154413938522,
         -0.02837612293660641,
         -0.01463341154158115,
         -0.003647314384579659,
         -0.02833465114235878,
         0.02797028608620167,
         -0.005437187850475311,
         -0.009047755971550941,
         -0.001227119937539101,
         0.01574927754700184,
         0.01483704149723053,
         -0.005296592134982347,
         -0.01437763776630163,
         0.006741568446159363,
         -0.01005898788571358,
         -0.01543838996440172,
         -0.007956430315971375,
         0.008285067044198513,
         0.008045353926718235,
         -0.02258919924497604,
         0.008324724622070789,
         0.02159908600151539,
         0.002476887544617057,
         -0.001910618273541331,
         -0.01078404765576124,
         -0.02412316948175430,
         -0.01882351934909821,
         0.02229919470846653,
         0.01248689182102680,
         0.02791973017156124,
         0.009775695390999317,
         -0.01482301298528910,
         0.01474018115550280,
         0.02628391794860363,
         0.02273720502853394,
         -0.02308273129165173,
         0.02815136127173901,
         -0.0002876398793887347,
         -0.03048922121524811,
         -0.0009124691132456064,
         0.01694441586732864,
         -0.005688558332622051,
         -0.02773653157055378,
         -0.003215029835700989,
         0.003805280895903707,
         -0.009162832982838154,
         -0.006934374570846558,
         0.008520225994288921,
         -0.01139047276228666,
         -0.009377993643283844,
         -0.01478882692754269,
         -0.01947356946766376,
         -0.008293552324175835,
         0.003037863411009312,
         0.005736639257520437,
         0.02832709252834320,
         0.009247721172869205,
         -0.007310868240892887,
         0.02507852949202061,
         0.006708329077810049,
         -0.003476485842838883,
         0.009699225425720215,
         0.02427931688725948,
         -0.01300529018044472,
         0.01656098291277885,
         0.007010571658611298,
         0.002165089361369610,
         0.01537708844989538,
         -0.006890881340950727,
         0.0205723550170660,
         0.02181700989603996,
         0.02717271260917187,
         0.03063724003732204,
         -0.02438672259449959,
         0.01838149502873421,
         -0.03044583089649677,
         0.01357470918446779,
         0.008610298857092857,
         -0.02470531128346920,
         0.02756957150995731,
         -0.02035740762948990,
         -0.02526202052831650,
         0.01270395796746016,
         -0.01694295182824135,
         0.004500175826251507,
         0.01564027927815914,
         0.008625705726444721,
         -0.02383831329643726,
         -0.01170988380908966,
         0.01853995583951473,
         0.005343009252101183,
         0.01380831655114889,
         0.01451946515589952,
         0.02032861299812794,
         -0.004990609828382730,
         0.02024815604090691,
         -0.02396376989781857,
         -0.02354826591908932,
         0.01252776477485895,
         -0.02580141834914684,
         -0.02848679572343826,
         -0.01406739372760057,
         0.01261446811258793,
         0.02399177476763725,
         -0.002737231086939573,
         -0.02857772633433342,
         -0.02555556036531925,
         -0.002457265276461840,
         -0.01201520022004843,
         -0.001157937804237008,
         0.006940753664821386,
         0.01681285351514816,
         -0.004423731938004494,
         -0.002815757179632783,
         -0.001909470185637474,
         -0.001145641435869038,
         -0.02498829737305641,
         -0.02695786580443382,
         0.02776512131094933,
         0.02416931651532650,
         -0.02127468213438988,
         -0.02428794838488102,
         -0.03018376789987087,
         0.03015073016285896,
         -0.008891425095498562,
         0.02226347476243973,
         -0.02482390962541103,
         0.0004133310867473483,
         -0.01405361481010914,
         -0.02760710194706917,
         -0.002432309556752443,
         -0.02085665427148342,
         -0.02478739619255066,
         0.007076143287122250,
         0.02997585944831371,
         -0.01911666989326477,
         0.003933752886950970,
         -0.001353090628981590,
         0.01730808243155479,
         0.004123315680772066,
         -0.01515788957476616,
         -0.004503101576119661,
         -0.02521533146500587,
         0.009942041710019112,
         0.0002960199781227857,
         -0.02347096428275108,
         0.004743961617350578,
         0.02196289598941803,
         0.02915262244641781,
         0.02527077309787273,
         0.0005421076202765107,
         -0.02863468974828720,
         0.01791423559188843,
         -0.01808740943670273,
         -0.02395077235996723,
         -0.02132477425038815,
         -0.02804302796721458,
         0.03075672686100006,
         0.007973199710249901,
         0.003993937280029058,
         0.02683770097792149,
         -0.005526344291865826,
         0.01194777525961399,
         0.006316045764833689,
         0.007243893574923277,
         -0.01673701405525208,
         -0.01231430284678936,
         0.002861254848539829,
         0.02921249158680439,
         0.02664287388324738,
         0.009879093617200851,
         0.01219729520380497,
         -0.003913355991244316,
         0.001262146048247814,
         0.002186414785683155,
         0.006099216174334288,
         -0.02410450950264931,
         0.002304759807884693,
         0.004670816008001566,
         0.02172089554369450,
         -0.02153881266713142,
         -0.001195064745843410,
         -0.003602450480684638,
         0.01437039300799370,
         0.009933712892234325,
         0.005425517447292805,
         -0.002042241394519806,
         0.02248245291411877,
         -0.009397294372320175,
         -0.02985590510070324,
         -0.01595307700335979,
         -0.02901135198771954,
         0.03055840544402599,
         0.02409008704125881,
         -0.001065361546352506,
         -0.01819782331585884,
         0.02606040425598621,
         -0.02601844817399979,
         0.01846890337765217,
         -0.002579814987257123,
         0.008986962959170341,
         -0.02832369692623615,
         0.004971791990101337,
         0.01204831991344690,
         0.02771742269396782,
         0.01844307966530323,
         0.01533955335617065,
         -0.02735948748886585,
         0.02860029786825180,
         -0.006787601858377457,
         -0.02836929447948933,
         -0.001728370436467230,
         -0.005289386026561260,
         0.0007154154591262341,
         -0.01379212550818920,
         -0.01104829926043749,
         0.005749916192144156,
         0.007718489505350590,
         -0.005744607653468847,
         -0.02338016778230667,
         0.005870371125638485,
         0.007420879323035479,
         0.02608151920139790,
         -0.0008132677758112550,
         -0.01224402990192175,
         -0.003646001685410738,
         0.01277877017855644,
         -0.01834706217050552,
         -0.03055457212030888,
         -0.01251450181007385,
         -0.02706380002200603,
         0.01957787759602070,
         0.02705763652920723,
         0.003046970814466476,
         -0.02648646757006645,
         0.02555110491812229,
         0.02875557355582714,
         0.001953231170773506,
         0.01916305348277092,
         -0.009450475685298443,
         -0.01220957376062870,
         0.01045644097030163,
         0.03064043633639812,
         0.009251987561583519,
         -0.02232998795807362,
         0.01769702695310116,
         -0.02395479753613472,
         -0.01479959674179554,
         0.02173170261085033,
         0.03061774186789989,
         -0.003884527832269669,
         0.02203687839210033,
         0.02237314544618130,
         0.01021779514849186,
         0.01078428886830807,
         -0.007192136719822884,
         -0.01552989147603512,
         0.02327011339366436,
         0.005800282582640648,
         -0.01236328668892384,
         0.01698306016623974,
         -0.02984490618109703,
         0.009794110432267189,
         0.006416110321879387,
         -0.02167099341750145,
         -0.02376925572752953,
         0.004480937495827675,
         -0.008220802992582321,
         -0.01554714608937502,
         0.02956075407564640,
         0.02228585444390774,
         0.001172905787825584,
         0.01831328310072422,
         -0.02405524812638760,
         0.02358267270028591,
         0.01870701648294926,
         -0.007183328270912170,
         0.001958670094609261,
         0.01729663275182247,
         -0.009824384003877640,
         -0.002568472176790237,
         0.02532191015779972,
         -0.02497175708413124,
         0.01364575140178204,
         0.01417749561369419,
         -0.01983845978975296,
         0.02572336979210377,
         -0.01866951957345009,
         0.01806849054992199,
         0.02341327257454395,
         0.01500717736780643,
         0.01532636024057865,
         -0.003519441932439804,
         0.008223341777920723,
         0.005761599168181419,
         0.02449617348611355,
         -0.009024497121572495,
         -0.02268785983324051,
         0.03053137846291065,
         -0.01762434095144272,
         0.02088588289916515,
         0.01426768861711025,
         -0.008951053023338318,
         -0.02423082105815411,
         0.0249901395291090,
         -0.01083881221711636,
         0.02535898052155972,
         0.01529843173921108,
         -0.02855054475367069,
         0.01122489757835865,
         -0.01684162393212318,
         0.02221891656517982,
         -0.01450454723089933,
         -0.003412628080695868,
         0.02048441022634506,
         -0.008840813301503658,
         0.02112376503646374,
         -0.01174427010118961,
         -0.02928136475384235,
         0.01199593581259251,
         0.02446803823113441,
         0.005411717109382153,
         0.0005535816890187562,
         0.01500302739441395,
         -0.02774726040661335,
         -0.01273934915661812,
         0.005193592980504036,
         0.002809679368510842,
         0.008663417771458626,
         0.02386681362986565,
         0.01297483593225479,
         -0.01356713939458132,
         0.02086040377616882,
         0.02942222915589809,
         0.008058545179665089,
         -0.02943561784923077,
         -0.02738388068974018,
         -0.02147172950208187,
         0.0001393517741234973,
         -0.02909883484244347,
         -0.02497809007763863,
         -0.01480912696570158,
         0.03031009621918201,
         0.02815123647451401,
         -0.01418059132993221,
         -0.02090710215270519,
         -0.007246899418532848,
         -0.003208858193829656,
         0.02961619384586811,
         -0.005303083918988705,
         0.01404178235679865,
         0.001052028383128345,
         -0.01335231959819794,
         0.007064363453537226,
         0.01375090982764959,
         -0.003450451651588082,
         -0.02921058051288128,
         0.01428882963955402,
         0.002433238783851266,
         -0.02663444913923740,
         0.01921183429658413,
         -0.004292848054319620,
         -0.02910869754850864,
         0.01615851372480392,
         -0.02820196188986301,
         -0.007188480813056231,
         -0.005005059298127890,
         0.003300894517451525,
         0.006670554168522358,
         0.02044195681810379,
         -0.02624663710594177,
         -0.02803734317421913,
         -0.001054393011145294,
         -0.01972110755741596,
         0.01876706071197987,
         0.01325202919542789,
         -0.003909700084477663,
         0.02495289966464043,
         -0.02093195170164108,
         -0.008418315090239048,
         -0.004209327045828104,
         0.01458761189132929,
         -0.006616384256631136,
         0.01968349516391754,
         0.01835594698786736,
         0.02904023416340351,
         0.02382263354957104,
         -0.01684428006410599,
         0.01781252585351467,
         0.01782098971307278,
         0.01291942596435547,
         -0.02926144003868103,
         0.03001498058438301,
         0.02844822779297829,
         -0.02685290947556496,
         -0.01494800765067339,
         -0.01202434673905373,
         -0.01811712794005871,
         -0.001595034031197429,
         -0.0007393716950900853,
         -0.02575822174549103,
         -0.01050910074263811,
         0.02129223756492138,
         -0.02612173184752464,
         -0.004659003112465143,
         0.02428909577429295,
         -0.004005833994597197,
         -0.02704742178320885,
         -0.01946092955768108,
         -0.02561577595770359,
         -0.0261425431817770,
         -0.02232998423278332,
         -0.01538856141269207,
         -0.01758303306996822,
         -0.009006594307720661,
         -0.02918693982064724,
         0.02696737088263035,
         0.02073046937584877,
         0.003086600685492158,
         0.02888461574912071,
         -0.002592579927295446,
         0.02626204676926136,
         -0.02478209324181080,
         -0.02172689139842987,
         0.02524768188595772,
         -0.01441157702356577,
         0.006949910894036293,
         0.02348925173282623,
         0.02410772442817688,
         0.004392892587929964,
         0.02870151400566101,
         -0.02556683123111725,
         0.003641721326857805,
         -0.01261484343558550,
         0.01565859839320183,
         0.02007371746003628,
         0.02943275868892670,
         -0.005127778276801109,
         -0.02995816245675087,
         0.02059042640030384,
         -0.02853013947606087,
         -0.01452713552862406,
         0.0005586178158409894,
         -0.01386019494384527,
         0.01768148131668568,
         0.01546990592032671,
         0.009579423815011978,
         0.01317258924245834,
         -0.03039122931659222,
         0.01051288470625877,
         0.01458889711648226,
         0.003605064004659653,
         -0.003480106359347701,
         0.01016495935618877,
         0.01476277504116297,
         -0.01600087061524391,
         0.01706657558679581,
         -0.02550682984292507,
         0.01385432947427034,
         0.02306075580418110,
         0.007449655327945948,
         0.0003720039094332606,
         0.01728909835219383,
         0.006031144876033068,
         0.03090172074735165,
         0.004237907472997904,
         0.03062855638563633,
         0.004901126027107239,
         0.02548448555171490,
         -0.01886446028947830,
         0.003436295315623283,
         -0.011449895799160,
         0.02679882012307644,
         0.01699109002947807,
         0.005498814396560192,
         0.02985235676169395,
         -0.02251090854406357,
         0.002474997891113162,
         -0.003742651082575321,
         -0.01249759830534458,
         0.02217949368059635,
         -0.01395143941044807,
         -0.01176123600453138,
         0.01034258678555489,
         -0.01817047223448753,
         -0.005238193087279797,
         -0.02774237655103207,
         0.02058562077581882,
         0.001116978353820741,
         0.02360194921493530,
         0.02988303266465664,
         -0.007658728398382664,
         -0.01778751984238625,
         -0.01684442907571793,
         0.02336858026683331,
         -0.008482747711241245,
         -0.02471698820590973,
         -0.0005420697852969170,
         -0.02729061432182789,
         -0.02965078316628933,
         0.02842151187360287,
         0.03047255799174309,
         0.01602140255272388,
         0.003786564338952303,
         -0.009273597039282322,
         -0.01144332997500896,
         0.001984076574444771,
         -0.01226747408509254,
         -0.02768708020448685,
         -0.003167066490277648,
         -0.01396163552999496,
         -0.006778728216886520,
         0.02090782299637794,
         -0.01018612366169691,
         0.007391890045255423,
         0.02977224066853523,
         0.01209294144064188,
         8.155466639436781e-05,
         0.009610422886908054,
         -0.01892804726958275,
         -0.01247117575258017,
         0.02446580864489079,
         -0.02739220112562180,
         -0.02280487306416035,
         -0.001670212484896183,
         0.009863222017884254,
         -0.02825606055557728,
         -0.02966744638979435,
         0.0002071450580842793,
         0.01927242055535316,
         0.01637524366378784,
         0.02893216162919998,
         -0.01549790240824223,
         0.02549028769135475,
         -0.01439652033150196,
         0.02525666169822216,
         -0.006142284255474806,
         0.008717452175915241,
         -7.735565304756165e-05,
         0.001419725595042109,
         -0.0003586256643757224,
         0.02550285123288631,
         -0.01325065270066261,
         0.02888620458543301,
         -0.01318440027534962,
         -0.01523451786488295,
         -0.0005678143352270126,
         0.01616630889475346,
         -0.02933516353368759,
         -0.02998550981283188,
         0.008955096825957298,
         -0.01299310661852360,
         0.0005813259631395340,
         0.0002089049667119980,
         0.01513207890093327,
         0.004813281819224358,
         -0.02119849622249603,
         0.01810408569872379,
         -0.02691780589520931,
         0.02417528815567493,
         0.02686037309467793,
         -0.006016829982399940,
         -0.02463999390602112,
         -0.02014212869107723,
         -0.03051266446709633,
         -0.01285417936742306,
         -0.01295939832925797,
         -0.01226182095706463,
         -0.02800194919109344,
         -0.01992551982402802,
         0.01224559359252453,
         0.009616585448384285,
         -0.01056854240596294,
         0.004968887194991112,
         -0.01103941164910793,
         0.02770339883863926,
         -0.01383518241345882,
         -0.02951364964246750,
         0.02253000624477863,
         0.02673031948506832,
         -0.01516312174499035,
         0.01458270289003849,
         0.01995473168790340,
         0.02711615525186062,
         0.001166896894574165,
         -0.02813695184886456,
         0.01211596839129925,
         -0.01272454299032688,
         0.001582475379109383,
         -0.01983075775206089,
         -0.02517961524426937,
         0.01880224235355854,
         -0.01288430020213127,
         0.001642232760787010,
         -0.01080280728638172,
         -0.02011132240295410,
         0.03030157648026943,
         -0.004461966454982758,
         -0.02659403905272484,
         -0.02455094829201698,
         -0.02762654423713684,
         0.01475449465215206,
         0.003289582207798958,
         0.01315353624522686,
         0.01077754981815815,
         -0.02842083200812340,
         -0.002873340621590614,
         -0.02824844233691692,
         0.009166942909359932,
         0.02848366461694241,
         0.02789561636745930,
         0.01848497800529003,
         -0.02198098786175251,
         -0.02434856444597244,
         0.02528133057057858,
         -0.02187879942357540,
         -0.01491939183324575,
         0.02656764723360538,
         0.01179173495620489,
         0.004530551843345165,
         0.0009181742207147181,
         0.001027413061819971,
         -0.003493046388030052,
         -0.01121531613171101,
         0.01004554890096188,
         -0.003443653928115964,
         0.02583310008049011,
         0.003652273211628199,
         0.02029813267290592,
         -0.01209401525557041,
         -0.02238352410495281,
         0.03069349564611912,
         0.0124380225315690,
         -0.004382232204079628,
         0.02793995663523674,
         -0.008148643188178539,
         0.01020336430519819,
         -0.02476240694522858,
         -0.008633100427687168,
         -0.02163920924067497,
         0.004980189260095358,
         0.01656951941549778,
         0.004758203867822886,
         -0.006742849480360746,
         0.02309352904558182,
         -0.01386199891567230,
         0.02330242097377777,
         0.01397990621626377,
         -0.02497462369501591,
         -0.01647461391985416,
         -0.009892503730952740,
         -0.02828225120902061,
         0.005184751469641924,
         0.02283062785863876,
         -0.02001583948731422,
         0.03070612996816635,
         0.02565872296690941,
         0.002239053370431066,
         0.01982406713068485,
         0.02651769295334816,
         -0.01864470914006233,
         0.01731830090284348,
         -0.007518140599131584,
         0.03041502647101879,
         -0.01176179572939873,
         0.001602050964720547,
         0.009499913081526756,
         0.004737403709441423,
         -0.01257002353668213,
         -0.008971011266112328,
         0.004870389122515917,
         0.01660633273422718,
         0.007066290825605392,
         0.01988487318158150,
         -0.004358175676316023,
         0.01352740637958050,
         0.02917148545384407,
         0.002187141682952642,
         0.02343851700425148,
         -0.01387204602360725,
         0.001958130160346627,
         0.02272277884185314,
         -0.01456999965012074,
         -0.009519050829112530,
         0.006820204202085733,
         -0.004768153186887503,
         -0.03001045994460583,
         -0.03034679777920246,
         0.01644962094724178,
         0.01922277919948101,
         0.02420281805098057,
         -0.02052784524857998,
         0.01187857799232006,
         0.002437807852402329,
         -0.002050763694569468,
         0.005152172408998013,
         0.02043643593788147,
         -0.009967614896595478,
         -0.02663038857281208,
         0.02831234224140644,
         -0.01439891010522842,
         -0.002860041102394462,
         0.02023417502641678,
         0.02659627981483936,
         0.02349548600614071,
         -0.003285513725131750,
         0.02732016704976559,
         -0.02575562149286270,
         0.02881375513970852,
         0.004608518909662962,
         -0.01086532324552536,
         -0.006837698630988598,
         -0.008791129104793072,
         0.01840773038566113,
         0.01284989900887012,
         0.02687713131308556,
         0.01110730879008770,
         -0.003847647225484252,
         -0.02294290810823441,
         -0.02115421928465366,
         -0.006457242649048567,
         0.009611090645194054,
         -0.02166540175676346,
         -0.004200802650302649,
         -0.003044948913156986,
         0.01938414946198463,
         0.0281215924769640,
         0.01954682916402817,
         0.02986203134059906,
         -0.006162251811474562,
         0.02293336205184460,
         0.02865005098283291,
         0.01502613164484501,
         -0.009995250031352043,
         -0.01024448778480291,
         -0.0001792132534319535,
         -0.01158748660236597,
         0.01559807360172272,
         0.02826415933668613,
         0.01338529773056507,
         -0.01198193244636059,
         0.01135110016912222,
         -0.01688060164451599,
         0.03018186800181866,
         0.01640217565000057,
         -0.02469977922737598,
         0.02014673873782158,
         0.01962228678166866,
         0.01453495956957340,
         0.008175069466233253,
         -0.01887683570384979,
         -0.01030456833541393,
         -0.02886025048792362,
         0.01914447173476219,
         -0.02855423465371132,
         0.02243883907794952,
         -0.01270536053925753,
         -0.01315389294177294,
         -0.003165715141221881,
         -0.02553638629615307,
         -0.03045554086565971,
         -0.02179459109902382,
         -0.01363077666610479,
         -0.006458724383264780,
         0.02632390521466732,
         0.01068069878965616,
         0.004975918680429459,
         0.01044385880231857,
         0.02982169017195702,
         0.02135339751839638,
         0.01669878512620926,
         0.01594622619450092,
         0.004701195750385523,
         0.007912039756774902,
         0.01214839052408934,
         0.02095592580735683,
         0.02015433646738529,
         0.01058439631015062,
         -0.01636988855898380,
         0.02555157989263535,
         0.02509514614939690,
         -0.02263343892991543,
         -0.006009481847286224,
         0.02790218219161034,
         0.002959296805784106,
         0.03086876496672630,
         -0.008712639100849628,
         0.001568706589750946,
         0.008080223575234413,
         0.03006130829453468,
         -0.02644597180187702,
         0.01954087801277637,
         -0.02724723331630230,
         -0.01672849990427494,
         -0.01471548154950142,
         0.0003300476819276810,
         0.01049704384058714,
         0.01580432616174221,
         0.06308188289403915,
         0.02321260794997215,
         -0.007959709502756596,
         0.01871203817427158,
         -0.007334718480706215,
         0.02888777293264866,
         0.02770420350134373,
         -0.004177979193627834,
         0.01190435420721769,
         0.02563584037125111,
         0.0009902637684717774,
         -0.02516748756170273,
         0.01564176380634308,
         0.01248246431350708,
         -0.02731796354055405,
         -0.01674269698560238,
         0.02309648133814335,
         0.008106981404125690,
         -0.00344302156008780,
         -0.0008227003854699433,
         -0.02118281647562981,
         -0.001953737577423453,
         -0.02575116977095604,
         0.03032017685472965,
         0.01017497479915619,
         0.02385277673602104,
         0.02434688434004784,
         -0.02774392813444138,
         -0.02002054452896118,
         -0.001045623095706105,
         -0.01293587964028120,
         0.01878007501363754,
         -0.01911977678537369,
         0.004011994227766991,
         -0.005907228216528893,
         -0.02618391066789627,
         0.01238966081291437,
         0.02407249622046947,
         0.02559869177639484,
         -8.142102160491049e-05,
         0.02682654187083244,
         0.02550356648862362,
         -0.02582613937556744,
         -0.01305109728127718,
         -0.005638860166072845,
         -0.02081649750471115,
         -0.02811654098331928,
         -0.02530764229595661,
         -0.007571833208203316,
         0.01572924293577671,
         -0.01315701380372047,
         0.02594806440174580,
         0.004294721409678459,
         -0.002399966120719910,
         -0.01866475306451321,
         0.001773251220583916,
         0.01244630850851536,
         -0.01208092086017132,
         -0.01643468067049980,
         0.03050607629120350,
         -0.01459354534745216,
         -0.02893018163740635,
         0.009865960106253624,
         0.02880011312663555,
         0.01726709492504597,
         0.01770105399191380,
         0.004355391487479210,
         0.01001823507249355,
         0.01171970553696156,
         0.02587002329528332,
         0.02799897454679012,
         0.001433657482266426,
         0.02858797274529934,
         -0.01561777293682098,
         -0.003968624398112297,
         0.009458070620894432,
         -0.02304376102983952,
         -0.01768336817622185,
         0.01551926694810390,
         0.006447704508900642,
         -0.02999842353165150,
         0.01194620691239834,
         -0.01118290424346924,
         -0.002232704311609268,
         -0.02207132801413536,
         -0.01390948891639709,
         0.02575180865824223,
         -0.02496579289436340,
         -0.01823982410132885,
         0.02801766432821751,
         -0.001926047727465630,
         -0.01572327315807343,
         0.001818468794226646,
         0.02479137666523457,
         -0.003790710121393204,
         -0.01929159462451935,
         0.01591971702873707,
         0.01599373854696751,
         0.004800727590918541,
         0.002881901338696480,
         -0.01508149504661560,
         -0.01119902729988098,
         -0.01042488403618336,
         -0.01469613797962666,
         -0.003088116645812988,
         -0.008541552349925041,
         0.02051783911883831,
         0.01551532186567783,
         -0.01190098933875561,
         0.001251751556992531,
         -0.03070224821567535,
         0.001663429662585258,
         0.003912137821316719,
         -0.01770410314202309,
         0.02542844228446484,
         0.008148054592311382,
         0.005751500837504864,
         0.01946063339710236,
         -0.01099234540015459,
         -0.01309686154127121,
         0.02896619029343128,
         0.02296222187578678,
         0.01194760110229254,
         0.02125839143991470,
         0.02900963276624680,
         0.02885914780199528,
         0.02693843841552734,
         0.02999773621559143,
         0.02475707978010178,
         0.01187305059283972,
         0.02042632736265659,
         0.02783741988241673,
         -0.02628497593104839,
         -0.01426201499998569,
         0.01210655085742474,
         0.02570844255387783,
         0.002125025261193514,
         0.01344528608024120,
         0.01606246829032898,
         -0.01604708284139633,
         0.02603288739919662,
         0.02875135093927383,
         -0.01264316868036985,
         0.02057392150163651,
         -0.0005191676900722086,
         -0.01480663474649191,
         -0.01835402473807335,
         -0.01469034608453512,
         -0.008109847083687782,
         0.02797290869057178,
         0.007889772765338421,
         0.004198240116238594,
         -0.0001216386081068777,
         -0.0006318085361272097,
         -0.001129898126237094,
         -0.006209881976246834,
         -0.004199891351163387,
         0.02226947061717510,
         -0.01581839658319950,
         0.01301425602287054,
         -0.001193697447888553,
         0.003377277171239257,
         0.02167068608105183,
         -0.01606768928468227,
         0.02382054552435875,
         0.008669256232678890,
         0.01718934252858162,
         -0.001262042671442032,
         0.01754673756659031,
         0.02931572310626507,
         0.02533805742859840,
         -0.01658667065203190,
         0.02874628826975822,
         0.01181966066360474,
         0.02648992463946342,
         -0.006012009456753731,
         0.02713351510465145,
         -0.003917411435395479,
         0.02241226099431515,
         -0.01361010316759348,
         0.02660250104963779,
         -0.02296703681349754,
         0.02084036357700825,
         0.01259337179362774,
         0.01033768709748983,
         0.001260279212146997,
         -0.01383976265788078,
         -0.03060814924538136,
         0.01456472463905811,
         -0.02440398558974266,
         0.02831267006695271,
         -0.01847034320235252,
         0.01002606842666864,
         -0.008600304834544659,
         -0.003181080333888531,
         -0.001331016886979342,
         -0.01442430913448334,
         -0.006021328736096621,
         0.02014837600290775,
         0.01049473695456982,
         0.01942400075495243,
         0.02077832631766796,
         -0.02290415763854980,
         0.01104269456118345,
         0.01965309306979179,
         -0.007947431877255440,
         -0.008879899978637695,
         0.01853750087320805,
         -0.01998079940676689,
         0.03077240101993084,
         -0.01130245812237263,
         0.007855257950723171,
         -0.02708653174340725,
         0.01200498919934034,
         0.01575585827231407,
         0.02894717641174793,
         -0.02505580335855484,
         -0.01520518679171801,
         -0.02093343064188957,
         0.02133052237331867,
         0.02357116527855396,
         -0.01371680572628975,
         -0.02867885679006577,
         0.02655816450715065,
         -0.01575441844761372,
         0.005847244523465633,
         -0.008174084126949310,
         -0.01069284416735172,
         0.02837034314870834,
         0.0005588020430877805,
         -0.007624081801623106,
         -0.01486295554786921,
         -0.02116767875850201,
         0.003602231387048960,
         0.004641812760382891,
         0.008047049865126610,
         -0.01335575152188540,
         0.02963502705097198,
         0.02858814969658852,
         0.004176246002316475,
         0.02381025999784470,
         -0.006388721521943808,
         -0.01557192299515009,
         0.009205264970660210,
         -0.01342465355992317,
         0.007187874522060156,
         -0.004615457728505135,
         0.02170152403414249,
         -0.001601623254828155,
         -0.01307024527341127,
         0.01007483154535294,
         -0.01524966675788164,
         0.01031009014695883,
         0.02995723485946655,
         0.01744778640568256,
         0.03154843673110008,
         -0.005634061060845852,
         0.01436851732432842,
         -0.02676085568964481,
         -0.001763747888617218,
         0.004535895772278309,
         0.02879123017191887,
         0.02991889789700508,
         0.02717136219143867,
         0.003473382210358977,
         -0.002491787541657686,
         0.007472614757716656,
         -0.02200166881084442,
         -0.009389353916049004,
         0.01758475415408611,
         0.0135935153812170,
         -0.01982464827597141,
         0.02616431377828121,
         -0.006440876517444849,
         0.005796412471681833,
         -0.008455405011773109,
         -0.01635637134313583,
         0.01520633697509766,
         0.01838639937341213,
         0.02730048634111881,
         -0.01919890567660332,
         -0.01108970027416945,
         0.03803655505180359,
         0.03099851682782173,
         -0.0002781508665066212,
         0.01793309114873409,
         -0.02053209580481052,
         0.004103189334273338,
         0.002233001869171858,
         0.006776412483304739,
         0.001578078488819301,
         0.02136836387217045,
         0.007066084071993828,
         -0.01228130236268044,
         -0.01976072229444981,
         0.01973213069140911,
         -0.02637940458953381,
         0.005218198522925377,
         0.02554718218743801,
         -0.004290950950235128,
         0.02939291298389435,
         0.01151925884187222,
         -0.009207239374518394,
         -0.02494618482887745,
         0.01757290400564671,
         0.004899733234196901,
         -0.007203212007880211,
         -0.01429181452840567,
         -0.004933710675686598,
         0.01021515391767025,
         -0.01790060475468636,
         0.02761994302272797,
         -0.002577551640570164,
         -0.01507053989917040,
         -0.01876305788755417,
         -0.007072766311466694,
         -0.003778734710067511,
         -0.005194572731852531,
         0.02096136473119259,
         0.01979030668735504,
         -0.009136085398495197,
         0.01749984733760357,
         0.008354659192264080,
         0.01080835051834583,
         0.02736663632094860,
         -0.01981388404965401,
         0.01846782676875591,
         0.01284918189048767,
         0.01186186168342829,
         0.02612314745783806,
         -0.001888621482066810,
         0.005927636288106441,
         -0.003485029796138406,
         -0.01935788244009018,
         -0.01444679312407970,
         -0.009647406637668610,
         0.02570093050599098,
         0.02763228118419647,
         -0.01484226901084185,
         0.008692775852978230,
         0.0004361789324320853,
         -0.01693755388259888,
         0.02272639982402325,
         0.02977924235165119,
         -0.01303594373166561,
         -0.01264504343271255,
         -0.01371697522699833,
         0.01550173573195934,
         0.02801805175840855,
         -0.02016518451273441,
         0.002907047048211098,
         0.003167035058140755,
         0.009428201243281364,
         0.02058235369622707,
         0.01388872228562832,
         0.03035453148186207,
         0.03032699041068554,
         -0.02536384388804436,
         0.02077447436749935,
         0.02396600134670734,
         -0.02070245891809464,
         0.02788229845464230,
         -0.004119198769330978,
         0.02796625904738903,
         0.0155834611505270,
         0.02402897737920284,
         0.004361221566796303,
         -0.005923366174101830,
         -0.02724636159837246,
         0.03056382574141026,
         0.01734440214931965,
         0.02066936157643795,
         -0.004188049584627151,
         -0.01420879177749157,
         -0.01314505003392696,
         0.01106949336826801,
         0.01135115511715412,
         0.01780218444764614,
         0.01117679663002491,
         0.01450192369520664,
         -0.006329804658889771,
         0.01162325404584408,
         -0.02262493409216404,
         -0.01219004765152931,
         0.003248410299420357,
         -0.01274526491761208,
         0.0008827093988656998,
         -0.01901030540466309,
         -0.02564482018351555,
         -0.02436738647520542,
         -0.007767682895064354,
         0.01848942600190639,
         0.0164914745837450,
         -0.02031827159225941,
         -0.0008599907159805298,
         -0.02246919646859169,
         -0.02035549841821194,
         0.02535356022417545,
         -0.006878916174173355,
         0.02280546166002750,
         -0.01146250031888485,
         0.02436641789972782,
         -0.009199799969792366,
         0.00494227372109890,
         -0.02880159579217434,
         0.01382838003337383,
         -0.01801806688308716,
         0.02347524650394917,
         -0.01624557748436928,
         -0.02067038975656033,
         -0.01713948883116245,
         0.01900943554937840,
         -0.02571475133299828,
         0.009734412655234337,
         -0.005598682910203934,
         0.02961236052215099,
         0.02046407572925091,
         -0.01456720288842916,
         0.004928802140057087,
         0.01339463796466589,
         -0.02117957919836044,
         0.02644614130258560,
         -0.01120379287749529,
         -0.01401096209883690,
         0.02984787896275520,
         -0.02032049186527729,
         0.02132821083068848,
         0.01936891488730907,
         -0.005669532809406519,
         0.02400383166968822,
         0.001389043405652046,
         -0.02581357397139072,
         0.03039992786943913,
         -0.01978894323110580,
         0.01768593490123749,
         0.003980976529419422,
         -0.02618004567921162,
         0.02785147726535797,
         -0.01142423599958420,
         0.007776698563247919,
         0.02198115922510624,
         -0.0008708405657671392,
         -0.008104807697236538,
         -0.01430254243314266,
         0.01112740766257048,
         -0.005968200974166393,
         -0.02631000056862831,
         -0.0004087331180926412,
         0.01085077598690987,
         0.02621523663401604,
         -0.02776771038770676,
         -0.007388850208371878,
         0.02488815039396286,
         0.01283932197839022,
         -0.01513905264437199,
         -0.006293203681707382,
         -0.03058743290603161,
         -0.002523689530789852,
         -0.02182960323989391,
